{"learner":{"attributes":{"scikit_learn":"{\"_estimator_type\": \"classifier\"}"},"feature_names":["zero_crossing_rate_c1","mean_c1","std_c1","first_order_diff_c1","second_order_diff_c1","zero_crossing_rate_c2","mean_c2","std_c2","first_order_diff_c2","second_order_diff_c2","zero_crossing_rate_c3","mean_c3","std_c3","first_order_diff_c3","second_order_diff_c3","zero_crossing_rate_c4","mean_c4","std_c4","first_order_diff_c4","second_order_diff_c4","zero_crossing_rate_c5","mean_c5","std_c5","first_order_diff_c5","second_order_diff_c5","zero_crossing_rate_c6","mean_c6","std_c6","first_order_diff_c6","second_order_diff_c6","zero_crossing_rate_c7","mean_c7","std_c7","first_order_diff_c7","second_order_diff_c7","zero_crossing_rate_c8","mean_c8","std_c8","first_order_diff_c8","second_order_diff_c8","zero_crossing_rate_c9","mean_c9","std_c9","first_order_diff_c9","second_order_diff_c9","zero_crossing_rate_c10","mean_c10","std_c10","first_order_diff_c10","second_order_diff_c10","zero_crossing_rate_c11","mean_c11","std_c11","first_order_diff_c11","second_order_diff_c11","zero_crossing_rate_c12","mean_c12","std_c12","first_order_diff_c12","second_order_diff_c12","zero_crossing_rate_c13","mean_c13","std_c13","first_order_diff_c13","second_order_diff_c13","zero_crossing_rate_c14","mean_c14","std_c14","first_order_diff_c14","second_order_diff_c14","delta_c1","theta_c1","alpha_c1","beta_c1","gamma_c1","delta_c2","theta_c2","alpha_c2","beta_c2","gamma_c2","delta_c3","theta_c3","alpha_c3","beta_c3","gamma_c3","delta_c4","theta_c4","alpha_c4","beta_c4","gamma_c4","delta_c5","theta_c5","alpha_c5","beta_c5","gamma_c5","delta_c6","theta_c6","alpha_c6","beta_c6","gamma_c6","delta_c7","theta_c7","alpha_c7","beta_c7","gamma_c7","delta_c8","theta_c8","alpha_c8","beta_c8","gamma_c8","delta_c9","theta_c9","alpha_c9","beta_c9","gamma_c9","delta_c10","theta_c10","alpha_c10","beta_c10","gamma_c10","delta_c11","theta_c11","alpha_c11","beta_c11","gamma_c11","delta_c12","theta_c12","alpha_c12","beta_c12","gamma_c12","delta_c13","theta_c13","alpha_c13","beta_c13","gamma_c13","delta_c14","theta_c14","alpha_c14","beta_c14","gamma_c14"],"feature_types":["float","float","float","float","float","float","float","float","float","float","float","float","float","float","float","float","float","float","float","float","float","float","float","float","float","float","float","float","float","float","float","float","float","float","float","float","float","float","float","float","float","float","float","float","float","float","float","float","float","float","float","float","float","float","float","float","float","float","float","float","float","float","float","float","float","float","float","float","float","float","float","float","float","float","float","float","float","float","float","float","float","float","float","float","float","float","float","float","float","float","float","float","float","float","float","float","float","float","float","float","float","float","float","float","float","float","float","float","float","float","float","float","float","float","float","float","float","float","float","float","float","float","float","float","float","float","float","float","float","float","float","float","float","float","float","float","float","float","float","float"],"gradient_booster":{"model":{"gbtree_model_param":{"num_parallel_tree":"1","num_trees":"300"},"iteration_indptr":[0,3,6,9,12,15,18,21,24,27,30,33,36,39,42,45,48,51,54,57,60,63,66,69,72,75,78,81,84,87,90,93,96,99,102,105,108,111,114,117,120,123,126,129,132,135,138,141,144,147,150,153,156,159,162,165,168,171,174,177,180,183,186,189,192,195,198,201,204,207,210,213,216,219,222,225,228,231,234,237,240,243,246,249,252,255,258,261,264,267,270,273,276,279,282,285,288,291,294,297,300],"tree_info":[0,1,2,0,1,2,0,1,2,0,1,2,0,1,2,0,1,2,0,1,2,0,1,2,0,1,2,0,1,2,0,1,2,0,1,2,0,1,2,0,1,2,0,1,2,0,1,2,0,1,2,0,1,2,0,1,2,0,1,2,0,1,2,0,1,2,0,1,2,0,1,2,0,1,2,0,1,2,0,1,2,0,1,2,0,1,2,0,1,2,0,1,2,0,1,2,0,1,2,0,1,2,0,1,2,0,1,2,0,1,2,0,1,2,0,1,2,0,1,2,0,1,2,0,1,2,0,1,2,0,1,2,0,1,2,0,1,2,0,1,2,0,1,2,0,1,2,0,1,2,0,1,2,0,1,2,0,1,2,0,1,2,0,1,2,0,1,2,0,1,2,0,1,2,0,1,2,0,1,2,0,1,2,0,1,2,0,1,2,0,1,2,0,1,2,0,1,2,0,1,2,0,1,2,0,1,2,0,1,2,0,1,2,0,1,2,0,1,2,0,1,2,0,1,2,0,1,2,0,1,2,0,1,2,0,1,2,0,1,2,0,1,2,0,1,2,0,1,2,0,1,2,0,1,2,0,1,2,0,1,2,0,1,2,0,1,2,0,1,2,0,1,2,0,1,2,0,1,2,0,1,2,0,1,2,0,1,2,0,1,2,0,1,2,0,1,2,0,1,2],"trees":[{"base_weights":[-1.3100482E-2,-5.6785303E-1,6.1432993E-1,7.402597E-1,-6.0626763E-1,1.2352941E0,1.4757875E-1,-1.4400001E-1,3.3934426E-1,-6.364383E-1,6.8852454E-1,-4.2857146E-1,1.3110871E0,-1.540786E-1,1.088328E0,-6.731518E-1,4.511274E-2,-1.4400001E-1,3.5999998E-1,-1.7027028E-1,-7.663455E-9,1.4362935E0,6.3354033E-1,6.943231E-1,-4.036223E-1,4.8387095E-1,1.2875537E0,-7.0264226E-1,1.3483143E-1,8.3606553E-1,-5.555556E-1,-7.663455E-9,1.4588236E0,-3.529416E-2,1.2352941E0,-4.9180332E-1,1.0677966E0,-5.7209307E-1,4.1605836E-1,-1.5517244E-1,8.219178E-1,1.3574661E0,-7.663455E-9,-1.19653195E-1,-2.1749641E-1,3.512195E-1,-1.894737E-1,3.5999998E-1,-3.600001E-2,-1.956522E-1,-7.663455E-9,4.4103587E-1,1.2857142E-1,2.6756757E-1,-1.894737E-1,3.9452055E-1,1.2857142E-1,-7.663455E-9,-1.836735E-1,3.6E-1,-1.2857145E-1,-1.9086462E-1,1.5365854E-1,3.333333E-1,-1.523077E-1,3.6734694E-1,-9.753488E-9,1.6363636E-1,4.2944163E-1],"categories":[],"categories_nodes":[],"categories_segments":[],"categories_sizes":[],"default_left":[0,0,0,0,0,0,0,0,0,0,0,0,0,0,0,0,0,0,0,0,0,0,0,0,0,0,0,0,0,0,0,0,0,0,0,0,0,0,0,0,0,0,0,0,0,0,0,0,0,0,0,0,0,0,0,0,0,0,0,0,0,0,0,0,0,0,0,0,0],"id":0,"left_children":[1,3,5,7,9,11,13,-1,-1,15,17,19,21,23,25,27,29,-1,-1,-1,-1,31,33,35,37,39,41,43,45,47,49,-1,51,53,55,57,59,61,63,-1,65,67,-1,-1,-1,-1,-1,-1,-1,-1,-1,-1,-1,-1,-1,-1,-1,-1,-1,-1,-1,-1,-1,-1,-1,-1,-1,-1,-1],"loss_changes":[1.863335E2,1.4725563E1,7.263088E1,4.62382E0,1.1241768E1,1.4139679E1,4.1190228E1,0E0,0E0,6.8058014E0,4.626885E0,3.2432437E-1,7.84671E0,2.3639277E1,3.6185684E0,6.2184753E0,7.485407E0,0E0,0E0,0E0,0E0,2.7937317E0,7.243406E0,1.1796699E1,1.2098612E1,3.9221663E0,2.3304138E0,1.3951797E0,8.590443E0,2.502295E0,4.8309207E-1,0E0,3.5914612E-1,5.7848215E0,4.420376E-2,4.014721E-1,4.4048424E0,5.3086414E0,1.0337613E1,0E0,2.6838126E0,6.9483185E-1,0E0,0E0,0E0,0E0,0E0,0E0,0E0,0E0,0E0,0E0,0E0,0E0,0E0,0E0,0E0,0E0,0E0,0E0,0E0,0E0,0E0,0E0,0E0,0E0,0E0,0E0,0E0],"parents":[2147483647,0,0,1,1,2,2,3,3,4,4,5,5,6,6,9,9,10,10,11,11,12,12,13,13,14,14,15,15,16,16,21,21,22,22,23,23,24,24,25,25,26,26,27,27,28,28,29,29,30,30,32,32,33,33,34,34,35,35,36,36,37,37,38,38,40,40,41,41],"right_children":[2,4,6,8,10,12,14,-1,-1,16,18,20,22,24,26,28,30,-1,-1,-1,-1,32,34,36,38,40,42,44,46,48,50,-1,52,54,56,58,60,62,64,-1,66,68,-1,-1,-1,-1,-1,-1,-1,-1,-1,-1,-1,-1,-1,-1,-1,-1,-1,-1,-1,-1,-1,-1,-1,-1,-1,-1,-1],"split_conditions":[1.4154676E1,2.9620347E0,4.047593E0,1.1594637E1,1.3759784E2,3.4854136E0,1.1290142E1,-1.4400001E-1,3.3934426E-1,4.5393558E0,1.2595028E1,4E-2,7.9716255E1,1.2662128E1,1.168532E1,3.8811733E1,3.3574467E1,-1.4400001E-1,3.5999998E-1,-1.7027028E-1,-7.663455E-9,1.9715216E0,5.829807E0,3.807106E0,2.2338163E1,6.0002513E0,8.841455E0,8.0580845E0,2.1954493E1,7.2E-2,4.720091E1,-7.663455E-9,2.08E-1,3.2E-2,5.6E-2,1.0774616E1,9.539267E0,7.4518356E0,2.979263E2,-1.5517244E-1,5.341022E0,1.4235567E1,-7.663455E-9,-1.19653195E-1,-2.1749641E-1,3.512195E-1,-1.894737E-1,3.5999998E-1,-3.600001E-2,-1.956522E-1,-7.663455E-9,4.4103587E-1,1.2857142E-1,2.6756757E-1,-1.894737E-1,3.9452055E-1,1.2857142E-1,-7.663455E-9,-1.836735E-1,3.6E-1,-1.2857145E-1,-1.9086462E-1,1.5365854E-1,3.333333E-1,-1.523077E-1,3.6734694E-1,-9.753488E-9,1.6363636E-1,4.2944163E-1],"split_indices":[47,13,14,127,115,58,92,0,0,38,127,0,100,12,97,116,125,0,0,0,0,28,97,38,22,69,29,12,111,50,1,0,0,5,10,2,3,38,95,0,13,57,0,0,0,0,0,0,0,0,0,0,0,0,0,0,0,0,0,0,0,0,0,0,0,0,0,0,0],"split_type":[0,0,0,0,0,0,0,0,0,0,0,0,0,0,0,0,0,0,0,0,0,0,0,0,0,0,0,0,0,0,0,0,0,0,0,0,0,0,0,0,0,0,0,0,0,0,0,0,0,0,0,0,0,0,0,0,0,0,0,0,0,0,0,0,0,0,0,0,0],"sum_hessian":[5.333333E2,2.8311108E2,2.5022221E2,7.5555553E0,2.7555554E2,1.0666666E2,1.4355554E2,1.7777777E0,5.7777777E0,2.6977777E2,5.7777777E0,4.444444E0,1.0222221E2,1.0933333E2,3.422222E1,2.5599998E2,1.3777777E1,1.7777777E0,3.9999998E0,3.111111E0,1.3333333E0,8.533333E1,1.6888887E1,2.4444443E1,8.4888885E1,9.333333E0,2.4888887E1,2.471111E2,8.888888E0,5.7777777E0,7.9999995E0,1.3333333E0,8.399999E1,8.444444E0,8.444444E0,5.7777777E0,1.8666666E1,7.0666664E1,1.4222221E1,2.222222E0,7.1111107E0,2.3555553E1,1.3333333E0,1.8222221E1,2.2888887E2,3.5555553E0,5.333333E0,3.9999998E0,1.7777777E0,6.666666E0,1.3333333E0,8.2666664E1,1.3333333E0,3.111111E0,5.333333E0,7.1111107E0,1.3333333E0,1.3333333E0,4.444444E0,1.7333332E1,1.3333333E0,6.711111E1,3.5555553E0,7.9999995E0,6.222222E0,4.444444E0,2.6666665E0,2.6666665E0,2.0888887E1],"tree_param":{"num_deleted":"0","num_feature":"140","num_nodes":"69","size_leaf_vector":"1"}},{"base_weights":[-1.8715357E-3,-4.3475053E-1,5.5229527E-1,-6.1224496E-1,7.65957E-2,1.0105263E0,-3.916787E-1,-6.2920225E-1,2.8800002E-1,6.053412E-1,-3.9787805E-1,1.7475724E-1,1.232E0,-9.230813E-3,-7.086615E-1,-6.6507185E-1,-2.4793431E-2,8.241758E-1,-2.8767127E-1,-5.910781E-1,7.6923035E-2,-3.041475E-1,1.1881188E0,1.8584067E-1,1.3369246E0,-3.1120336E-1,7.741935E-1,-2.1951222E-1,-7.663455E-9,-6.908888E-1,-1.485149E-1,8.5714287E-1,-5.555556E-1,-1.6363637E-1,9.759036E-1,-1.918033E-1,2.5714284E-1,1.2413793E-1,-6.867471E-1,-4.285715E-1,8.5714287E-1,6.315789E-1,-6.035504E-1,4.044944E-1,-7.663455E-9,9.473684E-1,-5.0769234E-1,1.4099052E0,3.333333E-1,-6.162163E-1,5.9999996E-1,1.0909091E0,-1.4400001E-1,-2.1015231E-1,7.2E-2,1.9459459E-1,-1.60274E-1,-7.663455E-9,3.4054056E-1,-7.663455E-9,-1.956522E-1,-6.206898E-2,3.2620087E-1,-2.1645573E-1,-7.663455E-9,1.2857142E-1,-1.9384618E-1,-7.663455E-9,3.4054056E-1,-1.4400001E-1,3.512195E-1,1.2857142E-1,-2.1210195E-1,3.5999998E-1,-7.663455E-9,-7.663455E-9,-1.8679248E-1,4.3118972E-1,-3.600001E-2,-1.7027028E-1,2.7169812E-1,1.2857142E-1,-2.1329483E-1,3.122449E-1,-1.4400001E-1,-7.663455E-9,3.8769233E-1],"categories":[],"categories_nodes":[],"categories_segments":[],"categories_sizes":[],"default_left":[0,0,0,0,0,0,0,0,0,0,0,0,0,0,0,0,0,0,0,0,0,0,0,0,0,0,0,0,0,0,0,0,0,0,0,0,0,0,0,0,0,0,0,0,0,0,0,0,0,0,0,0,0,0,0,0,0,0,0,0,0,0,0,0,0,0,0,0,0,0,0,0,0,0,0,0,0,0,0,0,0,0,0,0,0,0,0],"id":1,"left_children":[1,3,5,7,9,11,13,15,-1,17,19,21,23,25,27,29,31,33,35,37,39,41,43,45,47,49,51,-1,-1,53,55,57,59,-1,61,-1,-1,-1,63,65,67,69,71,-1,-1,73,75,77,79,81,83,85,-1,-1,-1,-1,-1,-1,-1,-1,-1,-1,-1,-1,-1,-1,-1,-1,-1,-1,-1,-1,-1,-1,-1,-1,-1,-1,-1,-1,-1,-1,-1,-1,-1,-1,-1],"loss_changes":[1.284198E2,2.732565E1,1.0195083E2,6.555374E0,1.9892794E1,2.909233E1,9.382E0,4.784401E0,0E0,7.5545597E0,3.8880029E0,1.7023455E1,1.3472534E1,8.783833E0,6.9137955E-1,2.6846008E0,6.769513E0,6.8359127E0,3.8135443E0,3.1575384E0,5.494506E0,7.136138E0,2.1359444E0,7.112121E0,7.8390045E0,7.812045E0,4.62827E0,0E0,0E0,1.9480057E0,3.7972734E0,1.2972972E0,4.8309207E-1,0E0,3.8715038E0,0E0,0E0,0E0,6.606674E-1,1.8725275E0,1.2972972E0,4.357586E0,2.3080807E0,0E0,0E0,1.515789E0,4.2148054E-1,4.5916443E0,5.1545134E0,2.3399282E0,3.937959E0,1.8797207E0,0E0,0E0,0E0,0E0,0E0,0E0,0E0,0E0,0E0,0E0,0E0,0E0,0E0,0E0,0E0,0E0,0E0,0E0,0E0,0E0,0E0,0E0,0E0,0E0,0E0,0E0,0E0,0E0,0E0,0E0,0E0,0E0,0E0,0E0,0E0],"parents":[2147483647,0,0,1,1,2,2,3,3,4,4,5,5,6,6,7,7,9,9,10,10,11,11,12,12,13,13,14,14,15,15,16,16,17,17,18,18,19,19,20,20,21,21,22,22,23,23,24,24,25,25,26,26,29,29,30,30,31,31,32,32,34,34,38,38,39,39,40,40,41,41,42,42,45,45,46,46,47,47,48,48,49,49,50,50,51,51],"right_children":[2,4,6,8,10,12,14,16,-1,18,20,22,24,26,28,30,32,34,36,38,40,42,44,46,48,50,52,-1,-1,54,56,58,60,-1,62,-1,-1,-1,64,66,68,70,72,-1,-1,74,76,78,80,82,84,86,-1,-1,-1,-1,-1,-1,-1,-1,-1,-1,-1,-1,-1,-1,-1,-1,-1,-1,-1,-1,-1,-1,-1,-1,-1,-1,-1,-1,-1,-1,-1,-1,-1,-1,-1],"split_conditions":[4.981452E0,3.0897625E1,3.1771631E0,4.548123E1,5.0059657E0,5.0112433E0,3.9426239E0,4.950503E0,2.8800002E-1,4.2840965E1,8.294457E1,8.700998E0,2.0899506E0,1.5275146E2,8.232569E1,5.6325307E0,3.5031474E0,4.008014E0,4.8843913E0,2.426394E0,2.815443E0,4.2845063E0,2.6777145E1,1.6215176E1,4.2435217E0,1.1942894E1,4.8338795E1,-2.1951222E-1,-7.663455E-9,7.462758E0,4.306434E0,-2.0154645E0,1.1080624E1,-1.6363637E-1,2.6482248E1,-1.918033E-1,2.5714284E-1,1.2413793E-1,1.84E-1,8.755742E1,-1.4580318E1,3.2311418E0,1.20293255E1,4.044944E-1,-7.663455E-9,3.2328944E0,4.687736E0,1.1637581E2,1.3321648E1,3.8615797E0,4.836317E0,8E-3,-1.4400001E-1,-2.1015231E-1,7.2E-2,1.9459459E-1,-1.60274E-1,-7.663455E-9,3.4054056E-1,-7.663455E-9,-1.956522E-1,-6.206898E-2,3.2620087E-1,-2.1645573E-1,-7.663455E-9,1.2857142E-1,-1.9384618E-1,-7.663455E-9,3.4054056E-1,-1.4400001E-1,3.512195E-1,1.2857142E-1,-2.1210195E-1,3.5999998E-1,-7.663455E-9,-7.663455E-9,-1.8679248E-1,4.3118972E-1,-3.600001E-2,-1.7027028E-1,2.7169812E-1,1.2857142E-1,-2.1329483E-1,3.122449E-1,-1.4400001E-1,-7.663455E-9,3.8769233E-1],"split_indices":[9,90,28,73,97,59,28,19,0,66,100,4,89,105,42,119,97,49,43,28,79,3,7,47,34,74,7,0,0,79,96,6,2,0,130,0,0,0,0,100,1,18,7,0,0,23,4,61,118,102,18,5,0,0,0,0,0,0,0,0,0,0,0,0,0,0,0,0,0,0,0,0,0,0,0,0,0,0,0,0,0,0,0,0,0,0,0],"split_type":[0,0,0,0,0,0,0,0,0,0,0,0,0,0,0,0,0,0,0,0,0,0,0,0,0,0,0,0,0,0,0,0,0,0,0,0,0,0,0,0,0,0,0,0,0,0,0,0,0,0,0,0,0,0,0,0,0,0,0,0,0,0,0,0,0,0,0,0,0,0,0,0,0,0,0,0,0,0,0,0,0,0,0,0,0,0,0],"sum_hessian":[5.333333E2,2.9955554E2,2.3377777E2,2.2222221E2,7.733333E1,1.5733333E2,7.644444E1,2.2044443E2,1.7777777E0,3.6444443E1,4.0888885E1,3.3333332E1,1.2399999E2,3.511111E1,4.1333332E1,2.0799998E2,1.2444444E1,2.9333332E1,7.1111107E0,2.8888887E1,1.1999999E1,2.311111E1,1.0222221E1,1.1555555E1,1.12444435E2,2.5777777E1,9.333333E0,3.9999996E1,1.3333333E0,1.9777777E2,1.0222221E1,4.444444E0,7.9999995E0,2.6666665E0,2.6666664E1,5.7777777E0,1.3333333E0,2.222222E0,2.6666664E1,7.5555553E0,4.444444E0,5.333333E0,1.7777777E1,8.888888E0,1.3333333E0,5.333333E0,6.222222E0,1.04444435E2,7.9999995E0,1.9555553E1,6.222222E0,7.5555553E0,1.7777777E0,1.9599998E2,1.7777777E0,3.111111E0,7.1111107E0,1.3333333E0,3.111111E0,1.3333333E0,6.666666E0,2.222222E0,2.4444443E1,2.5333332E1,1.3333333E0,1.3333333E0,6.222222E0,1.3333333E0,3.111111E0,1.7777777E0,3.5555553E0,1.3333333E0,1.6444443E1,3.9999998E0,1.3333333E0,1.3333333E0,4.8888884E0,1.02666664E2,1.7777777E0,3.111111E0,4.8888884E0,1.3333333E0,1.8222221E1,4.444444E0,1.7777777E0,1.3333333E0,6.222222E0],"tree_param":{"num_deleted":"0","num_feature":"140","num_nodes":"87","size_leaf_vector":"1"}},{"base_weights":[1.4971883E-2,1.2933851E0,-4.5004252E-1,1.4242693E0,3.2727268E-1,-5.5749774E-1,8.113879E-1,1.462946E0,1.9999997E-1,-4.444445E-1,9.677419E-1,9.24812E-1,-6.187441E-1,1.2146342E0,-2.4705887E-1,1.4790307E0,1.2413793E-1,-1.5517244E-1,2.8800002E-1,-1.956522E-1,1.2857142E-1,-1.4400001E-1,3.974026E-1,-1.463415E-1,1.2772278E0,1.9148932E-1,-6.5490854E-1,1.6216213E-1,1.3728813E0,-1.956522E-1,2.8800002E-1,4.4618288E-1,1.2857142E-1,-1.5517244E-1,1.2857142E-1,1.2857142E-1,4.044944E-1,1.0153846E0,-4.588236E-1,9.836062E-2,-6.684728E-1,2.5714284E-1,-1.4400001E-1,4.2545456E-1,1.2857142E-1,-7.663455E-9,3.7358493E-1,1.2857142E-1,-1.972603E-1,-1.7027028E-1,2.4545455E-1,-2.0781645E-1,-7.283239E-2],"categories":[],"categories_nodes":[],"categories_segments":[],"categories_sizes":[],"default_left":[0,0,0,0,0,0,0,0,0,0,0,0,0,0,0,0,0,0,0,0,0,0,0,0,0,0,0,0,0,0,0,0,0,0,0,0,0,0,0,0,0,0,0,0,0,0,0,0,0,0,0,0,0],"id":2,"left_children":[1,3,5,7,9,11,13,15,17,19,21,23,25,27,29,31,-1,-1,-1,-1,-1,-1,-1,33,35,37,39,41,43,-1,-1,-1,-1,-1,-1,-1,-1,45,47,49,51,-1,-1,-1,-1,-1,-1,-1,-1,-1,-1,-1,-1],"loss_changes":[3.1823285E2,1.7587921E1,5.3662193E1,5.647339E0,9.49156E0,3.346702E1,1.3626186E1,1.4374084E0,3.222069E0,1.9116634E0,5.975568E0,5.7653923E0,1.0338669E1,3.5710297E0,5.2443986E0,3.9517212E-1,0E0,0E0,0E0,0E0,0E0,0E0,0E0,1.1930795E0,9.9170685E-2,8.859921E0,3.4772644E0,2.2461777E0,2.3350143E-1,0E0,0E0,0E0,0E0,0E0,0E0,0E0,0E0,1.6859221E0,1.9471855E0,3.713296E0,3.2187805E0,0E0,0E0,0E0,0E0,0E0,0E0,0E0,0E0,0E0,0E0,0E0,0E0],"parents":[2147483647,0,0,1,1,2,2,3,3,4,4,5,5,6,6,7,7,8,8,9,9,10,10,11,11,12,12,13,13,14,14,15,15,23,23,24,24,25,25,26,26,27,27,28,28,37,37,38,38,39,39,40,40],"right_children":[2,4,6,8,10,12,14,16,18,20,22,24,26,28,30,32,-1,-1,-1,-1,-1,-1,-1,34,36,38,40,42,44,-1,-1,-1,-1,-1,-1,-1,-1,46,48,50,52,-1,-1,-1,-1,-1,-1,-1,-1,-1,-1,-1,-1],"split_conditions":[3.7876575E0,6.8252144E0,4.452221E0,1.4579878E2,3.806848E0,3.514922E0,1.35892935E1,4.5250573E0,1.4784021E2,3.1002512E0,2.95769E0,3.310826E0,4.194397E0,5.6593776E0,2.0747066E1,6.828172E0,1.2413793E-1,-1.5517244E-1,2.8800002E-1,-1.956522E-1,1.2857142E-1,-1.4400001E-1,3.974026E-1,8.8E-2,3.81143E0,1.2805264E1,2.1531954E0,8.540538E0,1.12E-1,-1.956522E-1,2.8800002E-1,4.4618288E-1,1.2857142E-1,-1.5517244E-1,1.2857142E-1,1.2857142E-1,4.044944E-1,4.211798E0,-2.0673306E1,3.7097836E0,3.3379314E0,2.5714284E-1,-1.4400001E-1,4.2545456E-1,1.2857142E-1,-7.663455E-9,3.7358493E-1,1.2857142E-1,-1.972603E-1,-1.7027028E-1,2.4545455E-1,-2.0781645E-1,-7.283239E-2],"split_indices":[58,69,99,115,13,48,119,39,70,28,58,13,59,98,99,4,0,0,0,0,0,0,0,10,3,47,23,27,5,0,0,0,0,0,0,0,0,4,6,13,99,0,0,0,0,0,0,0,0,0,0,0,0],"split_type":[0,0,0,0,0,0,0,0,0,0,0,0,0,0,0,0,0,0,0,0,0,0,0,0,0,0,0,0,0,0,0,0,0,0,0,0,0,0,0,0,0,0,0,0,0,0,0,0,0,0,0,0,0],"sum_hessian":[5.333333E2,1.4177777E2,3.9155554E2,1.24444435E2,1.7333332E1,3.613333E2,3.0222221E1,1.20444435E2,3.9999998E0,7.9999995E0,9.333333E0,1.3777777E1,3.4755554E2,2.1777777E1,8.444444E0,1.1822221E2,2.222222E0,2.222222E0,1.7777777E0,6.666666E0,1.3333333E0,1.7777777E0,7.5555553E0,3.5555553E0,1.0222221E1,1.4666666E1,3.3288885E2,3.111111E0,1.8666666E1,6.666666E0,1.7777777E0,1.16888885E2,1.3333333E0,2.222222E0,1.3333333E0,1.3333333E0,8.888888E0,6.222222E0,8.444444E0,5.7777777E0,3.2711108E2,1.3333333E0,1.7777777E0,1.7333332E1,1.3333333E0,1.3333333E0,4.8888884E0,1.3333333E0,7.1111107E0,3.111111E0,2.6666665E0,3.088889E2,1.8222221E1],"tree_param":{"num_deleted":"0","num_feature":"140","num_nodes":"53","size_leaf_vector":"1"}},{"base_weights":[-9.517791E-3,-5.301031E-1,4.3141177E-1,4.9430272E-1,-5.6394535E-1,8.200787E-1,3.845368E-2,-2.621666E-1,2.6952106E-1,-5.8566743E-1,2.032501E-1,-4.3574694E-1,8.756037E-1,-4.8385185E-1,5.096699E-1,-1.2610154E-1,3.7578621E-3,-6.1721337E-1,-1.0096661E-1,1.8157167E-2,-1.6779685E-1,9.837483E-1,4.1613394E-1,1.7314921E-1,-5.8507395E-1,2.2921145E-1,8.965146E-1,-6.4124125E-1,1.22431196E-1,2.3429966E-1,-5.340767E-1,1.0108479E0,-6.697503E-2,-3.4516007E-1,8.1071764E-1,-1.7135021E-1,2.2267856E-1,1.9840598E-1,-6.297575E-1,9.4958866E-1,-1.17389165E-1,9.4380474E-1,-1.76766E-2,-1.9514264E-1,5.8077294E-3,2.4786869E-1,-1.5811914E-1,-1.8496275E-1,1.5164024E-2,-3.844135E-2,3.0846345E-1,-1.8230908E-1,2.1173064E-1,-7.20893E-2,2.9753706E-1,-1.9819492E-1,1.0418276E-1,8.09886E-2,3.0180553E-1,2.2328009E-1,-8.092978E-2,2.9619113E-1,9.275114E-2],"categories":[],"categories_nodes":[],"categories_segments":[],"categories_sizes":[],"default_left":[0,0,0,0,0,0,0,0,0,0,0,0,0,0,0,0,0,0,0,0,0,0,0,0,0,0,0,0,0,0,0,0,0,0,0,0,0,0,0,0,0,0,0,0,0,0,0,0,0,0,0,0,0,0,0,0,0,0,0,0,0,0,0],"id":3,"left_children":[1,3,5,7,9,11,13,15,-1,17,-1,19,21,23,25,-1,-1,27,29,-1,-1,31,33,35,37,39,41,43,45,-1,47,49,-1,51,53,-1,-1,-1,55,57,59,61,-1,-1,-1,-1,-1,-1,-1,-1,-1,-1,-1,-1,-1,-1,-1,-1,-1,-1,-1,-1,-1],"loss_changes":[1.17340485E2,8.405502E0,4.224167E1,2.6900299E0,6.5286407E0,1.0081123E1,3.437874E1,1.6037118E-1,0E0,3.3628922E0,0E0,4.360093E-1,6.2263794E0,4.5096626E0,7.757248E0,0E0,0E0,3.812912E0,6.102658E0,0E0,0E0,3.7376022E0,8.443583E0,4.4994254E0,3.6282482E0,1.1070232E1,1.4338112E0,1.255043E0,3.8414474E0,0E0,5.41049E-1,2.2120972E0,0E0,3.1821115E0,3.7015896E0,0E0,0E0,0E0,1.9251957E0,2.7942848E-1,4.208344E0,4.9872208E-1,0E0,0E0,0E0,0E0,0E0,0E0,0E0,0E0,0E0,0E0,0E0,0E0,0E0,0E0,0E0,0E0,0E0,0E0,0E0,0E0,0E0],"parents":[2147483647,0,0,1,1,2,2,3,3,4,4,5,5,6,6,7,7,9,9,11,11,12,12,13,13,14,14,17,17,18,18,21,21,22,22,23,23,24,24,25,25,26,26,27,27,28,28,30,30,31,31,33,33,34,34,38,38,39,39,40,40,41,41],"right_children":[2,4,6,8,10,12,14,16,-1,18,-1,20,22,24,26,-1,-1,28,30,-1,-1,32,34,36,38,40,42,44,46,-1,48,50,-1,52,54,-1,-1,-1,56,58,60,62,-1,-1,-1,-1,-1,-1,-1,-1,-1,-1,-1,-1,-1,-1,-1,-1,-1,-1,-1,-1,-1],"split_conditions":[1.3354224E1,2.9620347E0,3.908413E0,3.3784173E0,1.3759784E2,3.5062714E0,4.470058E0,1.1612237E1,2.6952106E-1,4.5011463E0,2.032501E-1,4.1599054E0,7.9716255E1,4.086576E0,1.4460336E1,-1.2610154E-1,3.7578621E-3,3.8811733E1,9.029816E0,1.8157167E-2,-1.6779685E-1,8.2985735E0,1.8267633E2,3.8215578E0,3.0223883E1,1.2440612E1,1.36E-1,2.6342268E1,3.7661695E0,2.3429966E-1,1.6336218E1,1.2246946E0,-6.697503E-2,3.1315353E1,5.0414495E0,-1.7135021E-1,2.2267856E-1,1.9840598E-1,6.896672E1,2.6863918E0,-9.549075E1,2.252921E2,-1.76766E-2,-1.9514264E-1,5.8077294E-3,2.4786869E-1,-1.5811914E-1,-1.8496275E-1,1.5164024E-2,-3.844135E-2,3.0846345E-1,-1.8230908E-1,2.1173064E-1,-7.20893E-2,2.9753706E-1,-1.9819492E-1,1.0418276E-1,8.09886E-2,3.0180553E-1,2.2328009E-1,-8.092978E-2,2.9619113E-1,9.275114E-2],"split_indices":[47,13,13,38,115,58,38,2,0,38,0,101,100,14,92,0,0,116,12,0,0,4,115,38,120,12,25,26,43,0,129,92,0,52,68,0,0,0,17,96,51,137,0,0,0,0,0,0,0,0,0,0,0,0,0,0,0,0,0,0,0,0,0],"split_type":[0,0,0,0,0,0,0,0,0,0,0,0,0,0,0,0,0,0,0,0,0,0,0,0,0,0,0,0,0,0,0,0,0,0,0,0,0,0,0,0,0,0,0,0,0,0,0,0,0,0,0,0,0,0,0,0,0,0,0,0,0,0,0],"sum_hessian":[5.091989E2,2.3341467E2,2.757842E2,7.029376E0,2.263853E2,1.3810269E2,1.3768153E2,2.5698667E0,4.4595094E0,2.2301141E2,3.373884E0,5.557571E0,1.3254512E2,6.5288086E1,7.239345E1,1.2943496E0,1.2755171E0,2.0912733E2,1.3884087E1,1.2097085E0,4.3478622E0,1.06368324E2,2.61768E1,8.621036E0,5.666705E1,4.2890667E1,2.9502777E1,2.0267628E2,6.451049E0,4.308079E0,9.576008E0,1.0419152E2,2.1768017E0,8.978772E0,1.7198027E1,3.733955E0,4.8870807E0,1.4835416E0,5.5183506E1,1.3367611E1,2.9523058E1,2.812298E1,1.3797972E0,1.9989734E2,2.7789338E0,2.9655004E0,3.4855485E0,8.34437E0,1.2316371E0,1.4687223E0,1.027228E2,7.5215383E0,1.4572337E0,2.4794202E0,1.4718607E1,5.380607E1,1.3774395E0,1.4682606E0,1.189935E1,3.8526735E0,2.5670383E1,2.5798967E1,2.3240128E0],"tree_param":{"num_deleted":"0","num_feature":"140","num_nodes":"63","size_leaf_vector":"1"}},{"base_weights":[-1.4169918E-3,-4.683369E-1,3.362069E-1,-5.2547127E-1,4.4530043E-1,5.791418E-1,-3.080666E-1,-6.344328E-1,-2.826591E-1,2.7483726E-1,-1.6227189E-1,-4.3796206E-1,6.8828094E-1,-3.5207268E-2,-6.321957E-1,-6.5304947E-1,1.4220676E-1,5.688975E-1,-4.8893002E-1,-5.98617E-1,1.876441E-1,3.191525E-1,8.762134E-1,-2.8584486E-1,5.605183E-1,1.093884E-2,-1.9693993E-1,2.5193557E-2,-6.6583616E-1,-2.5016952E-1,1.0391932E0,-5.3362095E-1,1.0670171E-1,-1.9245012E-1,2.5533736E-3,7.5960785E-1,-1.19189925E-1,9.382379E-1,1.4337467E-1,-5.189511E-1,4.958814E-1,-1.5518415E-1,8.0722016E-1,-1.07271336E-1,1.0834858E-1,-3.4570515E-2,-2.0191832E-1,1.0342247E-1,-1.5832257E-1,3.427635E-1,9.325351E-2,7.402443E-2,-1.7462969E-1,-9.31149E-2,2.6148736E-1,1.5421785E-1,-1.2520704E-1,2.8795487E-1,-5.518951E-2,-1.096761E-1,2.5884637E-1,1.13366276E-1,-1.858276E-1,2.7177447E-1,-8.021724E-2,2.9512516E-1,-3.798456E-2],"categories":[],"categories_nodes":[],"categories_segments":[],"categories_sizes":[],"default_left":[0,0,0,0,0,0,0,0,0,0,0,0,0,0,0,0,0,0,0,0,0,0,0,0,0,0,0,0,0,0,0,0,0,0,0,0,0,0,0,0,0,0,0,0,0,0,0,0,0,0,0,0,0,0,0,0,0,0,0,0,0,0,0,0,0,0,0],"id":4,"left_children":[1,3,5,7,9,11,13,15,17,-1,-1,19,21,23,25,27,-1,29,31,33,-1,35,37,39,41,-1,-1,43,45,47,49,51,-1,-1,-1,53,55,57,59,61,63,-1,65,-1,-1,-1,-1,-1,-1,-1,-1,-1,-1,-1,-1,-1,-1,-1,-1,-1,-1,-1,-1,-1,-1,-1,-1],"loss_changes":[8.07364E1,1.1452778E1,4.6699543E1,5.184307E0,6.620163E0,2.4299652E1,7.233464E0,3.1806145E0,1.1624968E1,0E0,0E0,4.0580606E0,1.3291275E1,6.969052E0,6.3151073E-1,1.2070999E0,0E0,5.2901864E0,2.1729698E0,5.064454E-1,0E0,1.3136427E1,5.7316284E0,6.2269754E0,4.0980654E0,0E0,0E0,5.7964736E-1,4.5847702E-1,1.1015644E0,2.839012E-1,2.0464993E0,0E0,0E0,0E0,4.32646E0,6.7722335E0,3.0579376E0,4.4351897E0,2.5519876E0,2.75731E0,0E0,2.0457716E0,0E0,0E0,0E0,0E0,0E0,0E0,0E0,0E0,0E0,0E0,0E0,0E0,0E0,0E0,0E0,0E0,0E0,0E0,0E0,0E0,0E0,0E0,0E0,0E0],"parents":[2147483647,0,0,1,1,2,2,3,3,4,4,5,5,6,6,7,7,8,8,11,11,12,12,13,13,14,14,15,15,17,17,18,18,19,19,21,21,22,22,23,23,24,24,27,27,28,28,29,29,30,30,31,31,35,35,36,36,37,37,38,38,39,39,40,40,42,42],"right_children":[2,4,6,8,10,12,14,16,18,-1,-1,20,22,24,26,28,-1,30,32,34,-1,36,38,40,42,-1,-1,44,46,48,50,52,-1,-1,-1,54,56,58,60,62,64,-1,66,-1,-1,-1,-1,-1,-1,-1,-1,-1,-1,-1,-1,-1,-1,-1,-1,-1,-1,-1,-1,-1,-1,-1,-1],"split_conditions":[4.643676E0,1.03781075E2,3.1329207E0,4.8384795E0,7.373315E0,4.119499E0,3.9426239E0,4.0764404E1,1.1428906E1,2.7483726E-1,-1.6227189E-1,6.0637146E1,4.8311367E0,1.5275146E2,-1.9512646E2,2.5113738E0,1.4220676E-1,4.8479266E0,9.396193E0,3.0866618E0,1.876441E-1,3.7897525E0,2.5014124E1,1.1942894E1,1.651604E1,1.093884E-2,-1.9693993E-1,3.2672336E0,7.7914863E0,3.7852035E0,1.68E-1,1.0707634E1,1.0670171E-1,-1.9245012E-1,2.5533736E-3,6.642141E-1,2.4673855E0,8.2282745E1,6.5468384E2,2.472372E1,4.6505404E0,-1.5518415E-1,1.4460336E1,-1.07271336E-1,1.0834858E-1,-3.4570515E-2,-2.0191832E-1,1.0342247E-1,-1.5832257E-1,3.427635E-1,9.325351E-2,7.402443E-2,-1.7462969E-1,-9.31149E-2,2.6148736E-1,1.5421785E-1,-1.2520704E-1,2.8795487E-1,-5.518951E-2,-1.096761E-1,2.5884637E-1,1.13366276E-1,-1.858276E-1,2.7177447E-1,-8.021724E-2,2.9512516E-1,-3.798456E-2],"split_indices":[9,100,28,59,97,59,28,73,47,0,0,100,19,105,51,58,0,64,124,28,0,38,47,74,76,0,0,8,2,3,25,138,0,0,0,99,28,116,125,70,18,0,92,0,0,0,0,0,0,0,0,0,0,0,0,0,0,0,0,0,0,0,0,0,0,0,0],"split_type":[0,0,0,0,0,0,0,0,0,0,0,0,0,0,0,0,0,0,0,0,0,0,0,0,0,0,0,0,0,0,0,0,0,0,0,0,0,0,0,0,0,0,0,0,0,0,0,0,0,0,0,0,0,0,0,0,0,0,0,0,0,0,0,0,0,0,0],"sum_hessian":[5.101472E2,2.1391895E2,2.9622824E2,2.017287E2,1.2190259E1,2.1518861E2,8.1039635E1,1.3813019E2,6.3598507E1,8.299208E0,3.8910513E0,2.0560997E1,1.9462761E2,4.46016E1,3.6438034E1,1.3625266E2,1.877539E0,1.20585785E1,5.153993E1,1.8242228E1,2.3187704E0,6.657068E1,1.2805693E2,3.175965E1,1.2841953E1,1.2586906E0,3.5179344E1,2.5032463E0,1.337494E2,4.569097E0,7.489481E0,4.929951E1,2.240415E0,1.698585E1,1.2563779E0,3.2839737E1,3.373094E1,1.1780602E2,1.0250908E1,2.4723415E1,7.036233E0,2.1876583E0,1.0654295E1,1.140074E0,1.3631723E0,1.9518211E0,1.3179758E2,1.376629E0,3.1924682E0,6.0607824E0,1.4286987E0,2.6442418E0,4.665527E1,2.9443395E0,2.9895395E1,1.0566227E1,2.3164715E1,1.157221E2,2.0839238E0,6.2917523E0,3.959156E0,2.212597E0,2.2510818E1,4.455717E0,2.5805154E0,8.91548E0,1.738816E0],"tree_param":{"num_deleted":"0","num_feature":"140","num_nodes":"67","size_leaf_vector":"1"}},{"base_weights":[1.0919733E-2,7.678276E-1,-4.6709266E-1,8.920091E-1,-1.11254655E-1,-5.493913E-1,6.190567E-1,-1.2920141E-1,9.405857E-1,-4.657323E-1,7.5409263E-1,-5.6515228E-2,-6.0775423E-1,8.9748657E-1,-4.0434507E-1,2.2036658E-1,-1.7710239E-1,9.962624E-1,2.5748473E-1,1.4733624E-1,-1.9218302E-1,2.757108E-1,-9.041029E-3,-5.252513E-1,6.342592E-1,-1.3272277E-1,-6.3097084E-1,3.005829E-1,-2.5151659E-2,5.6151454E-3,-1.6056944E-1,1.0147365E0,-4.1128412E-2,-4.465782E-1,7.4560344E-1,-1.9598167E-1,1.2569927E-1,9.1444147E-1,-1.4401521E-1,-1.8237579E-1,2.764584E-1,5.8367655E-2,-6.384904E-1,3.0706534E-1,-2.5780075E-3,-1.213855E-1,9.638649E-2,-1.6786288E-1,-3.1937993E-4,-1.1095964E-1,2.9203588E-1,1.914445E-1,-1.2578945E-1,3.1658E-1,-1.5783448E-2,-1.9358669E-1,-3.23538E-2],"categories":[],"categories_nodes":[],"categories_segments":[],"categories_sizes":[],"default_left":[0,0,0,0,0,0,0,0,0,0,0,0,0,0,0,0,0,0,0,0,0,0,0,0,0,0,0,0,0,0,0,0,0,0,0,0,0,0,0,0,0,0,0,0,0,0,0,0,0,0,0,0,0,0,0,0,0],"id":5,"left_children":[1,3,5,7,9,11,13,15,17,19,21,23,25,27,29,-1,-1,31,33,-1,-1,-1,-1,35,37,39,41,-1,-1,-1,-1,43,45,47,49,-1,51,53,-1,-1,-1,-1,55,-1,-1,-1,-1,-1,-1,-1,-1,-1,-1,-1,-1,-1,-1],"loss_changes":[1.8525298E2,2.1734291E1,2.8393753E1,8.74147E0,8.148692E0,8.37281E0,6.7955923E0,3.9266443E0,6.056778E0,3.435567E0,1.0326147E0,1.0709407E1,2.7971191E0,1.9349985E0,3.155489E-1,0E0,0E0,2.976593E0,5.095674E0,0E0,0E0,0E0,0E0,1.718688E0,4.6250167E0,7.2924285E0,1.6685562E0,0E0,0E0,0E0,0E0,1.3663177E0,6.0957175E-1,3.1644344E-1,2.5353842E0,0E0,1.403177E0,1.5614729E0,0E0,0E0,0E0,0E0,8.206482E-1,0E0,0E0,0E0,0E0,0E0,0E0,0E0,0E0,0E0,0E0,0E0,0E0,0E0,0E0],"parents":[2147483647,0,0,1,1,2,2,3,3,4,4,5,5,6,6,7,7,8,8,9,9,10,10,11,11,12,12,13,13,14,14,17,17,18,18,23,23,24,24,25,25,26,26,31,31,32,32,33,33,34,34,36,36,37,37,42,42],"right_children":[2,4,6,8,10,12,14,16,18,20,22,24,26,28,30,-1,-1,32,34,-1,-1,-1,-1,36,38,40,42,-1,-1,-1,-1,44,46,48,50,-1,52,54,-1,-1,-1,-1,56,-1,-1,-1,-1,-1,-1,-1,-1,-1,-1,-1,-1,-1,-1],"split_conditions":[4.448819E0,2.659841E1,5.35738E0,3.0218554E0,4.0929384E0,3.9123087E0,1.2713146E1,8.189616E0,6.993113E0,3.2367802E0,4.6048298E1,3.803903E0,4.6009917E0,1.12E-1,-3.906841E1,2.2036658E-1,-1.7710239E-1,4.130708E0,1.9401167E1,1.4733624E-1,-1.9218302E-1,2.757108E-1,-9.041029E-3,1.6E-1,1.28E-1,4.4482045E0,-3.2519855E2,3.005829E-1,-2.5151659E-2,5.6151454E-3,-1.6056944E-1,1.2495329E2,5.575556E0,3.8544514E1,1.2639501E1,-1.9598167E-1,4.4451E0,4.6537547E0,-1.4401521E-1,-1.8237579E-1,2.764584E-1,5.8367655E-2,1.5914162E2,3.0706534E-1,-2.5780075E-3,-1.213855E-1,9.638649E-2,-1.6786288E-1,-3.1937993E-4,-1.1095964E-1,2.9203588E-1,1.914445E-1,-1.2578945E-1,3.1658E-1,-1.5783448E-2,-1.9358669E-1,-3.23538E-2],"split_indices":[59,116,99,13,14,48,59,116,4,58,6,13,59,5,1,0,0,38,123,0,0,0,0,25,65,14,1,0,0,0,0,95,1,2,67,0,3,49,0,0,0,0,128,0,0,0,0,0,0,0,0,0,0,0,0,0,0],"split_type":[0,0,0,0,0,0,0,0,0,0,0,0,0,0,0,0,0,0,0,0,0,0,0,0,0,0,0,0,0,0,0,0,0,0,0,0,0,0,0,0,0,0,0,0,0,0,0,0,0,0,0,0,0,0,0,0,0],"sum_hessian":[5.1002414E2,1.9718524E2,3.128389E2,1.7276524E2,2.4419989E1,2.912637E2,2.1575178E1,7.769509E0,1.6499574E2,1.765121E1,6.7687793E0,3.104618E1,2.6021753E2,1.7057497E1,4.51768E0,2.4978664E0,5.271642E0,1.5213722E2,1.2858513E1,2.4480734E0,1.5203136E1,5.4505033E0,1.3182755E0,1.8638409E1,1.2407771E1,1.2438188E1,2.4777934E2,1.5397513E1,1.6599842E0,1.269923E0,3.2477574E0,1.4949678E2,2.6404397E0,5.299546E0,7.558967E0,1.5572279E1,3.0661302E0,1.0058121E1,2.3496504E0,8.865491E0,3.5726972E0,2.012065E0,2.4576727E2,1.4821985E2,1.2769302E0,1.2601315E0,1.3803082E0,4.023416E0,1.27613E0,1.1764079E0,6.3825593E0,1.4921627E0,1.5739673E0,8.699985E0,1.3581364E0,2.4244505E2,3.3222227E0],"tree_param":{"num_deleted":"0","num_feature":"140","num_nodes":"57","size_leaf_vector":"1"}},{"base_weights":[-5.3956634E-3,-4.9950835E-1,3.3956164E-1,-1.9514497E-1,-5.9535617E-1,6.8651545E-1,5.423931E-2,-4.2727405E-1,5.42532E-1,-6.0684603E-1,9.755863E-2,-3.8382724E-1,7.346337E-1,-2.2639817E-1,4.7808924E-1,4.5780694E-1,-5.280111E-1,7.8582865E-1,-2.464739E-1,-6.180463E-1,-6.146927E-2,9.852002E-3,3.4927733E-2,2.5879452E-2,-1.5340953E-1,8.0200946E-1,3.4127975E-1,1.4668542E-1,-5.40668E-1,6.9362783E-1,2.2475755E-1,2.1118653E-1,-1.774644E-2,-5.794261E-1,8.108244E-2,2.548349E-1,7.3517196E-2,5.2360925E-3,-1.1311909E-1,1.4397487E-2,-1.8748611E-1,1.0177433E-1,-1.17255844E-1,8.146498E-1,2.7152536E-2,-1.5754506E-1,5.808435E-1,-1.7818351E-1,6.977494E-1,9.296729E-2,-5.956579E-1,7.7556247E-1,8.409291E-2,-3.3567262E-1,6.49943E-1,3.565514E-2,-1.8260442E-1,2.4834134E-1,9.8170206E-2,-3.95696E-2,2.336057E-1,1.08789556E-1,-1.4646631E-1,-2.7154636E-2,2.3514037E-1,-1.3802058E-1,1.8066116E-1,-1.8777244E-1,6.257608E-2,2.4362582E-1,-9.059071E-3,-1.3762245E-1,1.792706E-1,-1.6227764E-1,7.511608E-2,2.4319352E-1,-1.4151268E-1],"categories":[],"categories_nodes":[],"categories_segments":[],"categories_sizes":[],"default_left":[0,0,0,0,0,0,0,0,0,0,0,0,0,0,0,0,0,0,0,0,0,0,0,0,0,0,0,0,0,0,0,0,0,0,0,0,0,0,0,0,0,0,0,0,0,0,0,0,0,0,0,0,0,0,0,0,0,0,0,0,0,0,0,0,0,0,0,0,0,0,0,0,0,0,0,0,0],"id":6,"left_children":[1,3,5,7,9,11,13,15,17,19,21,23,25,27,29,31,33,35,37,39,41,-1,-1,-1,-1,43,45,47,49,51,53,-1,-1,55,-1,-1,-1,-1,-1,-1,-1,-1,-1,57,-1,-1,59,61,63,65,67,69,71,73,75,-1,-1,-1,-1,-1,-1,-1,-1,-1,-1,-1,-1,-1,-1,-1,-1,-1,-1,-1,-1,-1,-1],"loss_changes":[7.855925E1,5.411438E0,2.6832052E1,8.257092E0,1.2025795E0,6.5858192E0,1.7953625E1,3.4700751E0,2.4316647E0,8.257904E-1,8.889474E-5,3.9919925E-1,2.839676E0,1.0742052E1,3.124937E0,5.8061856E-1,1.5099325E0,1.06618404E-1,1.2752084E-1,6.669502E-1,6.547573E-1,0E0,0E0,0E0,0E0,8.2164E-1,4.232156E0,7.7089148E0,1.782732E0,1.5321751E0,7.152438E0,0E0,0E0,7.116566E-1,0E0,0E0,0E0,0E0,0E0,0E0,0E0,0E0,0E0,3.5549927E-1,0E0,0E0,2.2596912E0,4.7796693E0,1.1505833E0,1.6355512E0,1.2436066E0,8.506985E-1,1.643158E0,1.7248522E0,3.4263706E0,0E0,0E0,0E0,0E0,0E0,0E0,0E0,0E0,0E0,0E0,0E0,0E0,0E0,0E0,0E0,0E0,0E0,0E0,0E0,0E0,0E0,0E0],"parents":[2147483647,0,0,1,1,2,2,3,3,4,4,5,5,6,6,7,7,8,8,9,9,10,10,11,11,12,12,13,13,14,14,15,15,16,16,17,17,18,18,19,19,20,20,25,25,26,26,27,27,28,28,29,29,30,30,33,33,43,43,46,46,47,47,48,48,49,49,50,50,51,51,52,52,53,53,54,54],"right_children":[2,4,6,8,10,12,14,16,18,20,22,24,26,28,30,32,34,36,38,40,42,-1,-1,-1,-1,44,46,48,50,52,54,-1,-1,56,-1,-1,-1,-1,-1,-1,-1,-1,-1,58,-1,-1,60,62,64,66,68,70,72,74,76,-1,-1,-1,-1,-1,-1,-1,-1,-1,-1,-1,-1,-1,-1,-1,-1,-1,-1,-1,-1,-1,-1],"split_conditions":[1.2871419E1,9.0883E0,4.047593E0,1.096226E1,1.7242989E1,3.5062714E0,5.08808E0,3.0218554E0,3.6635966E0,4.5794968E1,4.8E-2,-1.0148971E1,7.9716255E1,4.472709E0,5.202673E0,8.8E-2,4.3509245E0,1.1010815E1,9.477649E0,1.6236789E0,8E-3,9.852002E-3,3.4927733E-2,2.5879452E-2,-1.5340953E-1,2.6031364E1,1.4873418E2,6.762554E0,3.9017296E0,5.049598E2,7.6734495E0,2.1118653E-1,-1.774644E-2,5.0056295E0,8.108244E-2,2.548349E-1,7.3517196E-2,5.2360925E-3,-1.1311909E-1,1.4397487E-2,-1.8748611E-1,1.0177433E-1,-1.17255844E-1,4.0190056E1,2.7152536E-2,-1.5754506E-1,4.66924E0,5.3691742E1,2.483515E0,1.3100049E1,1.0471257E2,4.233241E1,3.5779378E0,4.588353E0,2.0747066E1,3.565514E-2,-1.8260442E-1,2.4834134E-1,9.8170206E-2,-3.95696E-2,2.336057E-1,1.08789556E-1,-1.4646631E-1,-2.7154636E-2,2.3514037E-1,-1.3802058E-1,1.8066116E-1,-1.8777244E-1,6.257608E-2,2.4362582E-1,-9.059071E-3,-1.3762245E-1,1.792706E-1,-1.6227764E-1,7.511608E-2,2.4319352E-1,-1.4151268E-1],"split_indices":[47,12,14,47,37,58,39,13,13,116,5,6,100,14,14,25,38,101,17,100,40,0,0,0,0,73,115,97,13,80,48,0,0,32,0,0,0,0,0,0,0,0,0,2,0,0,97,80,139,22,127,113,29,24,99,0,0,0,0,0,0,0,0,0,0,0,0,0,0,0,0,0,0,0,0,0,0],"split_type":[0,0,0,0,0,0,0,0,0,0,0,0,0,0,0,0,0,0,0,0,0,0,0,0,0,0,0,0,0,0,0,0,0,0,0,0,0,0,0,0,0,0,0,0,0,0,0,0,0,0,0,0,0,0,0,0,0,0,0,0,0,0,0,0,0,0,0,0,0,0,0,0,0,0,0,0,0],"sum_hessian":[4.5890417E2,1.8847986E2,2.7042432E2,4.586672E1,1.4261313E2,1.2139774E2,1.4902657E2,3.52083E1,1.0658416E1,1.4040909E2,2.2040465E0,4.9225955E0,1.1647514E2,8.994107E1,5.90855E1,3.2355978E0,3.1972704E1,8.149482E0,2.508934E0,1.37453E2,2.9560804E0,1.1161133E0,1.0879331E0,1.1195726E0,3.8030229E0,9.855518E1,1.7919962E1,4.1366425E1,4.857465E1,3.0984974E1,2.8100523E1,1.9468849E0,1.288713E0,3.0295624E1,1.6770808E0,6.780906E0,1.3685756E0,1.1172566E0,1.3916774E0,1.3498154E0,1.361032E2,1.3201196E0,1.6359607E0,9.669239E1,1.862792E0,3.6233363E0,1.4296626E1,2.6449999E1,1.4916424E1,3.823758E0,4.4750893E1,2.7073349E1,3.9116256E0,1.2213124E1,1.5887398E1,1.0950869E0,2.9200537E1,9.347138E1,3.2210064E0,3.1786385E0,1.1117988E1,9.576154E0,1.6873846E1,1.462996E0,1.3453427E1,1.8793347E0,1.9444232E0,4.3342396E1,1.4084982E0,2.5891867E1,1.1814829E0,1.9532703E0,1.9583553E0,9.102287E0,3.1108372E0,1.4138949E1,1.7484488E0],"tree_param":{"num_deleted":"0","num_feature":"140","num_nodes":"77","size_leaf_vector":"1"}},{"base_weights":[-7.954665E-4,-4.143403E-1,2.738822E-1,-5.66843E-1,-1.00799054E-1,4.1853893E-1,-4.5847085E-1,9.390382E-2,-5.7871807E-1,2.5807017E-1,-4.0516743E-1,9.375477E-2,6.1596125E-1,-5.7711744E-1,-4.0141507E-3,-1.11142315E-1,-5.917569E-1,-2.367979E-1,5.3933686E-1,-4.6791798E-1,1.08221665E-1,-3.458993E-1,2.8377542E-1,6.6373014E-1,-3.2312825E-1,3.113959E-2,-6.0025096E-1,-1.606718E-1,5.277041E-1,-1.3207746E-1,1.2459885E-1,-6.0957605E-1,-2.017467E-1,-4.8529395E-1,1.8292709E-1,7.286922E-1,-1.7970811E-1,2.1978632E-1,-5.539804E-1,-4.976292E-1,1.7754525E-1,5.914248E-1,-3.807679E-2,7.0820844E-1,-3.468742E-1,-1.8054964E-1,1.543373E-1,-1.8635996E-1,5.5172476E-3,2.2055838E-1,-2.0988358E-2,-1.8510197E-1,2.183834E-2,1.3121456E-1,-1.5745676E-1,1.2368343E-2,-1.689998E-1,4.2791292E-2,2.5632003E-1,-1.3680553E-1,9.202734E-2,1.7524824E-1,-1.0513011E-1,2.9741265E-2,-1.7514244E-1,-1.6747847E-1,9.490918E-2,-1.3108711E-1,2.0517784E-1,-1.1676654E-1,1.7138219E-1,2.2206324E-1,-4.0832307E-2,-1.6999567E-1,9.058613E-2],"categories":[],"categories_nodes":[],"categories_segments":[],"categories_sizes":[],"default_left":[0,0,0,0,0,0,0,0,0,0,0,0,0,0,0,0,0,0,0,0,0,0,0,0,0,0,0,0,0,0,0,0,0,0,0,0,0,0,0,0,0,0,0,0,0,0,0,0,0,0,0,0,0,0,0,0,0,0,0,0,0,0,0,0,0,0,0,0,0,0,0,0,0,0,0],"id":7,"left_children":[1,3,5,7,9,11,13,-1,15,17,19,21,23,25,27,29,31,33,35,37,-1,39,41,43,45,-1,47,-1,49,-1,-1,51,53,55,-1,57,59,61,63,65,-1,67,69,71,73,-1,-1,-1,-1,-1,-1,-1,-1,-1,-1,-1,-1,-1,-1,-1,-1,-1,-1,-1,-1,-1,-1,-1,-1,-1,-1,-1,-1,-1,-1],"loss_changes":[5.2607048E1,8.781038E0,2.9673658E1,1.4781761E0,6.844001E0,1.4876297E1,2.4984217E0,0E0,6.831169E-1,4.153923E0,1.792028E0,7.552879E0,6.704582E0,6.415119E-1,3.281028E0,9.7360605E-1,7.0591736E-1,2.6472762E0,2.6836524E0,1.9951053E0,0E0,4.189933E0,6.2460856E0,6.448826E0,2.1014144E0,0E0,4.7421455E-1,0E0,7.715844E-1,0E0,0E0,6.2072754E-1,1.6144052E0,4.0115714E-1,0E0,9.8602104E-1,7.730219E-1,1.0849363E0,6.1144257E-1,1.3664889E0,0E0,3.3615503E0,6.9960194E0,3.6812515E0,1.0964019E0,0E0,0E0,0E0,0E0,0E0,0E0,0E0,0E0,0E0,0E0,0E0,0E0,0E0,0E0,0E0,0E0,0E0,0E0,0E0,0E0,0E0,0E0,0E0,0E0,0E0,0E0,0E0,0E0,0E0,0E0],"parents":[2147483647,0,0,1,1,2,2,3,3,4,4,5,5,6,6,8,8,9,9,10,10,11,11,12,12,13,13,14,14,15,15,16,16,17,17,18,18,19,19,21,21,22,22,23,23,24,24,26,26,28,28,31,31,32,32,33,33,35,35,36,36,37,37,38,38,39,39,41,41,42,42,43,43,44,44],"right_children":[2,4,6,8,10,12,14,-1,16,18,20,22,24,26,28,30,32,34,36,38,-1,40,42,44,46,-1,48,-1,50,-1,-1,52,54,56,-1,58,60,62,64,66,-1,68,70,72,74,-1,-1,-1,-1,-1,-1,-1,-1,-1,-1,-1,-1,-1,-1,-1,-1,-1,-1,-1,-1,-1,-1,-1,-1,-1,-1,-1,-1,-1,-1],"split_conditions":[4.643676E0,2.1596663E1,3.5289047E0,3.6937487E0,4.622714E0,4.8005834E0,3.2883072E2,9.390382E-2,3.1816478E0,4.1384416E0,3.843014E2,1.6222788E1,5.343665E1,3.6659725E0,4E-2,2.4E-2,4.950503E0,1.9478215E2,2.080599E1,3.2304418E0,1.08221665E-1,1.92E-1,1.5017968E1,1.1863602E1,6.215179E0,3.113959E-2,1.0420693E1,-1.606718E-1,2.658197E0,-1.3207746E-1,1.2459885E-1,1.92E-1,3.0427134E0,2.3890648E0,1.8292709E-1,4.449373E1,4.9694233E0,4.8663344E0,3.0217717E0,7.8640203E0,1.7754525E-1,3.715183E0,7.9716255E1,6.837573E1,1.051263E1,-1.8054964E-1,1.543373E-1,-1.8635996E-1,5.5172476E-3,2.2055838E-1,-2.0988358E-2,-1.8510197E-1,2.183834E-2,1.3121456E-1,-1.5745676E-1,1.2368343E-2,-1.689998E-1,4.2791292E-2,2.5632003E-1,-1.3680553E-1,9.202734E-2,1.7524824E-1,-1.0513011E-1,2.9741265E-2,-1.7514244E-1,-1.6747847E-1,9.490918E-2,-1.3108711E-1,2.0517784E-1,-1.1676654E-1,1.7138219E-1,2.2206324E-1,-4.0832307E-2,-1.6999567E-1,9.058613E-2],"split_indices":[9,90,28,75,97,19,100,0,3,9,80,90,67,13,5,5,19,135,7,92,0,0,47,97,49,0,13,0,104,0,0,60,33,96,0,130,48,4,38,3,0,49,100,61,74,0,0,0,0,0,0,0,0,0,0,0,0,0,0,0,0,0,0,0,0,0,0,0,0,0,0,0,0,0,0],"split_type":[0,0,0,0,0,0,0,0,0,0,0,0,0,0,0,0,0,0,0,0,0,0,0,0,0,0,0,0,0,0,0,0,0,0,0,0,0,0,0,0,0,0,0,0,0,0,0,0,0,0,0,0,0,0,0,0,0,0,0,0,0,0,0,0,0,0,0,0,0,0,0,0,0,0,0],"sum_hessian":[4.611257E2,1.8383775E2,2.7728796E2,1.2313736E2,6.07004E1,2.3190904E2,4.537891E1,1.3021076E0,1.2183525E2,2.7926012E1,3.2774387E1,8.8231766E1,1.4367728E2,3.5770325E1,9.608586E0,3.563703E0,1.18271545E2,1.0177519E1,1.7748493E1,3.0652132E1,2.1222565E0,2.6378666E1,6.1853104E1,1.370016E2,6.6756735E0,1.0607624E0,3.470956E1,4.8013897E0,4.8071966E0,2.2936316E0,1.2700714E0,1.1256555E2,5.7059917E0,8.197873E0,1.9796453E0,1.4038214E1,3.7102785E0,3.2364705E0,2.741566E1,2.31088E1,3.269865E0,3.1196083E1,3.065702E1,1.3151274E2,5.4888616E0,5.2201533E0,1.4555202E0,3.35687E1,1.1408621E0,3.3975604E0,1.409636E0,1.1144777E2,1.1177868E0,1.7972538E0,3.9087381E0,1.1190983E0,7.078775E0,2.8563757E0,1.1181839E1,2.4061728E0,1.3041058E0,1.9597372E0,1.2767333E0,1.0958955E0,2.6319767E1,2.1799198E1,1.3096011E0,2.2671592E0,2.8928923E1,1.9678387E1,1.0978634E1,1.2682882E2,4.683918E0,4.1946554E0,1.2942058E0],"tree_param":{"num_deleted":"0","num_feature":"140","num_nodes":"75","size_leaf_vector":"1"}},{"base_weights":[6.2227687E-3,6.298691E-1,-4.108848E-1,7.324023E-1,7.8171924E-2,-4.8470494E-1,4.31442E-1,-1.12585425E-1,7.732277E-1,-3.1568927E-1,7.775661E-1,8.573136E-2,-5.614292E-1,7.410498E-1,-1.783814E-1,1.8436864E-1,-1.6217901E-1,7.9888827E-1,5.4874428E-2,-4.773554E-1,1.4703596E-1,2.4844398E-1,6.941071E-2,-3.5707417E-1,5.965028E-1,-5.724425E-1,1.5975061E-1,2.4078946E-1,-3.4214403E-3,-1.6772997E-1,2.1177985E-1,8.171225E-1,2.592483E-1,-1.4230616E-1,1.8478586E-1,-1.8001793E-1,1.1836182E-1,-1.8242015E-1,1.9431973E-1,7.0228267E-1,-1.0812884E-1,-5.986571E-1,-2.2319831E-1,2.132305E-1,-1.2051378E-1,5.3698752E-2,2.4670239E-1,-1.1005486E-1,1.5387315E-1,1.5341425E-1,-1.0625196E-1,2.5654227E-1,-7.81811E-3,4.362877E-3,-1.8195783E-1,2.7409732E-1,-1.5919586E-1],"categories":[],"categories_nodes":[],"categories_segments":[],"categories_sizes":[],"default_left":[0,0,0,0,0,0,0,0,0,0,0,0,0,0,0,0,0,0,0,0,0,0,0,0,0,0,0,0,0,0,0,0,0,0,0,0,0,0,0,0,0,0,0,0,0,0,0,0,0,0,0,0,0,0,0,0,0],"id":8,"left_children":[1,3,5,7,9,11,13,15,17,19,21,23,25,27,29,-1,-1,31,33,35,-1,-1,-1,37,39,41,43,-1,-1,-1,-1,45,47,-1,-1,-1,49,-1,-1,51,-1,53,55,-1,-1,-1,-1,-1,-1,-1,-1,-1,-1,-1,-1,-1,-1],"loss_changes":[1.1935795E2,1.0344849E1,1.7306324E1,5.432335E0,8.492643E0,1.1133068E1,4.415153E0,2.8264747E0,2.6831055E0,2.8217373E0,1.1435461E-1,7.2005153E0,1.8656616E0,7.1532345E-1,3.2378092E0,0E0,0E0,1.1929092E0,2.1260612E0,1.3174484E0,0E0,0E0,0E0,4.725106E0,1.7432227E0,1.8827286E0,1.5669001E0,0E0,0E0,0E0,0E0,3.1114197E-1,1.1618447E0,0E0,0E0,0E0,8.7710696E-1,0E0,0E0,1.5358224E0,0E0,9.944763E-1,6.416935E0,0E0,0E0,0E0,0E0,0E0,0E0,0E0,0E0,0E0,0E0,0E0,0E0,0E0,0E0],"parents":[2147483647,0,0,1,1,2,2,3,3,4,4,5,5,6,6,7,7,8,8,9,9,10,10,11,11,12,12,13,13,14,14,17,17,18,18,19,19,23,23,24,24,25,25,26,26,31,31,32,32,36,36,39,39,41,41,42,42],"right_children":[2,4,6,8,10,12,14,16,18,20,22,24,26,28,30,-1,-1,32,34,36,-1,-1,-1,38,40,42,44,-1,-1,-1,-1,46,48,-1,-1,-1,50,-1,-1,52,-1,54,56,-1,-1,-1,-1,-1,-1,-1,-1,-1,-1,-1,-1,-1,-1],"split_conditions":[4.1036673E0,6.8252144E0,4.6033225E0,3.0218554E0,4.2902884E0,3.9123087E0,1.35892935E1,8.189616E0,3.201073E1,4.2290387E0,1.36E-1,3.803903E0,3.528767E1,5.2204525E1,2.0747066E1,1.8436864E-1,-1.6217901E-1,5.623796E1,3.6730297E1,3.456421E1,1.4703596E-1,2.4844398E-1,6.941071E-2,8.770643E1,1.9946566E1,4.6953983E1,7.0476317E0,2.4078946E-1,-3.4214403E-3,-1.6772997E-1,2.1177985E-1,-2.542508E1,1.0951596E0,-1.4230616E-1,1.8478586E-1,-1.8001793E-1,5.696854E0,-1.8242015E-1,1.9431973E-1,1.28E-1,-1.0812884E-1,1.2266216E0,9.093872E0,2.132305E-1,-1.2051378E-1,5.3698752E-2,2.4670239E-1,-1.1005486E-1,1.5387315E-1,1.5341425E-1,-1.0625196E-1,2.5654227E-1,-7.81811E-3,4.362877E-3,-1.8195783E-1,2.7409732E-1,-1.5919586E-1],"split_indices":[58,69,99,13,13,48,119,116,116,29,15,13,83,116,99,0,0,100,71,66,0,0,0,126,41,2,22,0,0,0,0,26,99,0,0,0,4,0,0,65,0,129,27,0,0,0,0,0,0,0,0,0,0,0,0,0,0],"split_type":[0,0,0,0,0,0,0,0,0,0,0,0,0,0,0,0,0,0,0,0,0,0,0,0,0,0,0,0,0,0,0,0,0,0,0,0,0,0,0,0,0,0,0,0,0,0,0,0,0,0,0,0,0,0,0,0,0],"sum_hessian":[4.568489E2,1.8288893E2,2.7395996E2,1.5394974E2,2.8939186E1,2.5227551E2,2.168445E1,7.01422E0,1.4693552E2,1.8864397E1,1.0074789E1,2.9894659E1,2.2238086E2,1.4239736E1,7.4447136E0,2.4374263E0,4.576794E0,1.4175957E2,5.1759624E0,1.6051632E1,2.8127654E0,8.748437E0,1.3263528E0,1.6173876E1,1.3720783E1,2.1923906E2,3.141804E0,1.3100863E1,1.1388721E0,5.461266E0,1.9834476E0,1.3662872E2,5.130841E0,2.7431228E0,2.4328394E0,1.3304014E1,2.7476177E0,1.3257176E1,2.9166996E0,1.2594671E1,1.1261126E0,2.0326749E2,1.5971574E1,1.4514425E0,1.6903614E0,1.3946483E0,1.3523407E2,1.3507242E0,3.7801166E0,1.4551373E0,1.2924806E0,1.0266037E1,2.3286343E0,2.5646873E0,2.0070279E2,2.980197E0,1.2991377E1],"tree_param":{"num_deleted":"0","num_feature":"140","num_nodes":"57","size_leaf_vector":"1"}},{"base_weights":[-3.4063463E-3,-4.599758E-1,2.9194626E-1,-1.6573931E-1,-5.569868E-1,5.545694E-1,7.2814957E-3,-3.8071945E-1,4.5330626E-1,-5.6969416E-1,9.6605755E-2,-2.0848593E-1,6.0754865E-1,-4.225957E-1,3.5434356E-1,3.7456045E-1,-4.812195E-1,6.5308565E-1,-2.1764904E-1,-5.8209187E-1,-4.1847214E-2,9.056257E-3,3.481772E-2,1.6387972E-1,-1.5978071E-1,6.864667E-1,3.260245E-1,3.8403904E-1,-4.7638726E-1,1.7055458E-1,6.107636E-1,1.7900638E-1,-2.6082689E-2,-5.4275274E-1,6.46822E-2,2.1386199E-1,5.0716806E-2,7.5106598E-3,-1.02165036E-1,2.6669929E-2,-1.7703034E-1,9.824937E-2,-1.0924068E-1,7.126505E-1,-2.307735E-1,-2.7018166E-1,5.864522E-1,1.5522538E-1,9.949319E-4,3.344637E-2,-5.4698884E-1,6.854418E-1,-1.0876138E-1,6.4983803E-1,-3.1018985E-2,-1.7185633E-1,2.5189634E-2,8.0267E-2,2.1876423E-1,-1.2173817E-1,2.183541E-2,1.5931112E-1,-1.6484351E-1,-7.581754E-2,2.1006656E-1,-1.4703964E-1,1.4529599E-1,-1.7321526E-1,8.684137E-2,4.4818193E-2,2.18293E-1,4.755786E-2,-1.3908958E-1,1.3923108E-2,2.0747067E-1],"categories":[],"categories_nodes":[],"categories_segments":[],"categories_sizes":[],"default_left":[0,0,0,0,0,0,0,0,0,0,0,0,0,0,0,0,0,0,0,0,0,0,0,0,0,0,0,0,0,0,0,0,0,0,0,0,0,0,0,0,0,0,0,0,0,0,0,0,0,0,0,0,0,0,0,0,0,0,0,0,0,0,0,0,0,0,0,0,0,0,0,0,0,0,0],"id":9,"left_children":[1,3,5,7,9,11,13,15,17,19,21,23,25,27,29,31,33,35,37,39,41,-1,-1,-1,-1,43,45,47,49,51,53,-1,-1,55,-1,-1,-1,-1,-1,-1,-1,-1,-1,57,59,61,63,-1,-1,65,67,69,71,73,-1,-1,-1,-1,-1,-1,-1,-1,-1,-1,-1,-1,-1,-1,-1,-1,-1,-1,-1,-1,-1],"loss_changes":[5.4103E1,4.4060135E0,1.8209196E1,5.5622897E0,1.0358505E0,5.2488365E0,1.774263E1,2.5032177E0,1.6026206E0,7.346649E-1,5.1115826E-4,2.4853795E0,2.414154E0,2.4883223E0,2.9962482E0,4.77948E-1,1.293899E0,1.2968183E-1,1.0545793E-1,6.6106415E-1,5.6434417E-1,0E0,0E0,0E0,0E0,2.369999E0,4.490612E0,1.9507223E-1,1.82726E0,5.7853265E0,8.228531E-1,0E0,0E0,5.2924633E-1,0E0,0E0,0E0,0E0,0E0,0E0,0E0,0E0,0E0,4.649315E-1,2.0507991E-1,2.3431396E0,2.0610461E0,0E0,0E0,1.9029068E0,1.2909136E0,2.1031666E-1,2.597197E0,6.1788845E-1,0E0,0E0,0E0,0E0,0E0,0E0,0E0,0E0,0E0,0E0,0E0,0E0,0E0,0E0,0E0,0E0,0E0,0E0,0E0,0E0,0E0],"parents":[2147483647,0,0,1,1,2,2,3,3,4,4,5,5,6,6,7,7,8,8,9,9,10,10,11,11,12,12,13,13,14,14,15,15,16,16,17,17,18,18,19,19,20,20,25,25,26,26,27,27,28,28,29,29,30,30,33,33,43,43,44,44,45,45,46,46,49,49,50,50,51,51,52,52,53,53],"right_children":[2,4,6,8,10,12,14,16,18,20,22,24,26,28,30,32,34,36,38,40,42,-1,-1,-1,-1,44,46,48,50,52,54,-1,-1,56,-1,-1,-1,-1,-1,-1,-1,-1,-1,58,60,62,64,-1,-1,66,68,70,72,74,-1,-1,-1,-1,-1,-1,-1,-1,-1,-1,-1,-1,-1,-1,-1,-1,-1,-1,-1,-1,-1],"split_conditions":[1.2871419E1,9.0883E0,3.908413E0,1.096226E1,1.7242989E1,3.704234E0,4.470058E0,3.0218554E0,3.6635966E0,4.5794968E1,7.205024E0,3.2431269E0,8.896236E1,3.4101162E1,1.4460336E1,3.9697485E0,1.4350291E1,1.5072017E1,2.4E-2,1.695719E0,8E-3,9.056257E-3,3.481772E-2,1.6387972E-1,-1.5978071E-1,8.2985735E0,1.8267633E2,1.1069159E1,4.0605683E0,1.2440612E1,8.958818E0,1.7900638E-1,-2.6082689E-2,2E-1,6.46822E-2,2.1386199E-1,5.0716806E-2,7.5106598E-3,-1.02165036E-1,2.6669929E-2,-1.7703034E-1,9.824937E-2,-1.0924068E-1,1.3354224E1,4.731854E0,-4.5221863E1,5.0414495E0,1.5522538E-1,9.949319E-4,5.2315025E0,5.7452118E1,5.4134235E0,5.9430397E1,1.6568756E1,-3.1018985E-2,-1.7185633E-1,2.5189634E-2,8.0267E-2,2.1876423E-1,-1.2173817E-1,2.183541E-2,1.5931112E-1,-1.6484351E-1,-7.581754E-2,2.1006656E-1,-1.4703964E-1,1.4529599E-1,-1.7321526E-1,8.684137E-2,4.4818193E-2,2.18293E-1,4.755786E-2,-1.3908958E-1,1.3923108E-2,2.0747067E-1],"split_indices":[47,12,13,47,37,58,38,13,13,116,26,13,105,120,92,19,52,118,10,98,0,0,0,0,0,4,115,17,14,12,99,0,0,10,0,0,0,0,0,0,0,0,0,47,8,6,68,0,0,3,52,103,126,72,0,0,0,0,0,0,0,0,0,0,0,0,0,0,0,0,0,0,0,0,0],"split_type":[0,0,0,0,0,0,0,0,0,0,0,0,0,0,0,0,0,0,0,0,0,0,0,0,0,0,0,0,0,0,0,0,0,0,0,0,0,0,0,0,0,0,0,0,0,0,0,0,0,0,0,0,0,0,0,0,0,0,0,0,0,0,0,0,0,0,0,0,0,0,0,0,0,0,0],"sum_hessian":[3.9921597E2,1.5659183E2,2.4262413E2,3.949899E1,1.1709284E2,1.2570465E2,1.1691949E2,2.9603405E1,9.895585E0,1.1498562E2,2.1072183E0,7.970529E0,1.1773412E2,5.213121E1,6.478828E1,3.1562824E0,2.6447123E1,7.6456866E0,2.2498982E0,1.1224648E2,2.7391374E0,1.055451E0,1.0517672E0,2.1886182E0,5.781911E0,9.083302E1,2.6901096E1,2.875284E0,4.9255924E1,3.8708855E1,2.6079422E1,1.9329864E0,1.2232962E0,2.4504375E1,1.9427484E0,6.3843055E0,1.2613814E0,1.0240567E0,1.2258415E0,1.2048923E0,1.1104159E2,1.2688551E0,1.4702823E0,8.85289E1,2.3041222E0,8.166892E0,1.8734203E1,1.8634267E0,1.0118574E0,6.055289E0,4.3200634E1,1.3102283E1,2.5606571E1,2.4811934E1,1.2674887E0,2.3463362E1,1.0410138E0,3.791717E0,8.473718E1,1.2478607E0,1.0562615E0,1.8780351E0,6.2888575E0,2.090807E0,1.6643396E1,2.761461E0,3.293828E0,4.1984722E1,1.215912E0,1.2875612E0,1.1814721E1,1.49212265E1,1.0685345E1,1.7415314E0,2.3070402E1],"tree_param":{"num_deleted":"0","num_feature":"140","num_nodes":"75","size_leaf_vector":"1"}},{"base_weights":[-1.0568909E-3,-3.739335E-1,2.3106866E-1,-5.379892E-1,-9.79129E-2,3.5939932E-1,-4.0203524E-1,-5.578549E-1,1.09771855E-1,2.9241028E-1,-3.4015116E-1,-2.784743E-1,4.3081057E-1,1.8753505E-1,-4.59455E-1,5.349101E-2,-5.718505E-1,-1.5667722E-1,6.136981E-1,-5.0861484E-1,2.9261625E-1,-1.6827747E-1,3.387473E-1,5.540482E-1,6.371921E-2,1.5937677E-1,-1.1985305E-1,-1.7688891E-1,-2.6653653E-1,4.8682606E-3,1.9347304E-2,-1.32651655E-2,-5.8080554E-1,3.2700184E-1,-1.5743358E-1,-2.9165508E-2,7.193442E-1,6.7937866E-2,-5.583172E-1,6.35894E-1,-1.2752108E-1,2.1289302E-1,-2.640447E-1,6.1804336E-1,-1.04348905E-1,-2.3898986E-1,4.4068313E-1,1.3139342E-1,-1.6357112E-1,-1.7610109E-1,-2.5712663E-2,-9.603673E-2,1.6848391E-1,2.2511666E-1,7.0302166E-2,-1.7542517E-1,2.2944028E-2,2.1694298E-1,5.3119224E-2,-1.13711424E-1,3.5871814E-3,1.900144E-1,-1.1432336E-1,7.619405E-2,-1.6800511E-1,9.198996E-2,-1.3478874E-1,-1.06412135E-1,1.7527027E-1,1.5801139E-1,-1.3764368E-1],"categories":[],"categories_nodes":[],"categories_segments":[],"categories_sizes":[],"default_left":[0,0,0,0,0,0,0,0,0,0,0,0,0,0,0,0,0,0,0,0,0,0,0,0,0,0,0,0,0,0,0,0,0,0,0,0,0,0,0,0,0,0,0,0,0,0,0,0,0,0,0,0,0,0,0,0,0,0,0,0,0,0,0,0,0,0,0,0,0,0,0],"id":10,"left_children":[1,3,5,7,9,11,13,15,-1,17,19,21,23,25,27,29,31,33,35,37,39,-1,41,43,45,-1,-1,-1,47,-1,-1,-1,49,51,-1,-1,53,-1,55,57,-1,-1,59,61,63,65,67,69,-1,-1,-1,-1,-1,-1,-1,-1,-1,-1,-1,-1,-1,-1,-1,-1,-1,-1,-1,-1,-1,-1,-1],"loss_changes":[3.5055058E1,6.9838486E0,2.042511E1,1.950222E0,5.6922207E0,9.598101E0,1.52634E0,8.480892E-1,0E0,3.4420571E0,4.0888333E0,3.9480705E0,8.447968E0,1.1173682E0,8.2367134E-1,2.0482391E-4,4.1606903E-1,2.0353246E0,1.1004949E0,1.2062297E0,2.341278E0,0E0,1.8398361E0,5.9741936E0,5.6123304E0,0E0,0E0,0E0,2.0191941E0,0E0,0E0,0E0,2.315445E-1,9.6012557E-1,0E0,0E0,5.81789E-3,0E0,5.1408386E-1,1.1563277E-1,0E0,0E0,1.1702077E-1,2.2025566E0,2.310708E0,3.2835567E0,2.7015405E0,2.1172833E0,0E0,0E0,0E0,0E0,0E0,0E0,0E0,0E0,0E0,0E0,0E0,0E0,0E0,0E0,0E0,0E0,0E0,0E0,0E0,0E0,0E0,0E0,0E0],"parents":[2147483647,0,0,1,1,2,2,3,3,4,4,5,5,6,6,7,7,9,9,10,10,11,11,12,12,13,13,14,14,15,15,16,16,17,17,18,18,19,19,20,20,22,22,23,23,24,24,28,28,32,32,33,33,36,36,38,38,39,39,42,42,43,43,44,44,45,45,46,46,47,47],"right_children":[2,4,6,8,10,12,14,16,-1,18,20,22,24,26,28,30,32,34,36,38,40,-1,42,44,46,-1,-1,-1,48,-1,-1,-1,50,52,-1,-1,54,-1,56,58,-1,-1,60,62,64,66,68,70,-1,-1,-1,-1,-1,-1,-1,-1,-1,-1,-1,-1,-1,-1,-1,-1,-1,-1,-1,-1,-1,-1,-1],"split_conditions":[4.643676E0,4.8384795E0,4.4196877E0,1.0400403E1,3.596182E0,4.119499E0,2.9696133E0,2.5113738E0,1.09771855E-1,2.1596663E1,8.294457E1,6.337237E0,5.829807E0,2.1506027E1,7.2334816E1,5.6E-2,7.7914863E0,1.0642201E1,4.1189877E1,3.3754942E0,8.216861E0,-1.6827747E-1,2.82481E1,3.441972E1,4.472709E0,1.5937677E-1,-1.1985305E-1,-1.7688891E-1,1.168532E1,4.8682606E-3,1.9347304E-2,-1.32651655E-2,1.3710358E2,-3.920633E0,-1.5743358E-1,-2.9165508E-2,1.3703558E1,6.7937866E-2,5.7691636E0,1.0440785E1,-1.2752108E-1,2.1289302E-1,2.2159178E1,7.219795E1,3.1609502E0,1.378966E1,2.8620434E0,1.0479865E2,-1.6357112E-1,-1.7610109E-1,-2.5712663E-2,-9.603673E-2,1.6848391E-1,2.2511666E-1,7.0302166E-2,-1.7542517E-1,2.2944028E-2,2.1694298E-1,5.3119224E-2,-1.13711424E-1,3.5871814E-3,1.900144E-1,-1.1432336E-1,7.619405E-2,-1.6800511E-1,9.198996E-2,-1.3478874E-1,-1.06412135E-1,1.7527027E-1,1.5801139E-1,-1.3764368E-1],"split_indices":[9,59,34,4,92,59,97,58,0,90,100,4,97,17,100,0,2,116,130,38,97,0,2,67,14,0,0,0,97,0,0,0,100,6,0,0,26,0,44,78,0,0,1,46,29,137,119,131,0,0,0,0,0,0,0,0,0,0,0,0,0,0,0,0,0,0,0,0,0,0,0],"split_type":[0,0,0,0,0,0,0,0,0,0,0,0,0,0,0,0,0,0,0,0,0,0,0,0,0,0,0,0,0,0,0,0,0,0,0,0,0,0,0,0,0,0,0,0,0,0,0,0,0,0,0,0,0,0,0,0,0,0,0,0,0,0,0,0,0,0,0,0,0,0,0],"sum_hessian":[4.030088E2,1.543909E2,2.4861789E2,9.624036E1,5.815055E1,2.0707578E2,4.1542107E1,9.454528E1,1.6950696E0,2.2189333E1,3.596122E1,2.0556583E1,1.865192E2,3.4857152E0,3.8056393E1,2.0528378E0,9.249245E1,9.467818E0,1.2721515E1,2.8555107E1,7.406112E0,1.4165453E1,6.3911304E0,1.392588E2,4.7260384E1,2.2584212E0,1.227294E0,2.1495562E1,1.656083E1,1.0320174E0,1.0208204E0,1.6426824E0,9.084976E1,4.1398187E0,5.3279996E0,1.6562176E0,1.1065297E1,1.5832506E0,2.6971857E1,5.086938E0,2.319174E0,3.84689E0,2.5442402E0,1.2697803E2,1.2280785E1,2.641481E1,2.0845573E1,7.039026E0,9.521804E0,8.9543144E1,1.3066185E0,1.0045377E0,3.1352808E0,9.885363E0,1.1799344E0,2.5969318E1,1.0025377E0,3.7901576E0,1.2967803E0,1.532446E0,1.0117943E0,1.2541873E2,1.5592898E0,7.1224446E0,5.1583405E0,7.221398E0,1.9193413E1,2.9621115E0,1.7883463E1,4.279961E0,2.7590644E0],"tree_param":{"num_deleted":"0","num_feature":"140","num_nodes":"71","size_leaf_vector":"1"}},{"base_weights":[4.5400187E-3,5.3605723E-1,-3.8137814E-1,6.603224E-1,1.2045092E-1,-4.9045977E-1,2.0244996E-1,6.982935E-1,1.636246E-1,-3.3744144E-1,4.5076966E-1,1.8513405E-1,-5.212957E-1,6.3843495E-1,-6.860791E-2,7.102528E-1,-4.7388323E-2,-1.4515893E-1,5.107661E-1,1.22843735E-1,-4.9106026E-1,-1.2728448E-1,5.492135E-1,-3.569119E-1,1.8786028E-1,1.9882058E-1,-5.3345966E-1,-1.2318415E-3,7.43164E-1,-2.2496651E-1,5.033594E-1,9.237552E-2,2.1448952E-1,-1.5825469E-2,1.9303574E-1,-5.072529E-6,-1.6812192E-1,6.190646E-1,-5.2563604E-2,7.686212E-5,-1.3592789E-1,-5.734573E-1,-2.6299107E-1,5.5954777E-2,2.3505624E-1,1.9344014E-1,-3.27081E-1,1.947531E-1,-1.2984689E-2,2.019514E-1,1.8200077E-2,-1.7478989E-1,6.091872E-2,1.462359E-1,-1.5981895E-1,4.2842627E-2,-1.5575469E-1],"categories":[],"categories_nodes":[],"categories_segments":[],"categories_sizes":[],"default_left":[0,0,0,0,0,0,0,0,0,0,0,0,0,0,0,0,0,0,0,0,0,0,0,0,0,0,0,0,0,0,0,0,0,0,0,0,0,0,0,0,0,0,0,0,0,0,0,0,0,0,0,0,0,0,0,0,0],"id":11,"left_children":[1,3,5,7,9,11,13,15,17,19,21,23,25,27,29,31,-1,-1,33,-1,35,-1,37,39,-1,-1,41,-1,43,45,47,-1,-1,-1,-1,-1,-1,49,-1,-1,-1,51,53,-1,-1,-1,55,-1,-1,-1,-1,-1,-1,-1,-1,-1,-1],"loss_changes":[8.109026E1,8.508583E0,1.4685677E1,2.2959023E0,6.1263523E0,4.12294E0,4.3885293E0,1.3247337E0,2.580588E0,2.1660085E0,2.2465491E0,2.4169207E0,3.0194511E0,9.580288E-1,2.2214315E0,1.5907288E-3,0E0,0E0,5.7563484E-1,0E0,4.9913573E-1,0E0,1.1936903E0,1.6339576E-1,0E0,0E0,1.8372612E0,0E0,1.281066E-1,1.9164779E0,4.5610976E-1,0E0,0E0,0E0,0E0,0E0,0E0,5.567975E-1,0E0,0E0,0E0,1.2529716E0,5.426077E0,0E0,0E0,0E0,1.6853343E0,0E0,0E0,0E0,0E0,0E0,0E0,0E0,0E0,0E0,0E0],"parents":[2147483647,0,0,1,1,2,2,3,3,4,4,5,5,6,6,7,7,8,8,9,9,10,10,11,11,12,12,13,13,14,14,15,15,18,18,20,20,22,22,23,23,26,26,28,28,29,29,30,30,37,37,41,41,42,42,46,46],"right_children":[2,4,6,8,10,12,14,16,18,20,22,24,26,28,30,32,-1,-1,34,-1,36,-1,38,40,-1,-1,42,-1,44,46,48,-1,-1,-1,-1,-1,-1,50,-1,-1,-1,52,54,-1,-1,-1,56,-1,-1,-1,-1,-1,-1,-1,-1,-1,-1],"split_conditions":[4.448819E0,6.19077E1,3.3379314E0,6.933569E0,3.812851E0,3.5803719E0,5.51252E0,4.130708E0,1.6683144E1,3.0155008E0,1.2639501E1,3.764212E0,1.1317989E0,3.806848E0,2.045504E1,8.115371E0,-4.7388323E-2,-1.4515893E-1,2.0743992E1,1.22843735E-1,9.018029E0,-1.2728448E-1,3.900916E1,5.6E-2,1.8786028E-1,1.9882058E-1,3.553381E1,-1.2318415E-3,2.4749627E0,4.654128E0,1.2286245E1,9.237552E-2,2.1448952E-1,-1.5825469E-2,1.9303574E-1,-5.072529E-6,-1.6812192E-1,3.7035122E1,-5.2563604E-2,7.686212E-5,-1.3592789E-1,3.528767E1,8.366595E0,5.5954777E-2,2.3505624E-1,1.9344014E-1,7.817547E1,1.947531E-1,-1.2984689E-2,2.019514E-1,1.8200077E-2,-1.7478989E-1,6.091872E-2,1.462359E-1,-1.5981895E-1,4.2842627E-2,-1.5575469E-1],"split_indices":[59,115,99,69,14,48,59,38,123,58,67,13,129,13,98,2,0,0,71,0,106,0,51,55,0,0,67,0,23,44,22,0,0,0,0,0,0,95,0,0,0,83,27,0,0,0,115,0,0,0,0,0,0,0,0,0,0],"split_type":[0,0,0,0,0,0,0,0,0,0,0,0,0,0,0,0,0,0,0,0,0,0,0,0,0,0,0,0,0,0,0,0,0,0,0,0,0,0,0,0,0,0,0,0,0,0,0,0,0,0,0,0,0,0,0,0,0],"sum_hessian":[3.9333E2,1.6529016E2,2.2803983E2,1.2679114E2,3.8499023E1,1.922753E2,3.5764523E1,1.17409645E2,9.381496E0,1.61249E1,2.2374123E1,8.174484E0,1.8410081E2,1.3191391E1,2.2573133E1,1.1596053E2,1.4491111E0,3.1368325E0,6.244664E0,2.4665532E0,1.3658348E1,1.9278556E0,2.0446266E1,3.753027E0,4.4214573E0,1.3282266E0,1.8277258E2,1.9834125E0,1.1207978E1,1.820352E1,4.3696136E0,2.1104677E0,1.1385007E2,1.3049573E0,4.939707E0,1.8139462E0,1.1844402E1,1.878081E1,1.6654565E0,1.0078208E0,2.745206E0,1.5824991E2,2.452267E1,1.1376619E0,1.0070316E1,1.3542361E0,1.6849283E1,3.3013895E0,1.0682244E0,1.6934391E1,1.846419E0,1.5664859E2,1.6013296E0,6.270445E0,1.8252228E1,4.9639053E0,1.1885378E1],"tree_param":{"num_deleted":"0","num_feature":"140","num_nodes":"57","size_leaf_vector":"1"}},{"base_weights":[-2.715454E-4,-5.002785E-1,2.2242647E-1,1.12869896E-1,-5.2080643E-1,5.084891E-1,-1.0303129E-2,-2.3894069E-1,-5.504516E-1,-3.1825018E-1,5.445661E-1,-2.0575416E-1,3.7481588E-1,-1.5273012E-1,2.9739025E-1,2.609669E-2,-5.593273E-1,-1.3129339E-1,2.42867E-2,-3.731355E-4,5.735962E-1,1.1276142E-1,-3.7307593E-1,-4.1935444E-1,4.870543E-1,1.8474984E-1,-9.533117E-2,-1.6948937E-1,-7.799329E-3,1.1776761E-1,-1.2983651E-1,6.2138075E-1,2.92121E-1,-3.619036E-1,3.603578E-1,-4.8000777E-1,1.5584604E-1,-1.8630411E-2,-1.4337078E-1,5.4829353E-1,-1.3594872E-1,-1.4883408E-2,1.915917E-1,-1.3272956E-1,1.3808155E-1,8.365673E-2,-1.3841248E-1,-1.9746479E-2,1.7932814E-1,3.7208755E-2,-1.5911745E-1,1.8969835E-1,-8.89692E-2,1.7456555E-1,-3.787671E-2,1.1265766E-1,-1.3412172E-1],"categories":[],"categories_nodes":[],"categories_segments":[],"categories_sizes":[],"default_left":[0,0,0,0,0,0,0,0,0,0,0,0,0,0,0,0,0,0,0,0,0,0,0,0,0,0,0,0,0,0,0,0,0,0,0,0,0,0,0,0,0,0,0,0,0,0,0,0,0,0,0,0,0,0,0,0,0],"id":12,"left_children":[1,3,5,-1,7,9,11,13,15,17,19,21,23,-1,25,-1,27,-1,-1,29,31,33,35,37,39,-1,-1,-1,-1,-1,-1,41,43,45,47,49,51,-1,-1,53,55,-1,-1,-1,-1,-1,-1,-1,-1,-1,-1,-1,-1,-1,-1,-1,-1],"loss_changes":[3.804968E1,2.0905437E0,1.574463E1,0E0,7.316952E-1,3.3371487E0,9.963307E0,1.831928E0,5.731716E-1,2.7691388E-1,1.6139545E0,4.719697E0,4.177094E0,0E0,1.0804367E0,0E0,2.606163E-1,0E0,0E0,1.2163234E0,1.1211319E0,3.7731762E0,3.342411E0,9.7E-2,1.5820875E0,0E0,0E0,0E0,0E0,0E0,0E0,9.8018074E-1,2.1728249E0,8.3769596E-1,2.1510034E0,1.535819E0,2.4446528E0,0E0,0E0,8.9318943E-1,8.581675E-1,0E0,0E0,0E0,0E0,0E0,0E0,0E0,0E0,0E0,0E0,0E0,0E0,0E0,0E0,0E0,0E0],"parents":[2147483647,0,0,1,1,2,2,4,4,5,5,6,6,7,7,8,8,9,9,10,10,11,11,12,12,14,14,16,16,19,19,20,20,21,21,22,22,23,23,24,24,31,31,32,32,33,33,34,34,35,35,36,36,39,39,40,40],"right_children":[2,4,6,-1,8,10,12,14,16,18,20,22,24,-1,26,-1,28,-1,-1,30,32,34,36,38,40,-1,-1,-1,-1,-1,-1,42,44,46,48,50,52,-1,-1,54,56,-1,-1,-1,-1,-1,-1,-1,-1,-1,-1,-1,-1,-1,-1,-1,-1],"split_conditions":[1.1472324E1,2.7684102E0,4.047593E0,1.12869896E-1,8.0580845E0,3.5062714E0,8.377552E0,1.6703033E1,1.1061802E0,4.901312E0,3.306575E0,1.2662128E1,4.936686E0,-1.5273012E-1,1.68705E1,2.609669E-2,2.8215595E1,-1.3129339E-1,2.42867E-2,3.4954948E0,7.9716255E1,3.8521836E0,2.130595E1,1.1460253E1,1.5454956E3,1.8474984E-1,-9.533117E-2,-1.6948937E-1,-7.799329E-3,1.1776761E-1,-1.2983651E-1,1.9715216E0,1.4873418E2,1.4170377E0,1.4825987E1,2.5594189E1,2.3011713E2,-1.8630411E-2,-1.4337078E-1,5.393592E1,-3.1723255E1,-1.4883408E-2,1.915917E-1,-1.3272956E-1,1.3808155E-1,8.365673E-2,-1.3841248E-1,-1.9746479E-2,1.7932814E-1,3.7208755E-2,-1.5911745E-1,1.8969835E-1,-8.89692E-2,1.7456555E-1,-3.787671E-2,1.1265766E-1,-1.3412172E-1],"split_indices":[47,13,14,0,12,58,97,116,74,53,38,12,92,0,105,0,87,0,0,8,100,38,22,12,125,0,0,0,0,0,0,28,115,114,47,85,80,0,0,98,1,0,0,0,0,0,0,0,0,0,0,0,0,0,0,0,0],"split_type":[0,0,0,0,0,0,0,0,0,0,0,0,0,0,0,0,0,0,0,0,0,0,0,0,0,0,0,0,0,0,0,0,0,0,0,0,0,0,0,0,0,0,0,0,0,0,0,0,0,0,0,0,0,0,0,0,0],"sum_hessian":[3.3971146E2,1.0429635E2,2.354151E2,1.9902034E0,1.02306145E2,1.0507541E2,1.3033969E2,1.0598235E1,9.170791E1,4.066496E0,1.0100891E2,8.67693E1,4.3570385E1,7.0817833E0,3.516452E0,1.138545E0,9.056937E1,3.0561695E0,1.0103266E0,5.158734E0,9.585018E1,2.999554E1,5.677376E1,5.056389E0,3.8513996E1,2.3163064E0,1.2001457E0,8.956338E1,1.0059915E0,2.7510507E0,2.4076831E0,8.090738E1,1.49428E1,1.0124423E1,1.9871117E1,4.7303017E1,9.470744E0,1.0021414E0,4.0542474E0,3.5176205E1,3.337793E0,1.9817839E0,7.89256E1,2.4796212E0,1.2463178E1,1.1181713E0,9.006251E0,7.3676443E0,1.2503473E1,3.5293102E0,4.3773705E1,4.418967E0,5.0517774E0,3.3638428E1,1.537775E0,1.184132E0,2.1536613E0],"tree_param":{"num_deleted":"0","num_feature":"140","num_nodes":"57","size_leaf_vector":"1"}},{"base_weights":[-1.9377022E-3,-2.6632923E-1,2.5810227E-1,-4.1854274E-1,5.7088807E-2,4.0264422E-1,-4.0710175E-1,-1.7063963E-1,-2.7972957E-1,2.2940695E-1,-3.9544752E-1,5.155015E-1,5.05403E-2,-5.367394E-1,1.818257E-2,-4.154985E-1,3.387894E-2,5.1980394E-1,-1.4721534E-2,-4.9780324E-1,1.0179706E-1,-2.3449649E-1,5.5641764E-1,-4.75357E-1,2.4856554E-1,-3.4220342E-3,-1.6790822E-1,-1.3629045E-1,4.259721E-1,3.071282E-1,-4.687093E-1,5.415227E-1,-2.1391276E-1,6.20367E-1,-7.006212E-2,-4.1338423E-1,4.9809363E-1,2.1058755E-2,-1.6546774E-1,6.58014E-2,-1.4202532E-1,5.849889E-1,-1.4966157E-1,-1.8688044E-1,1.1022227E-1,-4.056412E-1,4.042573E-1,1.7145345E-1,-1.5782878E-2,-2.0672746E-2,1.6000868E-1,5.570419E-2,-1.5582211E-1,-1.5402481E-2,2.0360807E-1,1.2934563E-1,-1.2880574E-1,-2.0141048E-2,2.0058396E-1,2.2509621E-2,-1.658854E-1,-2.539161E-2,1.743336E-1,1.8073404E-1,-3.5837594E-2,-1.3025758E-1,1.15374446E-1,-1.64591E-2,-1.4086242E-1,-2.4941444E-2,1.6995335E-1],"categories":[],"categories_nodes":[],"categories_segments":[],"categories_sizes":[],"default_left":[0,0,0,0,0,0,0,0,0,0,0,0,0,0,0,0,0,0,0,0,0,0,0,0,0,0,0,0,0,0,0,0,0,0,0,0,0,0,0,0,0,0,0,0,0,0,0,0,0,0,0,0,0,0,0,0,0,0,0,0,0,0,0,0,0,0,0,0,0,0,0],"id":13,"left_children":[1,3,5,7,9,11,13,-1,15,17,19,21,23,25,27,29,31,33,35,37,-1,39,41,43,45,-1,-1,-1,47,49,51,53,55,57,-1,59,61,-1,-1,-1,-1,63,65,-1,-1,67,69,-1,-1,-1,-1,-1,-1,-1,-1,-1,-1,-1,-1,-1,-1,-1,-1,-1,-1,-1,-1,-1,-1,-1,-1],"loss_changes":[2.384213E1,8.488703E0,1.6974174E1,2.2820778E0,4.4504194E0,5.701248E0,1.7577791E0,0E0,2.6882E0,2.923017E0,1.3560755E0,3.476471E0,3.8768237E0,2.8702545E-1,1.8069935E0,1.8321776E0,2.6190112E0,1.5698347E0,4.97215E0,4.7413135E-1,0E0,7.917493E-1,2.1793861E0,1.4994893E0,2.9014213E0,0E0,0E0,0E0,3.790862E-1,3.4432212E-1,1.46628E0,5.8869827E-1,2.1431222E0,6.0437536E-1,0E0,9.7286487E-1,5.644269E-1,0E0,0E0,0E0,0E0,1.3000984E0,9.010243E-1,0E0,0E0,1.0123384E-1,1.8035264E0,0E0,0E0,0E0,0E0,0E0,0E0,0E0,0E0,0E0,0E0,0E0,0E0,0E0,0E0,0E0,0E0,0E0,0E0,0E0,0E0,0E0,0E0,0E0,0E0],"parents":[2147483647,0,0,1,1,2,2,3,3,4,4,5,5,6,6,8,8,9,9,10,10,11,11,12,12,13,13,14,14,15,15,16,16,17,17,18,18,19,19,21,21,22,22,23,23,24,24,28,28,29,29,30,30,31,31,32,32,33,33,35,35,36,36,41,41,42,42,45,45,46,46],"right_children":[2,4,6,8,10,12,14,-1,16,18,20,22,24,26,28,30,32,34,36,38,-1,40,42,44,46,-1,-1,-1,48,50,52,54,56,58,-1,60,62,-1,-1,-1,-1,64,66,-1,-1,68,70,-1,-1,-1,-1,-1,-1,-1,-1,-1,-1,-1,-1,-1,-1,-1,-1,-1,-1,-1,-1,-1,-1,-1,-1],"split_conditions":[4.981452E0,3.0897625E1,3.5289047E0,1.4152627E1,7.7631316E0,2.6289219E1,3.2883072E2,-1.7063963E-1,3.7182517E0,1.5688328E1,9.159038E1,4.1208477E0,1.7839723E2,5.2881374E0,4E-2,2.9399314E0,2.3884397E0,1.9596899E1,8.610897E1,1.0608896E1,1.0179706E-1,1.3617892E0,1.168532E1,1.36E-1,4.17692E0,-3.4220342E-3,-1.6790822E-1,-1.3629045E-1,8.8031793E2,2.7977205E1,1.2914929E0,3.4602435E0,1.20018E1,8E-3,-7.006212E-2,1.2167755E1,1.7221074E0,2.1058755E-2,-1.6546774E-1,6.58014E-2,-1.4202532E-1,2.662104E1,1.28E-1,-1.8688044E-1,1.1022227E-1,2.0947687E1,2.789487E0,1.7145345E-1,-1.5782878E-2,-2.0672746E-2,1.6000868E-1,5.570419E-2,-1.5582211E-1,-1.5402481E-2,2.0360807E-1,1.2934563E-1,-1.2880574E-1,-2.0141048E-2,2.0058396E-1,2.2509621E-2,-1.658854E-1,-2.539161E-2,1.743336E-1,1.8073404E-1,-3.5837594E-2,-1.3025758E-1,1.15374446E-1,-1.64591E-2,-1.4086242E-1,-2.4941444E-2,1.6995335E-1],"split_indices":[9,90,28,100,92,7,100,0,119,47,81,19,130,101,5,87,28,2,100,138,0,104,97,65,14,0,0,0,115,105,97,8,75,45,0,71,114,0,0,0,0,17,0,0,0,47,119,0,0,0,0,0,0,0,0,0,0,0,0,0,0,0,0,0,0,0,0,0,0,0,0],"split_type":[0,0,0,0,0,0,0,0,0,0,0,0,0,0,0,0,0,0,0,0,0,0,0,0,0,0,0,0,0,0,0,0,0,0,0,0,0,0,0,0,0,0,0,0,0,0,0,0,0,0,0,0,0,0,0,0,0,0,0,0,0,0,0,0,0,0,0,0,0,0,0],"sum_hessian":[3.4478287E2,1.70949E2,1.7383388E2,1.1604122E2,5.4907776E1,1.431283E2,3.0705591E1,5.4236366E1,6.1804855E1,4.0122772E1,1.4785006E1,1.0803618E2,3.509211E1,2.3331482E1,7.37411E0,4.2905224E1,1.889963E1,1.7809135E1,2.2313635E1,1.3260311E1,1.5246942E0,5.344245E0,1.0269193E2,9.216168E0,2.587594E1,1.0394702E0,2.2292011E1,3.3632421E0,4.010868E0,2.615372E0,4.0289852E1,5.8104773E0,1.3089152E1,1.5867515E1,1.9416203E0,1.2663173E1,9.650463E0,1.1200224E0,1.2140289E1,1.8714198E0,3.472825E0,9.8862976E1,3.8289592E0,8.064777E0,1.1513913E0,4.665673E0,2.1210268E1,2.9266734E0,1.0841948E0,1.2436439E0,1.371728E0,2.7055101E0,3.7584343E1,1.2093353E0,4.601142E0,3.0263765E0,1.0062777E1,1.0148239E0,1.4852691E1,2.917111E0,9.746061E0,1.2009678E0,8.449495E0,9.661346E1,2.249517E0,2.6205614E0,1.2083977E0,1.0053622E0,3.6603107E0,5.4191747E0,1.5791094E1],"tree_param":{"num_deleted":"0","num_feature":"140","num_nodes":"71","size_leaf_vector":"1"}},{"base_weights":[2.2984704E-3,4.1700324E-1,-4.061141E-1,5.7339406E-1,-1.4493089E-2,-5.042088E-1,1.1271242E-1,6.0963804E-1,1.1904706E-1,-3.2628283E-1,3.9554733E-1,3.038537E-1,-5.264632E-1,4.8814148E-1,-1.3066527E-1,-5.9111558E-2,6.213626E-1,-3.235868E-1,1.7273402E-1,2.3362376E-1,-5.210522E-1,5.4635894E-1,-2.1705122E-1,1.5555102E-1,-4.2135693E-2,-5.415365E-1,1.3108031E-1,-1.2098026E-1,2.2375038E-1,-1.522763E-1,1.4144422E-1,6.346211E-1,8.282223E-2,-1.4465739E-1,6.601768E-2,4.605272E-1,-2.3071927E-1,-7.3537207E-3,-1.6399048E-1,6.09444E-1,-3.977348E-2,-1.3230325E-1,7.939843E-2,4.525708E-2,-5.4934365E-1,1.8107352E-1,-1.0511293E-1,5.4888403E-1,-3.8262835E-1,4.255411E-2,1.9345112E-1,-9.946851E-2,1.2452375E-1,2.928773E-2,1.6018602E-1,-8.919658E-3,-9.726884E-2,1.9293998E-1,3.6251448E-2,3.1727634E-2,-1.6670339E-1,1.9268794E-1,9.090895E-3,-1.5449554E-2,-1.3591026E-1],"categories":[],"categories_nodes":[],"categories_segments":[],"categories_sizes":[],"default_left":[0,0,0,0,0,0,0,0,0,0,0,0,0,0,0,0,0,0,0,0,0,0,0,0,0,0,0,0,0,0,0,0,0,0,0,0,0,0,0,0,0,0,0,0,0,0,0,0,0,0,0,0,0,0,0,0,0,0,0,0,0,0,0,0,0],"id":14,"left_children":[1,3,5,7,9,11,13,15,17,19,21,23,25,27,29,-1,31,33,-1,35,37,39,41,-1,-1,43,45,-1,-1,-1,47,49,51,-1,-1,53,55,-1,-1,57,-1,-1,-1,-1,59,-1,-1,61,63,-1,-1,-1,-1,-1,-1,-1,-1,-1,-1,-1,-1,-1,-1,-1,-1],"loss_changes":[5.63598E1,1.1149967E1,8.589476E0,1.9234047E0,5.86898E0,2.6987839E0,2.5742536E0,1.1818314E0,2.247861E0,2.9627717E0,1.9520061E0,4.941684E-1,1.4363899E0,2.831563E0,1.8623827E0,0E0,7.37484E-1,6.078343E-1,0E0,8.874018E-1,2.3605871E-1,7.750406E-1,6.168757E-1,0E0,0E0,8.1191635E-1,1.0969378E0,0E0,0E0,0E0,2.5419264E0,4.514084E-1,6.6201264E-1,0E0,0E0,8.9475155E-2,4.8620507E-2,0E0,0E0,1.6935349E-1,0E0,0E0,0E0,0E0,6.1307526E-1,0E0,0E0,2.980559E-1,1.0176885E-1,0E0,0E0,0E0,0E0,0E0,0E0,0E0,0E0,0E0,0E0,0E0,0E0,0E0,0E0,0E0,0E0],"parents":[2147483647,0,0,1,1,2,2,3,3,4,4,5,5,6,6,7,7,8,8,9,9,10,10,11,11,12,12,13,13,14,14,16,16,17,17,19,19,20,20,21,21,22,22,25,25,26,26,30,30,31,31,32,32,35,35,36,36,39,39,44,44,47,47,48,48],"right_children":[2,4,6,8,10,12,14,16,18,20,22,24,26,28,30,-1,32,34,-1,36,38,40,42,-1,-1,44,46,-1,-1,-1,48,50,52,-1,-1,54,56,-1,-1,58,-1,-1,-1,-1,60,-1,-1,62,64,-1,-1,-1,-1,-1,-1,-1,-1,-1,-1,-1,-1,-1,-1,-1,-1],"split_conditions":[4.7636213E0,6.246681E1,3.3379314E0,7.5565724E0,3.7952676E0,2.1750033E0,7.817547E1,-4.1605938E1,4.211274E0,3.704234E0,4.3680904E1,5.6E-2,3.21193E3,1.40036745E1,2.3040894E2,-5.9111558E-2,3.201073E1,2.1034773E1,1.7273402E-1,5.4696198E0,4.1083946E0,6.8562694E0,4.633103E0,1.5555102E-1,-4.2135693E-2,3.9213855E0,1.189106E1,-1.2098026E-1,2.2375038E-1,-1.522763E-1,1.4821782E1,2.978682E0,4.2828646E0,-1.4465739E-1,6.601768E-2,2.8017168E0,1.0189022E1,-7.3537207E-3,-1.6399048E-1,1.9981318E1,-3.977348E-2,-1.3230325E-1,7.939843E-2,4.525708E-2,1.9016575E0,1.8107352E-1,-1.0511293E-1,8.051618E0,2.3680025E1,4.255411E-2,1.9345112E-1,-9.946851E-2,1.2452375E-1,2.928773E-2,1.6018602E-1,-8.919658E-3,-9.726884E-2,1.9293998E-1,3.6251448E-2,3.1727634E-2,-1.6670339E-1,1.9268794E-1,9.090895E-3,-1.5449554E-2,-1.3591026E-1],"split_indices":[59,115,99,69,13,23,115,46,13,58,95,0,70,81,70,0,116,112,0,68,88,64,43,0,0,63,22,0,0,0,27,13,14,0,0,29,61,0,0,87,0,0,0,0,86,0,0,8,138,0,0,0,0,0,0,0,0,0,0,0,0,0,0,0,0],"split_type":[0,0,0,0,0,0,0,0,0,0,0,0,0,0,0,0,0,0,0,0,0,0,0,0,0,0,0,0,0,0,0,0,0,0,0,0,0,0,0,0,0,0,0,0,0,0,0,0,0,0,0,0,0,0,0,0,0,0,0,0,0,0,0,0,0],"sum_hessian":[3.3076022E2,1.6410545E2,1.6665477E2,1.2020845E2,4.3897E1,1.4017921E2,2.6475554E1,1.1101113E2,9.19732E0,2.5052017E1,1.8844982E1,3.4179797E0,1.3676125E2,1.0017336E1,1.6458218E1,1.3639387E0,1.09647194E2,4.818796E0,4.378524E0,6.4140253E0,1.863799E1,1.5208926E1,3.636057E0,2.1920009E0,1.2259789E0,1.338689E2,2.8923388E0,2.119763E0,7.897573E0,6.537366E0,9.920851E0,1.068385E2,2.808694E0,3.817973E0,1.0008233E0,4.314125E0,2.0999002E0,1.00916E0,1.7628832E1,1.400955E1,1.1993756E0,2.5397577E0,1.0962993E0,1.2883178E0,1.3258058E2,1.3317343E0,1.5606046E0,5.5548744E0,4.365977E0,2.4722464E0,1.0436626E2,1.2508065E0,1.5578873E0,1.1180165E0,3.1961083E0,1.0852543E0,1.0146459E0,1.281004E1,1.1995097E0,1.1193516E0,1.3146123E2,4.504878E0,1.0499965E0,1.0691316E0,3.2968452E0],"tree_param":{"num_deleted":"0","num_feature":"140","num_nodes":"65","size_leaf_vector":"1"}},{"base_weights":[3.854349E-4,-4.7582957E-1,1.978626E-1,1.18368596E-1,-4.958404E-1,4.5413014E-1,-9.069398E-3,-1.5717126E-1,-5.396917E-1,-2.829922E-1,4.8685884E-1,-2.6195997E-1,2.2656037E-1,-4.220036E-1,3.0436748E-1,-1.6380662E-1,-1.3964792E-2,2.2035595E-2,-1.2188224E-1,2.430151E-1,5.5969596E-1,-4.389238E-1,9.5299356E-2,4.1260827E-1,5.8516733E-2,-1.4823565E-2,-1.4208007E-1,1.6515663E-1,-8.498583E-2,4.6312666E-1,-4.6625608E-1,5.761535E-1,-2.0563614E-2,1.7731305E-2,-5.292043E-1,4.9369413E-1,-2.5519943E-1,9.227997E-4,5.2168965E-1,-3.34081E-1,3.8353336E-1,1.5751636E-1,-5.790898E-2,-1.5461352E-1,-3.5590556E-2,1.7588566E-1,9.502832E-3,-8.8103235E-2,1.1763045E-1,-1.6331081E-1,-1.2344714E-2,1.7560957E-1,-1.9635463E-2,1.0595398E-1,-1.2723419E-1,-1.3140021E-1,1.1658882E-1,1.6832837E-1,-3.5446633E-2,8.97734E-2,-1.2938228E-1,-4.549766E-2,1.5831369E-1],"categories":[],"categories_nodes":[],"categories_segments":[],"categories_sizes":[],"default_left":[0,0,0,0,0,0,0,0,0,0,0,0,0,0,0,0,0,0,0,0,0,0,0,0,0,0,0,0,0,0,0,0,0,0,0,0,0,0,0,0,0,0,0,0,0,0,0,0,0,0,0,0,0,0,0,0,0,0,0,0,0,0,0],"id":15,"left_children":[1,3,5,-1,7,9,11,13,15,17,19,21,23,25,27,-1,-1,-1,-1,29,31,33,35,37,39,-1,-1,-1,-1,41,43,45,-1,47,49,51,53,55,57,59,61,-1,-1,-1,-1,-1,-1,-1,-1,-1,-1,-1,-1,-1,-1,-1,-1,-1,-1,-1,-1,-1,-1],"loss_changes":[2.7019686E1,1.6625271E0,1.0774233E1,0E0,1.1444092E0,2.3271523E0,6.8133373E0,1.4606978E0,2.0207405E-1,2.2716874E-1,1.4138107E0,3.5274627E0,1.8270214E0,1.1779511E-1,8.148389E-1,0E0,0E0,0E0,0E0,3.625175E0,7.2626305E-1,1.5367832E0,2.7909255E0,1.2539868E0,4.2465506E0,0E0,0E0,0E0,0E0,7.989321E-1,3.568244E-2,3.3909225E-1,0E0,9.4090617E-1,2.0678711E-1,5.136163E-1,1.2608632E0,1.3364278E0,6.230407E-1,1.0617733E0,1.4784832E0,0E0,0E0,0E0,0E0,0E0,0E0,0E0,0E0,0E0,0E0,0E0,0E0,0E0,0E0,0E0,0E0,0E0,0E0,0E0,0E0,0E0,0E0],"parents":[2147483647,0,0,1,1,2,2,4,4,5,5,6,6,7,7,8,8,9,9,10,10,11,11,12,12,13,13,14,14,19,19,20,20,21,21,22,22,23,23,24,24,29,29,30,30,31,31,33,33,34,34,35,35,36,36,37,37,38,38,39,39,40,40],"right_children":[2,4,6,-1,8,10,12,14,16,18,20,22,24,26,28,-1,-1,-1,-1,30,32,34,36,38,40,-1,-1,-1,-1,42,44,46,-1,48,50,52,54,56,58,60,62,-1,-1,-1,-1,-1,-1,-1,-1,-1,-1,-1,-1,-1,-1,-1,-1,-1,-1,-1,-1,-1,-1],"split_conditions":[1.1472324E1,1.0443358E0,4.047593E0,1.18368596E-1,8.107021E0,3.5062714E0,4.75142E0,1.6703033E1,2.617371E2,9.550713E0,3.717149E0,3.610617E1,2.417219E1,-2.8342222E1,2.061629E1,-1.6380662E-1,-1.3964792E-2,2.2035595E-2,-1.2188224E-1,3.6049378E0,7.5324524E2,4.1189877E1,3.998414E0,1.2708977E1,5.2204525E1,-1.4823565E-2,-1.4208007E-1,1.6515663E-1,-8.498583E-2,5.283843E0,1.5868036E1,6.009351E0,-2.0563614E-2,1.53917E1,1.03425026E2,1.8101472E2,8.7219376E1,7.2E-2,7.4603226E1,3.892779E0,7.205561E0,1.5751636E-1,-5.790898E-2,-1.5461352E-1,-3.5590556E-2,1.7588566E-1,9.502832E-3,-8.8103235E-2,1.1763045E-1,-1.6331081E-1,-1.2344714E-2,1.7560957E-1,-1.9635463E-2,1.0595398E-1,-1.2723419E-1,-1.3140021E-1,1.1658882E-1,1.6832837E-1,-3.5446633E-2,8.97734E-2,-1.2938228E-1,-4.549766E-2,1.5831369E-1],"split_indices":[47,74,14,0,12,58,39,116,71,12,38,116,81,66,105,0,0,0,0,13,125,130,13,116,116,0,0,0,0,119,88,44,0,47,2,110,130,10,126,13,68,0,0,0,0,0,0,0,0,0,0,0,0,0,0,0,0,0,0,0,0,0,0],"split_type":[0,0,0,0,0,0,0,0,0,0,0,0,0,0,0,0,0,0,0,0,0,0,0,0,0,0,0,0,0,0,0,0,0,0,0,0,0,0,0,0,0,0,0,0,0,0,0,0,0,0,0,0,0,0,0,0,0,0,0,0,0,0,0],"sum_hessian":[2.8531522E2,8.322034E1,2.020949E2,1.4496331E0,8.1770706E1,8.975117E1,1.1234372E2,9.8995285E0,7.187118E1,3.490512E0,8.626066E1,5.413325E1,5.8210472E1,6.3446236E0,3.554905E0,7.085439E1,1.0167812E0,1.000877E0,2.489635E0,2.0837473E1,6.542318E1,3.60485E1,1.808475E1,2.693466E1,3.1275812E1,1.0098572E0,5.3347664E0,2.5499678E0,1.0049372E0,1.6167252E1,4.6702228E0,6.383388E1,1.5892997E0,6.0830293E0,2.9965473E1,8.272855E0,9.811895E0,5.8530507E0,2.1081608E1,1.4152579E1,1.7123232E1,1.4955553E1,1.2116975E0,3.6691473E0,1.0010754E0,6.259234E1,1.2415438E0,3.4384224E0,2.6446068E0,2.8950527E1,1.0149451E0,7.0672913E0,1.2055639E0,1.8951727E0,7.9167223E0,2.6843596E0,3.1686914E0,1.9974552E1,1.1070567E0,1.6063696E0,1.2546209E1,3.6229525E0,1.3500279E1],"tree_param":{"num_deleted":"0","num_feature":"140","num_nodes":"63","size_leaf_vector":"1"}},{"base_weights":[-1.2930793E-3,-3.6206362E-1,1.5594347E-1,-4.5573044E-1,1.7122474E-1,3.2715473E-1,-1.8470415E-1,-5.3087294E-1,-1.9987361E-1,5.149923E-1,-3.4025145E-1,-6.1008606E-2,4.297621E-1,2.764299E-1,-2.8030255E-1,6.8424246E-3,-1.6336781E-1,-3.7727815E-1,1.4948875E-1,1.7846993E-1,-1.3553429E-2,-1.4201324E-1,4.8727162E-2,-2.920432E-1,3.2388225E-1,4.864276E-1,-9.07026E-2,4.4606727E-1,-1.0190935E-1,-4.1768542E-1,-1.7622564E-2,-4.759513E-1,1.0549162E-1,4.290806E-1,-1.13029696E-1,1.08505294E-1,-4.8794118E-1,4.6448544E-1,-2.2285378E-1,5.043926E-1,-1.3206688E-1,1.5197214E-1,-4.2242214E-1,-4.203097E-2,1.6461208E-1,1.0268707E-1,-4.8062882E-1,2.6308754E-1,-1.4764118E-1,-1.932435E-2,-1.5258375E-1,1.7077972E-1,-1.4968184E-2,-9.020215E-2,1.2620696E-1,-3.0341495E-3,-1.5851136E-1,-4.653232E-2,1.7351072E-1,-8.897462E-2,-1.1589946E-2,1.5884939E-1,-5.749483E-2,-1.6536649E-1,4.073938E-2,-1.03164636E-1,1.1844857E-1,-2.6348284E-2,-1.6236109E-1,-7.081245E-2,1.3399962E-1],"categories":[],"categories_nodes":[],"categories_segments":[],"categories_sizes":[],"default_left":[0,0,0,0,0,0,0,0,0,0,0,0,0,0,0,0,0,0,0,0,0,0,0,0,0,0,0,0,0,0,0,0,0,0,0,0,0,0,0,0,0,0,0,0,0,0,0,0,0,0,0,0,0,0,0,0,0,0,0,0,0,0,0,0,0,0,0,0,0,0,0],"id":16,"left_children":[1,3,5,7,9,11,13,15,17,19,21,23,25,27,29,-1,-1,31,33,-1,-1,-1,-1,35,37,39,41,43,-1,45,47,49,-1,51,-1,53,55,57,59,61,-1,-1,63,-1,-1,65,67,69,-1,-1,-1,-1,-1,-1,-1,-1,-1,-1,-1,-1,-1,-1,-1,-1,-1,-1,-1,-1,-1,-1,-1],"loss_changes":[1.6551052E1,4.501894E0,1.1912283E1,1.347455E0,2.6294832E0,5.4269695E0,3.1021209E0,4.507084E-1,1.2195787E0,4.1834092E-1,4.926362E-1,2.6934724E0,3.210846E0,1.4355302E0,2.0614161E0,0E0,0E0,1.083017E0,1.1970218E0,0E0,0E0,0E0,0E0,1.5272739E0,9.82703E-1,1.836647E0,2.4697523E0,6.8243504E-1,0E0,1.2807808E0,2.8907452E0,1.236639E-1,0E0,3.68348E-1,0E0,1.019294E0,2.4193358E-1,7.5451255E-1,2.9497176E-2,1.7722015E0,0E0,0E0,6.403544E-1,0E0,0E0,7.7253366E-1,7.546878E-1,1.3586001E0,0E0,0E0,0E0,0E0,0E0,0E0,0E0,0E0,0E0,0E0,0E0,0E0,0E0,0E0,0E0,0E0,0E0,0E0,0E0,0E0,0E0,0E0,0E0],"parents":[2147483647,0,0,1,1,2,2,3,3,4,4,5,5,6,6,7,7,8,8,9,9,10,10,11,11,12,12,13,13,14,14,17,17,18,18,23,23,24,24,25,25,26,26,27,27,29,29,30,30,31,31,33,33,35,35,36,36,37,37,38,38,39,39,42,42,45,45,46,46,47,47],"right_children":[2,4,6,8,10,12,14,16,18,20,22,24,26,28,30,-1,-1,32,34,-1,-1,-1,-1,36,38,40,42,44,-1,46,48,50,-1,52,-1,54,56,58,60,62,-1,-1,64,-1,-1,66,68,70,-1,-1,-1,-1,-1,-1,-1,-1,-1,-1,-1,-1,-1,-1,-1,-1,-1,-1,-1,-1,-1,-1,-1],"split_conditions":[4.6276536E0,6.993113E0,5.8843904E0,2.1954193E1,1.4105939E2,4.278489E0,2.5413294E0,7.7914863E0,4.388697E0,8.775313E0,6.185851E0,6.908419E1,3.441972E1,1.5438956E1,7.948475E1,6.8424246E-3,-1.6336781E-1,6.784128E0,1.9168398E1,1.7846993E-1,-1.3553429E-2,-1.4201324E-1,4.8727162E-2,5.287234E1,1.9770441E1,3.5984035E1,2.9207149E0,3.310826E0,-1.0190935E-1,1.15286665E1,1.5958028E1,5.901937E0,1.0549162E-1,2.9109058E0,-1.13029696E-1,4.560761E0,1.557685E0,-1.9706882E1,6.859477E-1,5.605122E0,-1.3206688E-1,1.5197214E-1,2.2265358E1,-4.203097E-2,1.6461208E-1,4.411098E0,3.937424E0,1.6E-2,-1.4764118E-1,-1.932435E-2,-1.5258375E-1,1.7077972E-1,-1.4968184E-2,-9.020215E-2,1.2620696E-1,-3.0341495E-3,-1.5851136E-1,-4.653232E-2,1.7351072E-1,-8.897462E-2,-1.1589946E-2,1.5884939E-1,-5.749483E-2,-1.6536649E-1,4.073938E-2,-1.03164636E-1,1.1844857E-1,-2.6348284E-2,-1.6236109E-1,-7.081245E-2,1.3399962E-1],"split_indices":[59,4,97,90,135,19,28,2,44,68,119,80,67,41,95,0,0,79,2,0,0,0,0,115,12,57,29,13,0,122,92,117,0,89,0,49,92,46,1,39,0,0,101,0,0,14,92,0,0,0,0,0,0,0,0,0,0,0,0,0,0,0,0,0,0,0,0,0,0,0,0],"split_type":[0,0,0,0,0,0,0,0,0,0,0,0,0,0,0,0,0,0,0,0,0,0,0,0,0,0,0,0,0,0,0,0,0,0,0,0,0,0,0,0,0,0,0,0,0,0,0,0,0,0,0,0,0,0,0,0,0,0,0,0,0,0,0,0,0,0,0,0,0,0,0],"sum_hessian":[2.8977493E2,8.7563255E1,2.0221169E2,7.460505E1,1.2958206E1,1.3460042E2,6.761126E1,5.6837563E1,1.7767485E1,7.745508E0,5.2126975E0,2.8226204E1,1.0637422E2,1.1284949E1,5.6326313E1,1.3549981E0,5.5482563E1,1.1730758E1,6.036727E0,6.7243004E0,1.0212082E0,4.1673274E0,1.0453701E0,1.7789255E1,1.0436948E1,9.5988846E1,1.0385374E1,9.065088E0,2.2198606E0,3.6596222E1,1.973009E1,1.063777E1,1.0929877E0,4.0628443E0,1.9738828E0,5.9892583E0,1.1799997E1,8.421615E0,2.0153332E0,9.461031E1,1.3785348E0,3.52012E0,6.865254E0,1.2964008E0,7.7686877E0,3.8808246E0,3.27154E1,1.2676549E1,7.0535393E0,1.000718E0,9.637053E0,2.9971397E0,1.0657047E0,2.607928E0,3.38133E0,1.0180603E0,1.0781938E1,1.251382E0,7.1702323E0,1.0037047E0,1.0116284E0,9.154759E1,3.0627189E0,5.588372E0,1.2768816E0,1.4647267E0,2.4160979E0,4.698377E0,2.8017021E1,3.3318393E0,9.344709E0],"tree_param":{"num_deleted":"0","num_feature":"140","num_nodes":"71","size_leaf_vector":"1"}},{"base_weights":[9.68063E-4,3.8194364E-1,-3.8018548E-1,4.733255E-1,-2.2917464E-1,-4.776418E-1,1.0497742E-1,-1.9178544E-1,5.089465E-1,-4.8119578E-1,2.3814076E-1,2.5784644E-1,-5.003114E-1,2.4001418E-1,-1.368226E-1,1.240452E-1,-1.4399657E-1,5.647196E-1,2.8652323E-2,-1.529019E-1,-2.4645166E-2,4.2259353E-1,-9.898803E-2,1.3721885E-1,-4.1505158E-2,-5.456916E-1,-2.1729659E-1,-2.4461477E-1,5.1363754E-1,5.7971656E-1,-3.2323822E-2,-3.4732774E-1,2.718527E-1,1.5420148E-1,5.9788075E-4,3.5103757E-3,-1.6560905E-1,3.924398E-1,-1.5528178E-1,-1.4224078E-1,9.50711E-2,6.0516167E-1,-8.5690394E-2,1.769746E-1,-5.3160954E-2,2.2000056E-2,-1.3705163E-1,-2.4604259E-2,1.5241018E-1,-9.862255E-2,1.9735016E-1,1.3669412E-2,1.9958703E-1],"categories":[],"categories_nodes":[],"categories_segments":[],"categories_sizes":[],"default_left":[0,0,0,0,0,0,0,0,0,0,0,0,0,0,0,0,0,0,0,0,0,0,0,0,0,0,0,0,0,0,0,0,0,0,0,0,0,0,0,0,0,0,0,0,0,0,0,0,0,0,0,0,0],"id":17,"left_children":[1,3,5,7,9,11,13,15,17,19,21,23,25,27,-1,-1,-1,29,31,-1,-1,33,-1,-1,-1,35,37,39,41,43,-1,45,47,-1,-1,-1,-1,49,-1,-1,-1,51,-1,-1,-1,-1,-1,-1,-1,-1,-1,-1,-1],"loss_changes":[3.9991703E1,7.80023E0,6.559574E0,2.9440384E0,2.3040333E0,2.0434742E0,1.9162984E0,1.3905377E0,3.045887E0,9.913325E-2,8.920347E-1,3.8689503E-1,1.3164062E0,2.7614899E0,0E0,0E0,0E0,1.0947914E0,1.2782191E0,0E0,0E0,2.2428656E-1,0E0,0E0,0E0,3.4431648E-1,3.3345697E0,1.1620092E0,1.1258137E0,8.787079E-1,0E0,2.8798068E-1,7.4557203E-1,0E0,0E0,0E0,0E0,1.4052447E0,0E0,0E0,0E0,3.7376738E-1,0E0,0E0,0E0,0E0,0E0,0E0,0E0,0E0,0E0,0E0,0E0],"parents":[2147483647,0,0,1,1,2,2,3,3,4,4,5,5,6,6,7,7,8,8,9,9,10,10,11,11,12,12,13,13,17,17,18,18,21,21,25,25,26,26,27,27,28,28,29,29,31,31,32,32,37,37,41,41],"right_children":[2,4,6,8,10,12,14,16,18,20,22,24,26,28,-1,-1,-1,30,32,-1,-1,34,-1,-1,-1,36,38,40,42,44,-1,46,48,-1,-1,-1,-1,50,-1,-1,-1,52,-1,-1,-1,-1,-1,-1,-1,-1,-1,-1,-1],"split_conditions":[4.7636213E0,3.0698788E1,3.3379314E0,3.0218554E0,3.7952676E0,2.1750033E0,5.4161507E1,8.189616E0,3.0897625E1,6.4313E1,2.7302807E1,5.6E-2,3.7021854E1,1.5500013E1,-1.368226E-1,1.240452E-1,-1.4399657E-1,4.6865036E1,1.9168398E1,-1.529019E-1,-2.4645166E-2,3.5279393E0,-9.898803E-2,1.3721885E-1,-4.1505158E-2,3.6195712E0,8.366595E0,2.2806969E2,1.4262466E2,1.1515567E1,-3.2323822E-2,7.711073E0,9.784221E0,1.5420148E-1,5.9788075E-4,3.5103757E-3,-1.6560905E-1,2.337888E2,-1.5528178E-1,-1.4224078E-1,9.50711E-2,3.9192717E0,-8.5690394E-2,1.769746E-1,-5.3160954E-2,2.2000056E-2,-1.3705163E-1,-2.4604259E-2,1.5241018E-1,-9.862255E-2,1.9735016E-1,1.3669412E-2,1.9958703E-1],"split_indices":[59,116,99,13,13,23,116,116,90,76,46,10,67,81,0,0,0,73,2,0,0,119,0,0,0,44,27,70,90,22,0,42,83,0,0,0,0,70,0,0,0,13,0,0,0,0,0,0,0,0,0,0,0],"split_type":[0,0,0,0,0,0,0,0,0,0,0,0,0,0,0,0,0,0,0,0,0,0,0,0,0,0,0,0,0,0,0,0,0,0,0,0,0,0,0,0,0,0,0,0,0,0,0,0,0,0,0,0,0],"sum_hessian":[2.7340564E2,1.367337E2,1.3667194E2,1.191434E2,1.7590294E1,1.1382335E2,2.2848581E1,5.8336763E0,1.1330972E2,1.14082E1,6.182094E0,3.0932207E0,1.10730125E2,1.887731E1,3.9712708E0,1.7415228E0,4.0921535E0,1.0136335E2,1.1946377E1,1.0389537E1,1.018664E0,4.860199E0,1.3218954E0,1.954397E0,1.1388236E0,9.462867E1,1.6101461E1,6.8503337E0,1.2026977E1,9.9287025E1,2.0763247E0,4.5241027E0,7.422274E0,3.810064E0,1.0501347E0,1.0544739E0,9.3574196E1,5.212143E0,1.0889318E1,4.973166E0,1.8771677E0,1.1009181E1,1.0177954E0,9.818473E1,1.1022964E0,1.0027243E0,3.5213785E0,3.2322261E0,4.190048E0,1.337884E0,3.874259E0,1.2387053E0,9.770475E0],"tree_param":{"num_deleted":"0","num_feature":"140","num_nodes":"53","size_leaf_vector":"1"}},{"base_weights":[4.2070267E-3,-4.552301E-1,1.8221642E-1,-8.996126E-2,-5.115642E-1,3.8230407E-1,-4.831808E-2,-3.9466485E-1,3.236393E-1,1.9475058E-2,-5.234643E-1,1.3825902E-2,4.7733417E-1,-3.6049217E-1,2.3202612E-1,-1.9564684E-2,-1.3352658E-1,1.5200642E-1,-3.913356E-2,-1.5930241E-1,-1.7070258E-2,3.8109785E-1,-2.1757843E-1,5.8058596E-1,3.4236538E-1,-4.570354E-1,7.5499825E-2,-1.6037646E-1,3.1300926E-1,-3.4463197E-2,1.541021E-1,-3.6773932E-1,1.0109907E-1,3.8071945E-2,1.7687684E-1,-2.0029437E-2,5.075967E-1,-1.9606067E-2,-5.0445503E-1,3.7609056E-1,-1.1933735E-1,1.20448746E-1,-1.4681584E-1,1.6310763E-1,5.146581E-1,8.1781514E-2,-1.4046867E-1,-7.748689E-2,1.3827233E-1,-5.025947E-3,1.6851479E-1,1.1527286E-1,-1.0672931E-1,7.913628E-3,-1.5778401E-1,1.4290035E-1,-6.9469595E-3,1.6004518E-1,-8.510143E-3,1.6132755E-2,1.6454977E-1],"categories":[],"categories_nodes":[],"categories_segments":[],"categories_sizes":[],"default_left":[0,0,0,0,0,0,0,0,0,0,0,0,0,0,0,0,0,0,0,0,0,0,0,0,0,0,0,0,0,0,0,0,0,0,0,0,0,0,0,0,0,0,0,0,0,0,0,0,0,0,0,0,0,0,0,0,0,0,0,0,0],"id":18,"left_children":[1,3,5,7,9,11,13,15,17,-1,19,21,23,25,27,-1,-1,-1,-1,-1,-1,29,31,33,35,37,39,41,43,-1,-1,45,-1,-1,-1,47,49,51,53,55,-1,-1,-1,57,59,-1,-1,-1,-1,-1,-1,-1,-1,-1,-1,-1,-1,-1,-1,-1,-1],"loss_changes":[1.9668737E1,1.3359776E0,8.013202E0,1.4116136E0,4.3169785E-1,3.2464066E0,7.2092433E0,7.590395E-2,4.709671E-1,0E0,1.7009449E-1,1.7891737E0,8.3000755E-1,1.6725116E0,1.4327178E0,0E0,0E0,0E0,0E0,0E0,0E0,5.9316266E-1,1.2025843E0,9.015083E-2,2.0720491E0,6.53914E-1,1.2753761E0,1.6945664E0,1.0163879E0,0E0,0E0,8.14307E-1,0E0,0E0,0E0,1.4649357E0,6.816368E-1,7.0284796E-1,3.4279728E-1,2.2528893E-1,0E0,0E0,0E0,1.5997148E0,2.0535707E-1,0E0,0E0,0E0,0E0,0E0,0E0,0E0,0E0,0E0,0E0,0E0,0E0,0E0,0E0,0E0,0E0],"parents":[2147483647,0,0,1,1,2,2,3,3,4,4,5,5,6,6,7,7,8,8,10,10,11,11,12,12,13,13,14,14,21,21,22,22,23,23,24,24,25,25,26,26,27,27,28,28,31,31,35,35,36,36,37,37,38,38,39,39,43,43,44,44],"right_children":[2,4,6,8,10,12,14,16,18,-1,20,22,24,26,28,-1,-1,-1,-1,-1,-1,30,32,34,36,38,40,42,44,-1,-1,46,-1,-1,-1,48,50,52,54,56,-1,-1,-1,58,60,-1,-1,-1,-1,-1,-1,-1,-1,-1,-1,-1,-1,-1,-1,-1,-1],"split_conditions":[1.1472324E1,8.107021E0,3.9124548E0,1.6703033E1,1.160695E0,3.6122193E0,4.5393558E0,7.351029E0,7.8883414E0,1.9475058E-2,1.295844E2,4.19806E0,5.742694E0,8.627497E0,4.1407394E0,-1.9564684E-2,-1.3352658E-1,1.5200642E-1,-3.913356E-2,-1.5930241E-1,-1.7070258E-2,1.3397556E1,4.8981743E1,3.60542E0,4.3764105E0,1.698397E0,4.472709E0,4.9625993E0,7.629269E1,-3.4463197E-2,1.541021E-1,7.484845E0,1.0109907E-1,3.8071945E-2,1.7687684E-1,7.0580273E0,1.3354224E1,1.7392336E0,1.2151754E1,2.7524422E1,-1.1933735E-1,1.20448746E-1,-1.4681584E-1,1.3290095E1,4.4206165E1,8.1781514E-2,-1.4046867E-1,-7.748689E-2,1.3827233E-1,-5.025947E-3,1.6851479E-1,1.1527286E-1,-1.0672931E-1,7.913628E-3,-1.5778401E-1,1.4290035E-1,-6.9469595E-3,1.6004518E-1,-8.510143E-3,1.6132755E-2,1.6454977E-1],"split_indices":[47,12,13,116,74,38,38,133,42,0,76,9,54,97,97,0,0,0,0,0,0,138,116,58,39,84,14,43,132,0,0,37,0,0,0,92,47,119,80,81,0,0,0,12,120,0,0,0,0,0,0,0,0,0,0,0,0,0,0,0,0],"split_type":[0,0,0,0,0,0,0,0,0,0,0,0,0,0,0,0,0,0,0,0,0,0,0,0,0,0,0,0,0,0,0,0,0,0,0,0,0,0,0,0,0,0,0,0,0,0,0,0,0,0,0,0,0,0,0,0,0,0,0,0,0],"sum_hessian":[2.3848154E2,6.6161995E1,1.7231955E2,9.187491E0,5.6974503E1,9.189919E1,8.042035E1,5.3165326E0,3.870959E0,1.0622135E0,5.5912292E1,1.9076345E1,7.2822845E1,3.791483E1,4.250552E1,1.0101242E0,4.3064084E0,2.6762676E0,1.1946914E0,5.4886723E1,1.0255693E0,7.1234746E0,1.195287E1,3.9388676E1,3.343417E1,3.1001741E1,6.9130893E0,7.1038003E0,3.540172E1,1.5306613E0,5.592813E0,9.67114E0,2.28173E0,1.060222E0,3.8328457E1,1.0745437E1,2.2688734E1,3.1703002E0,2.7831442E1,4.353512E0,2.5595775E0,2.5421243E0,4.561676E0,2.1343939E1,1.4057781E1,1.0795038E0,8.591637E0,7.495199E0,3.250237E0,2.1872652E0,2.0501469E1,1.3751733E0,1.7951269E0,1.0741074E0,2.6757334E1,3.3254647E0,1.0280471E0,6.6651406E0,1.4678798E1,1.1387137E0,1.2919067E1],"tree_param":{"num_deleted":"0","num_feature":"140","num_nodes":"61","size_leaf_vector":"1"}},{"base_weights":[-7.453118E-4,-2.982814E-1,1.6184616E-1,-4.2458227E-1,5.9238262E-3,2.979053E-1,-2.0790973E-1,-4.8277906E-1,-1.3799173E-1,2.6259336E-1,-2.3072846E-1,-2.7007174E-1,3.5026658E-1,1.51154045E-2,-3.8291094E-1,3.154366E-2,-4.984814E-1,2.4440438E-1,-4.2887557E-1,-2.4743201E-1,4.0581766E-1,-4.3736795E-1,3.9463952E-2,-1.4090045E-1,1.8391028E-1,4.0734085E-1,-1.1000024E-1,-1.6495183E-1,3.9735284E-1,-1.0777605E-1,-4.866844E-1,2.3223588E-2,-5.1331264E-1,1.3691692E-1,-9.010263E-2,-1.3865048E-1,-3.446739E-2,-4.969677E-3,-1.0028503E-1,1.6022263E-1,-3.7396137E-2,-2.1705696E-2,-1.4357938E-1,3.3491832E-1,-1.1619878E-1,-4.9506795E-2,1.2874858E-1,4.6036482E-1,-6.583887E-2,-3.8948014E-1,2.9923636E-1,-1.4742605E-1,6.050059E-2,1.6263428E-1,3.1524452E-3,-1.2697446E-1,2.0096697E-1,1.2915206E-2,-5.24259E-1,-1.5654412E-1,-2.3919508E-2,7.729842E-2,-9.2304595E-2,-4.1101877E-2,1.5437962E-1,1.494009E-1,-1.927201E-2,-1.16890736E-1,9.0523064E-2,-1.433621E-1,2.618611E-2,-5.1338077E-2,1.4410341E-1,-1.17606305E-1,7.206555E-2,1.3632688E-1,-9.055023E-2,-4.5063473E-2,-1.6209838E-1],"categories":[],"categories_nodes":[],"categories_segments":[],"categories_sizes":[],"default_left":[0,0,0,0,0,0,0,0,0,0,0,0,0,0,0,0,0,0,0,0,0,0,0,0,0,0,0,0,0,0,0,0,0,0,0,0,0,0,0,0,0,0,0,0,0,0,0,0,0,0,0,0,0,0,0,0,0,0,0,0,0,0,0,0,0,0,0,0,0,0,0,0,0,0,0,0,0,0,0],"id":19,"left_children":[1,3,5,7,9,11,13,15,17,19,21,23,25,27,29,-1,31,33,35,37,39,41,43,-1,45,47,49,51,53,55,57,-1,59,-1,-1,-1,-1,-1,-1,-1,61,-1,-1,63,-1,-1,-1,65,67,69,71,-1,73,-1,-1,-1,75,-1,77,-1,-1,-1,-1,-1,-1,-1,-1,-1,-1,-1,-1,-1,-1,-1,-1,-1,-1,-1,-1],"loss_changes":[1.1820053E1,3.319704E0,8.010607E0,9.511347E-1,1.659035E0,3.5417337E0,1.68753E0,5.169697E-1,1.4062493E0,1.0567282E0,8.114202E-1,1.0240649E0,2.8441E0,1.4357111E0,6.379802E-1,0E0,4.598484E-1,7.9436207E-1,2.015984E-2,6.447172E-2,6.225387E-1,8.79159E-2,1.0226653E0,0E0,4.0276048E-1,2.4142866E0,1.5511811E0,1.0777516E0,3.6772287E-1,8.552222E-1,3.6641264E-1,0E0,1.3562393E-1,0E0,0E0,0E0,0E0,0E0,0E0,0E0,3.4353507E-1,0E0,0E0,4.708072E-1,0E0,0E0,0E0,1.7215443E0,1.361292E0,3.741293E-1,5.639831E-1,0E0,8.515476E-1,0E0,0E0,0E0,7.3284173E-1,0E0,1.6245365E-2,0E0,0E0,0E0,0E0,0E0,0E0,0E0,0E0,0E0,0E0,0E0,0E0,0E0,0E0,0E0,0E0,0E0,0E0,0E0,0E0],"parents":[2147483647,0,0,1,1,2,2,3,3,4,4,5,5,6,6,7,7,8,8,9,9,10,10,11,11,12,12,13,13,14,14,16,16,17,17,18,18,19,19,20,20,21,21,22,22,24,24,25,25,26,26,27,27,28,28,29,29,30,30,32,32,40,40,43,43,47,47,48,48,49,49,50,50,52,52,56,56,58,58],"right_children":[2,4,6,8,10,12,14,16,18,20,22,24,26,28,30,-1,32,34,36,38,40,42,44,-1,46,48,50,52,54,56,58,-1,60,-1,-1,-1,-1,-1,-1,-1,62,-1,-1,64,-1,-1,-1,66,68,70,72,-1,74,-1,-1,-1,76,-1,78,-1,-1,-1,-1,-1,-1,-1,-1,-1,-1,-1,-1,-1,-1,-1,-1,-1,-1,-1,-1],"split_conditions":[4.643676E0,3.0897625E1,4.024529E0,4.461081E0,4.622714E0,4.1013064E0,1.0129334E1,4.533022E0,2.5267377E0,4.3194237E0,5.3570232E0,6.828172E0,3.441972E1,1.5100755E1,5.246267E0,3.154366E-2,7.7914863E0,5.230309E0,6.2998443E0,3.5681353E0,2.0960379E1,3.5701222E0,8.216861E0,-1.4090045E-1,-1.1115815E1,8.790076E0,5.5597873E0,-6.076732E0,9.331751E0,4.9973307E0,6.1969123E0,2.3223588E-2,1.6406195E1,1.3691692E-1,-9.010263E-2,-1.3865048E-1,-3.446739E-2,-4.969677E-3,-1.0028503E-1,1.6022263E-1,2.7713714E0,-2.1705696E-2,-1.4357938E-1,2.526373E0,-1.1619878E-1,-4.9506795E-2,1.2874858E-1,4.2840965E1,5.1501646E0,6.4E-2,4.252933E0,-1.4742605E-1,2.4E-2,1.6263428E-1,3.1524452E-3,-1.2697446E-1,4.2479515E0,1.2915206E-2,1.0648569E1,-1.5654412E-1,-2.3919508E-2,7.729842E-2,-9.2304595E-2,-4.1101877E-2,1.5437962E-1,1.494009E-1,-1.927201E-2,-1.16890736E-1,9.0523064E-2,-1.433621E-1,2.618611E-2,-5.1338077E-2,1.4410341E-1,-1.17606305E-1,7.206555E-2,1.3632688E-1,-9.055023E-2,-4.5063473E-2,-1.6209838E-1],"split_indices":[9,90,34,19,97,59,103,75,28,49,59,4,67,88,134,0,2,4,54,19,16,39,97,0,16,92,49,16,102,14,107,0,103,0,0,0,0,0,0,0,29,0,0,23,0,0,0,66,44,65,13,0,35,0,0,0,29,0,108,0,0,0,0,0,0,0,0,0,0,0,0,0,0,0,0,0,0,0,0],"split_type":[0,0,0,0,0,0,0,0,0,0,0,0,0,0,0,0,0,0,0,0,0,0,0,0,0,0,0,0,0,0,0,0,0,0,0,0,0,0,0,0,0,0,0,0,0,0,0,0,0,0,0,0,0,0,0,0,0,0,0,0,0,0,0,0,0,0,0,0,0,0,0,0,0,0,0,0,0,0,0],"sum_hessian":[2.4233504E2,8.5337036E1,1.56998E2,6.0021435E1,2.53156E1,1.1490917E2,4.2088825E1,4.9321384E1,1.0700053E1,1.2091606E1,1.3223992E1,9.348253E0,1.0556092E2,1.8906992E1,2.3181835E1,1.1348376E0,4.8186546E1,4.691885E0,6.008168E0,2.49155E0,9.600056E0,7.1426573E0,6.081335E0,6.4693885E0,2.8788645E0,9.4017494E1,1.15434265E1,1.3238812E1,5.66818E0,6.907236E0,1.6274597E1,1.1038709E0,4.7082676E1,3.4942954E0,1.1975895E0,5.005476E0,1.0026919E0,1.0065901E0,1.4849597E0,7.2864795E0,2.3135765E0,1.0045002E0,6.1381574E0,3.720812E0,2.3605232E0,1.3232844E0,1.55558E0,8.4567986E1,9.44951E0,6.8878107E0,4.655616E0,4.925987E0,8.312825E0,3.832604E0,1.8355762E0,3.232949E0,3.674287E0,1.0682606E0,1.5206337E1,4.5977707E1,1.1049665E0,1.1284318E0,1.1851447E0,1.0915065E0,2.6293056E0,7.895408E1,5.613907E0,4.992079E0,4.457431E0,5.8085704E0,1.0792404E0,1.3095769E0,3.3460388E0,2.0271754E0,6.28565E0,2.5068378E0,1.1674494E0,1.0525829E0,1.4153754E1],"tree_param":{"num_deleted":"0","num_feature":"140","num_nodes":"79","size_leaf_vector":"1"}},{"base_weights":[-3.678919E-3,4.1552374E-1,-3.0290148E-1,4.8876095E-1,4.2334017E-3,-3.9897293E-1,1.6004775E-1,-1.1382551E-1,5.2188396E-1,-3.1523553E-1,4.7480458E-1,4.4190895E-2,-4.7163135E-1,3.138574E-1,-3.049462E-1,1.09748825E-1,-1.2604098E-1,5.464241E-1,-5.370368E-2,1.0201179E-1,-4.4960886E-1,1.5528286E-1,3.584797E-2,-2.1894544E-1,1.6327561E-1,1.8112291E-1,-4.880028E-1,-1.10793754E-1,5.0927544E-1,-1.3478562E-1,6.309275E-2,5.586917E-1,-1.4529671E-2,9.004488E-2,-8.2881525E-2,-2.7048554E-2,-1.4583124E-1,9.824549E-2,-3.7281436E-1,-2.9707236E-2,1.11238964E-1,-5.103669E-1,-3.376246E-2,-1.08853616E-1,2.4519423E-1,5.785444E-1,-3.8136955E-2,1.4747184E-2,1.6963434E-1,-1.3724868E-1,4.6911173E-2,-1.588169E-1,6.119398E-3,1.7576575E-1,-1.22347474E-1,-1.924773E-3,1.1340848E-1,3.3723757E-2,1.8871456E-1],"categories":[],"categories_nodes":[],"categories_segments":[],"categories_sizes":[],"default_left":[0,0,0,0,0,0,0,0,0,0,0,0,0,0,0,0,0,0,0,0,0,0,0,0,0,0,0,0,0,0,0,0,0,0,0,0,0,0,0,0,0,0,0,0,0,0,0,0,0,0,0,0,0,0,0,0,0,0,0],"id":20,"left_children":[1,3,5,7,9,11,13,15,17,19,21,23,25,27,29,-1,-1,31,33,-1,35,-1,-1,37,-1,39,41,43,45,-1,-1,47,-1,-1,-1,-1,-1,-1,49,-1,-1,51,53,-1,55,57,-1,-1,-1,-1,-1,-1,-1,-1,-1,-1,-1,-1,-1],"loss_changes":[2.82937E1,2.8279E0,5.91739E0,1.6510029E0,2.436178E0,3.539568E0,1.764416E0,8.847597E-1,1.0995312E0,1.0034857E0,3.775823E-2,2.2649393E0,1.0926151E0,1.5522435E0,5.635171E-1,0E0,0E0,5.5799866E-1,3.9863253E-1,0E0,6.698084E-2,0E0,0E0,1.080414E0,0E0,1.9764194E-1,9.167862E-1,6.723823E-1,6.256025E-1,0E0,0E0,2.1788406E-1,0E0,0E0,0E0,0E0,0E0,0E0,4.9103463E-1,0E0,0E0,8.948364E-1,1.4871472E0,0E0,1.1245409E-1,1.9940448E-1,0E0,0E0,0E0,0E0,0E0,0E0,0E0,0E0,0E0,0E0,0E0,0E0,0E0],"parents":[2147483647,0,0,1,1,2,2,3,3,4,4,5,5,6,6,7,7,8,8,9,9,10,10,11,11,12,12,13,13,14,14,17,17,18,18,20,20,23,23,25,25,26,26,27,27,28,28,31,31,38,38,41,41,42,42,44,44,45,45],"right_children":[2,4,6,8,10,12,14,16,18,20,22,24,26,28,30,-1,-1,32,34,-1,36,-1,-1,38,-1,40,42,44,46,-1,-1,48,-1,-1,-1,-1,-1,-1,50,-1,-1,52,54,-1,56,58,-1,-1,-1,-1,-1,-1,-1,-1,-1,-1,-1,-1,-1],"split_conditions":[4.1036673E0,7.07848E0,3.3379314E0,3.0218554E0,4.2902884E0,3.9123087E0,1.1747754E1,8.189616E0,5.822007E1,-2.2041307E1,1.2009501E1,5.428562E0,1.2266216E0,1.5232218E1,1.2E-1,1.09748825E-1,-1.2604098E-1,3.6648403E1,6.3390136E0,1.0201179E-1,6.3390136E0,1.5528286E-1,3.584797E-2,4.3559575E0,1.6327561E-1,4.5690484E0,4.021788E0,2.6391003E1,5.2204525E1,-1.3478562E-1,6.309275E-2,-4.2597584E1,-1.4529671E-2,9.004488E-2,-8.2881525E-2,-2.7048554E-2,-1.4583124E-1,9.824549E-2,3.2811527E1,-2.9707236E-2,1.11238964E-1,2.6080639E1,1.3365283E1,-1.08853616E-1,2.9816448E1,4.244623E0,-3.8136955E-2,1.4747184E-2,1.6963434E-1,-1.3724868E-1,4.6911173E-2,-1.588169E-1,6.119398E-3,1.7576575E-1,-1.22347474E-1,-1.924773E-3,1.1340848E-1,3.3723757E-2,1.8871456E-1],"split_indices":[58,69,99,13,13,48,91,116,100,31,4,58,129,81,25,0,0,116,116,0,116,0,0,59,0,19,94,2,116,0,0,41,0,0,0,0,0,0,137,0,0,83,100,0,52,14,0,0,0,0,0,0,0,0,0,0,0,0,0],"split_type":[0,0,0,0,0,0,0,0,0,0,0,0,0,0,0,0,0,0,0,0,0,0,0,0,0,0,0,0,0,0,0,0,0,0,0,0,0,0,0,0,0,0,0,0,0,0,0,0,0,0,0,0,0,0,0,0,0,0,0],"sum_hessian":[2.2356143E2,9.295097E1,1.3061046E2,7.874138E1,1.4209598E1,1.0827862E2,2.2331842E1,3.9757931E0,7.476558E1,8.660273E0,5.549325E0,1.5307253E1,9.297137E1,1.7025286E1,5.306556E0,1.4737419E0,2.502051E0,7.17569E1,3.0086846E0,1.213254E0,7.4470186E0,4.5450044E0,1.0043207E0,1.0397936E1,4.909317E0,2.0285044E0,9.094286E1,5.502083E0,1.1523203E1,4.245338E0,1.0612186E0,7.036655E1,1.3903521E0,1.0271229E0,1.9815618E0,1.0063031E0,6.440716E0,2.0367048E0,8.361231E0,1.0118825E0,1.016622E0,8.655772E1,4.3851495E0,3.210018E0,2.292065E0,1.047406E1,1.0491431E0,1.029114E0,6.933743E1,7.324604E0,1.0366266E0,8.35653E1,2.9924152E0,1.4375376E0,2.947612E0,1.120793E0,1.1712719E0,1.3392404E0,9.13482E0],"tree_param":{"num_deleted":"0","num_feature":"140","num_nodes":"59","size_leaf_vector":"1"}},{"base_weights":[7.3563256E-3,-3.686805E-1,2.0089866E-1,-9.407625E-2,-4.733971E-1,3.5854495E-1,-6.798341E-2,-3.9660424E-1,1.5915446E-1,-4.9103567E-1,3.1363916E-2,6.299587E-2,4.667069E-1,-3.4607792E-1,3.043366E-1,2.7245523E-2,-1.4163278E-1,3.956231E-1,-3.1458047E-1,-5.099581E-1,9.708967E-3,3.8033685E-1,-2.7620947E-1,5.256773E-1,2.2456284E-1,-4.1003883E-1,9.3122005E-2,-1.12160034E-1,3.8848197E-1,1.5098079E-1,-2.3232415E-2,-1.0393824E-2,-1.1662789E-1,2.6413456E-3,-1.5655956E-1,-1.10673755E-1,4.9082834E-1,-4.2564073E-1,8.3192796E-2,-1.3214001E-2,5.512933E-1,4.709073E-1,-1.20584734E-1,4.702854E-2,-4.55171E-1,4.4173285E-1,-9.051336E-2,3.8423065E-2,-8.719113E-2,1.5648623E-1,3.0308105E-2,-1.4961638E-1,3.2146048E-2,8.839092E-2,-9.294906E-2,1.33444695E-2,1.6933963E-1,2.939431E-2,1.5827532E-1,-1.0590464E-1,1.0992495E-1,-1.4971526E-1,1.0214545E-2,1.4823577E-1,-1.7712003E-2],"categories":[],"categories_nodes":[],"categories_segments":[],"categories_sizes":[],"default_left":[0,0,0,0,0,0,0,0,0,0,0,0,0,0,0,0,0,0,0,0,0,0,0,0,0,0,0,0,0,0,0,0,0,0,0,0,0,0,0,0,0,0,0,0,0,0,0,0,0,0,0,0,0,0,0,0,0,0,0,0,0,0,0,0,0],"id":21,"left_children":[1,3,5,7,9,11,13,15,17,19,-1,21,23,25,27,-1,-1,29,31,33,-1,35,37,39,41,43,-1,-1,45,-1,-1,-1,-1,-1,-1,47,49,51,-1,53,55,57,59,-1,61,63,-1,-1,-1,-1,-1,-1,-1,-1,-1,-1,-1,-1,-1,-1,-1,-1,-1,-1,-1],"loss_changes":[1.4598158E1,1.9155741E0,5.6365705E0,1.6003423E0,5.518522E-1,2.643815E0,5.25914E0,3.899008E-1,1.4280071E0,4.9011326E-1,0E0,2.6411893E0,7.538967E-1,1.3433511E0,1.390147E0,0E0,0E0,4.5679724E-1,7.85526E-2,2.9004002E-1,0E0,7.375363E-1,1.1078792E0,6.7484283E-1,1.2220074E0,7.574625E-1,0E0,0E0,8.6456466E-1,0E0,0E0,0E0,0E0,0E0,0E0,1.7167807E-1,7.290006E-2,4.357121E-1,0E0,3.808423E-1,2.8323078E-1,1.2163961E-1,8.655375E-1,0E0,5.5579185E-1,5.2440715E-1,0E0,0E0,0E0,0E0,0E0,0E0,0E0,0E0,0E0,0E0,0E0,0E0,0E0,0E0,0E0,0E0,0E0,0E0,0E0],"parents":[2147483647,0,0,1,1,2,2,3,3,4,4,5,5,6,6,7,7,8,8,9,9,11,11,12,12,13,13,14,14,17,17,18,18,19,19,21,21,22,22,23,23,24,24,25,25,28,28,35,35,36,36,37,37,39,39,40,40,41,41,42,42,44,44,45,45],"right_children":[2,4,6,8,10,12,14,16,18,20,-1,22,24,26,28,-1,-1,30,32,34,-1,36,38,40,42,44,-1,-1,46,-1,-1,-1,-1,-1,-1,48,50,52,-1,54,56,58,60,-1,62,64,-1,-1,-1,-1,-1,-1,-1,-1,-1,-1,-1,-1,-1,-1,-1,-1,-1,-1,-1],"split_conditions":[1.2805264E1,9.0883E0,4.1037555E0,9.444884E0,1.7242989E1,3.746185E0,6.2363296E0,-2.1721258E1,3.0488897E1,4.5794968E1,3.1363916E-2,1.14220085E1,7.9716255E1,3.031098E1,3.1409764E0,2.7245523E-2,-1.4163278E-1,3.7281678E0,8.904401E0,1.7818784E0,9.708967E-3,3.704234E0,4.8981743E1,3.826897E0,2.0413797E0,-7.466171E1,9.3122005E-2,-1.12160034E-1,2.0747066E1,1.5098079E-1,-2.3232415E-2,-1.0393824E-2,-1.1662789E-1,2.6413456E-3,-1.5655956E-1,4.790688E0,4.5407267E0,4.0190056E1,8.3192796E-2,3.2431269E0,5.344767E0,1.4765027E1,4.0991287E1,4.702854E-2,2.9511133E1,1.5454956E3,-9.051336E-2,3.8423065E-2,-8.719113E-2,1.5648623E-1,3.0308105E-2,-1.4961638E-1,3.2146048E-2,8.839092E-2,-9.294906E-2,1.33444695E-2,1.6933963E-1,2.939431E-2,1.5827532E-1,-1.0590464E-1,1.0992495E-1,-1.4971526E-1,1.0214545E-2,1.4823577E-1,-1.7712003E-2],"split_indices":[47,12,13,47,37,38,48,51,110,116,0,12,100,102,28,0,0,13,78,98,0,58,116,58,84,11,0,0,99,0,0,0,0,0,0,4,79,2,0,13,136,138,137,0,87,125,0,0,0,0,0,0,0,0,0,0,0,0,0,0,0,0,0,0,0],"split_type":[0,0,0,0,0,0,0,0,0,0,0,0,0,0,0,0,0,0,0,0,0,0,0,0,0,0,0,0,0,0,0,0,0,0,0,0,0,0,0,0,0,0,0,0,0,0,0,0,0,0,0,0,0,0,0,0,0,0,0,0,0,0,0,0,0],"sum_hessian":[1.9856416E2,6.716438E1,1.3139978E2,1.9065702E1,4.809868E1,8.262378E1,4.877601E1,8.429284E0,1.0636419E1,4.6820126E1,1.2785538E0,2.2560463E1,6.0063316E1,2.796144E1,2.081457E1,1.1034093E0,7.325875E0,7.204913E0,3.431506E0,4.5211285E1,1.6088417E0,1.1593238E1,1.0967224E1,4.7358868E1,1.2704447E1,2.5821106E1,2.140333E0,1.9174005E0,1.889717E1,5.817327E0,1.3875859E0,1.0261438E0,2.4053621E0,1.0202932E0,4.419099E1,2.129289E0,9.463949E0,8.817757E0,2.1494672E0,2.1710026E0,4.5187866E1,7.2006874E0,5.5037594E0,1.7219743E0,2.4099133E1,1.7877817E1,1.0193514E0,1.0390873E0,1.0902017E0,8.457664E0,1.0062853E0,7.8103986E0,1.0073582E0,1.0686021E0,1.1024004E0,1.2555599E0,4.3932304E1,1.3099809E0,5.8907065E0,3.9118686E0,1.5918906E0,2.209707E1,2.0020618E0,1.6196747E1,1.6810708E0],"tree_param":{"num_deleted":"0","num_feature":"140","num_nodes":"65","size_leaf_vector":"1"}},{"base_weights":[-3.2667874E-3,-2.1196353E-1,1.9264707E-1,-5.012379E-1,-8.21652E-2,3.5456106E-1,-2.2183304E-1,-1.5677367E-1,-1.6867908E-2,-1.4655127E-1,-7.727689E-4,-8.532307E-2,4.1821402E-1,-1.8267103E-2,-1.5105408E-1,2.2334258E-1,