{"learner":{"attributes":{"scikit_learn":"{\"_estimator_type\": \"classifier\"}"},"feature_names":["zero_crossing_rate_c1","mean_c1","std_c1","first_order_diff_c1","second_order_diff_c1","zero_crossing_rate_c2","mean_c2","std_c2","first_order_diff_c2","second_order_diff_c2","zero_crossing_rate_c3","mean_c3","std_c3","first_order_diff_c3","second_order_diff_c3","zero_crossing_rate_c4","mean_c4","std_c4","first_order_diff_c4","second_order_diff_c4","zero_crossing_rate_c5","mean_c5","std_c5","first_order_diff_c5","second_order_diff_c5","zero_crossing_rate_c6","mean_c6","std_c6","first_order_diff_c6","second_order_diff_c6","zero_crossing_rate_c7","mean_c7","std_c7","first_order_diff_c7","second_order_diff_c7","zero_crossing_rate_c8","mean_c8","std_c8","first_order_diff_c8","second_order_diff_c8","zero_crossing_rate_c9","mean_c9","std_c9","first_order_diff_c9","second_order_diff_c9","zero_crossing_rate_c10","mean_c10","std_c10","first_order_diff_c10","second_order_diff_c10","zero_crossing_rate_c11","mean_c11","std_c11","first_order_diff_c11","second_order_diff_c11","zero_crossing_rate_c12","mean_c12","std_c12","first_order_diff_c12","second_order_diff_c12","zero_crossing_rate_c13","mean_c13","std_c13","first_order_diff_c13","second_order_diff_c13","zero_crossing_rate_c14","mean_c14","std_c14","first_order_diff_c14","second_order_diff_c14","delta_c1","theta_c1","alpha_c1","beta_c1","gamma_c1","delta_c2","theta_c2","alpha_c2","beta_c2","gamma_c2","delta_c3","theta_c3","alpha_c3","beta_c3","gamma_c3","delta_c4","theta_c4","alpha_c4","beta_c4","gamma_c4","delta_c5","theta_c5","alpha_c5","beta_c5","gamma_c5","delta_c6","theta_c6","alpha_c6","beta_c6","gamma_c6","delta_c7","theta_c7","alpha_c7","beta_c7","gamma_c7","delta_c8","theta_c8","alpha_c8","beta_c8","gamma_c8","delta_c9","theta_c9","alpha_c9","beta_c9","gamma_c9","delta_c10","theta_c10","alpha_c10","beta_c10","gamma_c10","delta_c11","theta_c11","alpha_c11","beta_c11","gamma_c11","delta_c12","theta_c12","alpha_c12","beta_c12","gamma_c12","delta_c13","theta_c13","alpha_c13","beta_c13","gamma_c13","delta_c14","theta_c14","alpha_c14","beta_c14","gamma_c14"],"feature_types":["float","float","float","float","float","float","float","float","float","float","float","float","float","float","float","float","float","float","float","float","float","float","float","float","float","float","float","float","float","float","float","float","float","float","float","float","float","float","float","float","float","float","float","float","float","float","float","float","float","float","float","float","float","float","float","float","float","float","float","float","float","float","float","float","float","float","float","float","float","float","float","float","float","float","float","float","float","float","float","float","float","float","float","float","float","float","float","float","float","float","float","float","float","float","float","float","float","float","float","float","float","float","float","float","float","float","float","float","float","float","float","float","float","float","float","float","float","float","float","float","float","float","float","float","float","float","float","float","float","float","float","float","float","float","float","float","float","float","float","float"],"gradient_booster":{"model":{"gbtree_model_param":{"num_parallel_tree":"1","num_trees":"400"},"iteration_indptr":[0,4,8,12,16,20,24,28,32,36,40,44,48,52,56,60,64,68,72,76,80,84,88,92,96,100,104,108,112,116,120,124,128,132,136,140,144,148,152,156,160,164,168,172,176,180,184,188,192,196,200,204,208,212,216,220,224,228,232,236,240,244,248,252,256,260,264,268,272,276,280,284,288,292,296,300,304,308,312,316,320,324,328,332,336,340,344,348,352,356,360,364,368,372,376,380,384,388,392,396,400],"tree_info":[0,1,2,3,0,1,2,3,0,1,2,3,0,1,2,3,0,1,2,3,0,1,2,3,0,1,2,3,0,1,2,3,0,1,2,3,0,1,2,3,0,1,2,3,0,1,2,3,0,1,2,3,0,1,2,3,0,1,2,3,0,1,2,3,0,1,2,3,0,1,2,3,0,1,2,3,0,1,2,3,0,1,2,3,0,1,2,3,0,1,2,3,0,1,2,3,0,1,2,3,0,1,2,3,0,1,2,3,0,1,2,3,0,1,2,3,0,1,2,3,0,1,2,3,0,1,2,3,0,1,2,3,0,1,2,3,0,1,2,3,0,1,2,3,0,1,2,3,0,1,2,3,0,1,2,3,0,1,2,3,0,1,2,3,0,1,2,3,0,1,2,3,0,1,2,3,0,1,2,3,0,1,2,3,0,1,2,3,0,1,2,3,0,1,2,3,0,1,2,3,0,1,2,3,0,1,2,3,0,1,2,3,0,1,2,3,0,1,2,3,0,1,2,3,0,1,2,3,0,1,2,3,0,1,2,3,0,1,2,3,0,1,2,3,0,1,2,3,0,1,2,3,0,1,2,3,0,1,2,3,0,1,2,3,0,1,2,3,0,1,2,3,0,1,2,3,0,1,2,3,0,1,2,3,0,1,2,3,0,1,2,3,0,1,2,3,0,1,2,3,0,1,2,3,0,1,2,3,0,1,2,3,0,1,2,3,0,1,2,3,0,1,2,3,0,1,2,3,0,1,2,3,0,1,2,3,0,1,2,3,0,1,2,3,0,1,2,3,0,1,2,3,0,1,2,3,0,1,2,3,0,1,2,3,0,1,2,3,0,1,2,3,0,1,2,3,0,1,2,3,0,1,2,3,0,1,2,3,0,1,2,3,0,1,2,3,0,1,2,3],"trees":[{"base_weights":[-0E0,-3.472454E-1,6.819672E-1,-6.110749E-1,1.2197929E-1,9.045323E-1,-5.5497384E-1,-6.564417E-1,-3.4309623E-1,1.4309623E0,-3.6990595E-1,-5.546219E-1,1.0842333E0,1.5384616E-1,-1.9075145E-1,-1.5384616E-1,-1.9875585E-1,-1.9041917E-1,3E-1,4.8780486E-2,1.6504854E0,-5.546219E-1,1.6470589E-1,3.529412E-2,-1.8545455E-1,1.6880223E0,6.921739E-1,1.7647061E-1,-1.0588236E-1,3.529412E-2,-1.0588236E-1,1.0243902E0,-3.8297874E-1,-1.5E-1,3.176471E-1,4E-1,1.8212291E0,3.773585E-2,-6.171694E-1,1.04E0,-1.875E-1,-2.0689656E-1,1.810651E0,-8.82353E-2,1.3569132E0,4.5000002E-1,-1.0588236E-1,3.529412E-2,-1.5789475E-1,3.6E-1,-1.3043478E-1,5.701864E-1,2.3076925E-1,2.8695655E-1,-1.5789475E-1,-1.9591837E-1,-6.3829795E-2,-1.0588236E-1,4.2439026E-1,2.2105263E-1,-1.5918368E-1,-1.20000005E-1,3.529412E-2,5.56231E-1,3.529412E-2,-1.1489362E-1,1.5652174E-1,-0E0,4.8136884E-1],"categories":[],"categories_nodes":[],"categories_segments":[],"categories_sizes":[],"default_left":[0,0,0,0,0,0,0,0,0,0,0,0,0,0,0,0,0,0,0,0,0,0,0,0,0,0,0,0,0,0,0,0,0,0,0,0,0,0,0,0,0,0,0,0,0,0,0,0,0,0,0,0,0,0,0,0,0,0,0,0,0,0,0,0,0,0,0,0,0],"id":0,"left_children":[1,3,5,7,9,11,13,15,17,19,21,23,25,27,-1,29,-1,-1,31,33,35,37,39,-1,-1,41,43,-1,-1,-1,-1,45,47,-1,-1,49,51,53,55,57,59,61,63,65,67,-1,-1,-1,-1,-1,-1,-1,-1,-1,-1,-1,-1,-1,-1,-1,-1,-1,-1,-1,-1,-1,-1,-1,-1],"loss_changes":[1.0703812E2,3.715124E1,4.248522E1,2.1074677E0,7.046964E1,3.45905E1,1.4662952E0,3.959732E-1,5.793443E0,8.98418E0,7.9667664E0,7.083273E-1,2.623207E1,9.230769E-1,0E0,2.1719459E-1,0E0,0E0,5.339751E0,3.3701577E0,4.7694473E0,2.2277946E0,6.74603E0,0E0,0E0,1.0802261E1,3.7406227E1,0E0,0E0,0E0,0E0,3.8866568E0,4.834991E-1,0E0,0E0,3.4434783E0,4.0676117E-1,3.9367902E0,6.43034E-1,3.7608032E0,5.465427E0,2.7423936E-1,2.8900146E0,6.312537E0,1.3063515E1,0E0,0E0,0E0,0E0,0E0,0E0,0E0,0E0,0E0,0E0,0E0,0E0,0E0,0E0,0E0,0E0,0E0,0E0,0E0,0E0,0E0,0E0,0E0,0E0],"parents":[2147483647,0,0,1,1,2,2,3,3,4,4,5,5,6,6,7,7,8,8,9,9,10,10,11,11,12,12,13,13,15,15,18,18,19,19,20,20,21,21,22,22,25,25,26,26,31,31,32,32,35,35,36,36,37,37,38,38,39,39,40,40,41,41,42,42,43,43,44,44],"right_children":[2,4,6,8,10,12,14,16,18,20,22,24,26,28,-1,30,-1,-1,32,34,36,38,40,-1,-1,42,44,-1,-1,-1,-1,46,48,-1,-1,50,52,54,56,58,60,62,64,66,68,-1,-1,-1,-1,-1,-1,-1,-1,-1,-1,-1,-1,-1,-1,-1,-1,-1,-1,-1,-1,-1,-1,-1,-1],"split_conditions":[5.0865253E1,5.1004953E0,6.0547442E0,1.2071258E1,6.2032313E0,4.905686E0,1.4125693E1,3.4026742E0,1.3458331E1,5.970857E0,2.5197063E1,2.2E-2,5.7359447E0,7.6E-2,-1.9075145E-1,8.2E-2,-1.9875585E-1,-1.9041917E-1,4.085141E0,2.2621479E1,1.224256E1,6.508356E0,4.847196E0,3.529412E-2,-1.8545455E-1,3.4342504E0,8.372743E0,1.7647061E-1,-1.0588236E-1,3.529412E-2,-1.0588236E-1,3.6878672E0,5.4E-2,-1.5E-1,3.176471E-1,-6.8477833E-1,2.1939135E1,8.4E-2,3.610551E1,6.6815763E0,-1.7229872E1,8.141827E0,7.054446E0,8.496809E0,4.7882183E1,4.5000002E-1,-1.0588236E-1,3.529412E-2,-1.5789475E-1,3.6E-1,-1.3043478E-1,5.701864E-1,2.3076925E-1,2.8695655E-1,-1.5789475E-1,-1.9591837E-1,-6.3829795E-2,-1.0588236E-1,4.2439026E-1,2.2105263E-1,-1.5918368E-1,-1.20000005E-1,3.529412E-2,5.56231E-1,3.529412E-2,-1.1489362E-1,1.5652174E-1,-0E0,4.8136884E-1],"split_indices":[100,68,29,27,64,69,98,48,137,69,95,0,49,0,0,0,0,0,8,7,90,64,48,0,0,33,59,0,0,0,0,24,0,0,0,1,123,20,62,22,51,1,64,96,90,0,0,0,0,0,0,0,0,0,0,0,0,0,0,0,0,0,0,0,0,0,0,0,0],"split_type":[0,0,0,0,0,0,0,0,0,0,0,0,0,0,0,0,0,0,0,0,0,0,0,0,0,0,0,0,0,0,0,0,0,0,0,0,0,0,0,0,0,0,0,0,0,0,0,0,0,0,0,0,0,0,0,0,0,0,0,0,0,0,0,0,0,0,0,0,0],"sum_hessian":[4.5E2,2.985E2,1.515E2,1.90875E2,1.07625E2,1.28625E2,2.2875E1,1.62E2,2.8875E1,2.8875E1,7.875E1,1.3875E1,1.1475E2,2.25E0,2.0625E1,2.25E0,1.5975E2,1.9875E1,9E0,4.125E0,2.475E1,5.85E1,2.025E1,1.125E0,1.275E1,4.3875E1,7.0875E1,1.125E0,1.125E0,1.125E0,1.125E0,4.125E0,4.875E0,3E0,1.125E0,3.375E0,2.1375E1,5.625E0,5.2875E1,5.25E0,1.5E1,2.625E0,4.125E1,3.3E1,3.7875E1,3E0,1.125E0,1.125E0,3.75E0,1.5E0,1.875E0,1.9125E1,2.25E0,1.875E0,3.75E0,4.8E1,4.875E0,1.125E0,4.125E0,3.75E0,1.125E1,1.5E0,1.125E0,4.0125E1,1.125E0,2.25E1,1.05E1,6E0,3.1875E1],"tree_param":{"num_deleted":"0","num_feature":"140","num_nodes":"69","size_leaf_vector":"1"}},{"base_weights":[-0E0,1.1103896E0,-5.738255E-1,1.6974416E0,-4.633431E-1,1.0857143E0,-5.96521E-1,2.1052632E-1,5.936424E-1,3.5172415E-1,-6E-1,3.529412E-2,4.1538465E-1,7.5E-1,-6.129447E-1,5.1428574E-1,-1.846154E-1,1.7647061E-1,-1.948553E-1,-1.0588236E-1,3.9130437E-1,-1.5789473E-1,-6.423024E-1,-5.6E-1,3.9428574E-1,-6.529081E-1,-2.1538462E-1,3.529412E-2,-1.8620689E-1,-1.2605043E-1,-1.9920832E-1,3.176471E-1,-1.7142859E-1],"categories":[],"categories_nodes":[],"categories_segments":[],"categories_sizes":[],"default_left":[0,0,0,0,0,0,0,0,0,0,0,0,0,0,0,0,0,0,0,0,0,0,0,0,0,0,0,0,0,0,0,0,0],"id":1,"left_children":[1,3,5,7,9,11,13,15,-1,-1,17,-1,-1,19,21,-1,-1,-1,-1,-1,-1,23,25,27,-1,29,31,-1,-1,-1,-1,-1,-1],"loss_changes":[2.880008E2,1.430614E2,1.18715515E1,4.6597504E1,1.0231732E1,1.1030383E0,6.975296E0,2.46524E1,0E0,0E0,2.7356167E0,0E0,0E0,2.9060106E0,3.7944717E0,0E0,0E0,0E0,0E0,0E0,0E0,1.19834585E1,1.0982742E0,7.156186E-1,0E0,4.1069794E-1,4.291144E0,0E0,0E0,0E0,0E0,0E0,0E0],"parents":[2147483647,0,0,1,1,2,2,3,3,4,4,5,5,6,6,7,7,10,10,13,13,14,14,21,21,22,22,23,23,25,25,26,26],"right_children":[2,4,6,8,10,12,14,16,-1,-1,18,-1,-1,20,22,-1,-1,-1,-1,-1,-1,24,26,28,-1,30,32,-1,-1,-1,-1,-1,-1],"split_conditions":[4.4168377E0,6.545059E0,4.91383E0,3.6397367E0,1.52094E0,1.42204E1,1.1551962E1,3.6210263E0,5.936424E-1,3.5172415E-1,2.6E-2,3.529412E-2,4.1538465E-1,4.59357E0,1.3003436E1,5.1428574E-1,-1.846154E-1,1.7647061E-1,-1.948553E-1,-1.0588236E-1,3.9130437E-1,6.911771E0,6.3702812E1,3.8E-2,3.9428574E-1,4.6169086E0,6.078647E0,3.529412E-2,-1.8620689E-1,-1.2605043E-1,-1.9920832E-1,3.176471E-1,-1.7142859E-1],"split_indices":[68,39,69,13,139,37,138,68,0,0,20,0,0,3,136,0,0,0,0,0,0,48,77,0,0,68,34,0,0,0,0,0,0],"split_type":[0,0,0,0,0,0,0,0,0,0,0,0,0,0,0,0,0,0,0,0,0,0,0,0,0,0,0,0,0,0,0,0,0],"sum_hessian":[4.5E2,1.53E2,2.97E2,1.11375E2,4.1625E1,3.375E0,2.93625E2,1.8E1,9.3375E1,2.625E0,3.9E1,1.125E0,2.25E0,3E0,2.90625E2,6E0,1.2E1,1.125E0,3.7875E1,1.125E0,1.875E0,1.8E1,2.72625E2,1.4625E1,3.375E0,2.655E2,7.125E0,1.125E0,1.35E1,1.3875E1,2.51625E2,1.125E0,6E0],"tree_param":{"num_deleted":"0","num_feature":"140","num_nodes":"33","size_leaf_vector":"1"}},{"base_weights":[-0E0,7.420965E-1,-3.695112E-1,1.1651376E0,-3.668639E-1,1.6157989E-1,-5.2654153E-1,-1.8620689E-1,1.4240838E0,1.1578947E0,-5.4545456E-1,-5.294118E-1,7.986348E-1,-5.697538E-1,-5.9880238E-2,1.6472441E0,3.0656934E-1,3.529412E-2,4.3448275E-1,2.5E-1,-6.197183E-1,1.826087E-1,-6.1478597E-1,1.2E0,-5.940594E-2,6.2068963E-1,-5.875371E-1,1.0243902E0,-3.880597E-1,1.7868562E0,5E-1,-1.7538463E-1,1E0,-1.3043478E-1,3.176471E-1,-1.9418181E-1,3.529412E-2,-1.935484E-1,3.529412E-2,1.443038E0,2.4E-1,-4.1860464E-1,3.9130437E-1,3.6E-1,-1.0588236E-1,1.826087E-1,-6.011976E-1,-1.0588236E-1,4.5000002E-1,-5.5737704E-1,2.4000001E-1,5.6718755E-1,1.9322036E-1,-1.6097562E-1,3.9574468E-1,4.7796613E-1,-1.4482759E-1,5.0625E-1,9.4736844E-2,-9.4736844E-2,3.6E-1,-1.7922078E-1,1.7647061E-1,5.454546E-2,-1.8580171E-1,3.529412E-2,-1.8584073E-1],"categories":[],"categories_nodes":[],"categories_segments":[],"categories_sizes":[],"default_left":[0,0,0,0,0,0,0,0,0,0,0,0,0,0,0,0,0,0,0,0,0,0,0,0,0,0,0,0,0,0,0,0,0,0,0,0,0,0,0,0,0,0,0,0,0,0,0,0,0,0,0,0,0,0,0,0,0,0,0,0,0,0,0,0,0,0,0],"id":2,"left_children":[1,3,5,7,9,11,13,-1,15,17,19,21,23,25,27,29,31,-1,-1,33,35,-1,37,39,41,43,45,47,49,51,53,-1,55,-1,-1,-1,-1,-1,-1,57,59,61,-1,-1,-1,-1,63,-1,-1,65,-1,-1,-1,-1,-1,-1,-1,-1,-1,-1,-1,-1,-1,-1,-1,-1,-1],"loss_changes":[1.2394426E2,7.09151E1,2.5250248E1,5.128914E1,1.2136576E1,3.1071707E1,4.6669693E0,0E0,2.3311249E1,1.2644391E0,2.4292574E0,3.6778288E0,1.2684488E1,4.879181E0,7.825587E0,1.1819992E1,1.1167434E1,0E0,0E0,2.675831E0,7.974272E-1,0E0,7.906141E-1,5.4865837E0,6.730471E0,2.468154E0,3.8078003E0,3.8866568E0,3.8153167E0,7.1277924E0,9.199014E0,0E0,9.565166E0,0E0,0E0,0E0,0E0,0E0,0E0,4.9095993E0,3.713684E0,2.2866383E0,0E0,0E0,0E0,0E0,3.0779037E0,0E0,0E0,7.120609E-1,0E0,0E0,0E0,0E0,0E0,0E0,0E0,0E0,0E0,0E0,0E0,0E0,0E0,0E0,0E0,0E0,0E0],"parents":[2147483647,0,0,1,1,2,2,3,3,4,4,5,5,6,6,8,8,9,9,10,10,11,11,12,12,13,13,14,14,15,15,16,16,19,19,20,20,22,22,23,23,24,24,25,25,26,26,27,27,28,28,29,29,30,30,32,32,39,39,40,40,41,41,46,46,49,49],"right_children":[2,4,6,8,10,12,14,-1,16,18,20,22,24,26,28,30,32,-1,-1,34,36,-1,38,40,42,44,46,48,50,52,54,-1,56,-1,-1,-1,-1,-1,-1,58,60,62,-1,-1,-1,-1,64,-1,-1,66,-1,-1,-1,-1,-1,-1,-1,-1,-1,-1,-1,-1,-1,-1,-1,-1,-1],"split_conditions":[1.9454239E1,5.653447E0,4.2884903E0,3.7207181E0,3.6886897E0,1.3079013E1,8.092338E0,-1.8620689E-1,6.695483E0,4.8904963E0,1.3378567E1,5.399723E0,5.886253E0,7.057544E0,5.813913E0,4.8496823E0,4.656162E0,3.529412E-2,4.3448275E-1,4.2374096E0,1.4548018E1,1.826087E-1,1.58E-1,7.034024E0,6.6499686E0,1.4833986E1,4.849194E0,6.3852226E1,2.2920296E1,5.1383605E0,5.3219733E0,-1.7538463E-1,7.01921E0,-1.3043478E-1,3.176471E-1,-1.9418181E-1,3.529412E-2,-1.935484E-1,3.529412E-2,3.4839456E0,3.433942E0,1.58E-1,3.9130437E-1,3.6E-1,-1.0588236E-1,1.826087E-1,9.362018E0,-1.0588236E-1,4.5000002E-1,-1.05857605E2,2.4000001E-1,5.6718755E-1,1.9322036E-1,-1.6097562E-1,3.9574468E-1,4.7796613E-1,-1.4482759E-1,5.0625E-1,9.4736844E-2,-9.4736844E-2,3.6E-1,-1.7922078E-1,1.7647061E-1,5.454546E-2,-1.8580171E-1,3.529412E-2,-1.8584073E-1],"split_indices":[95,48,34,68,18,136,48,0,69,4,132,76,4,27,13,34,8,0,0,68,16,0,25,64,68,47,87,90,94,3,9,0,129,0,0,0,0,0,0,33,24,5,0,0,0,0,90,0,0,1,0,0,0,0,0,0,0,0,0,0,0,0,0,0,0,0,0],"split_type":[0,0,0,0,0,0,0,0,0,0,0,0,0,0,0,0,0,0,0,0,0,0,0,0,0,0,0,0,0,0,0,0,0,0,0,0,0,0,0,0,0,0,0,0,0,0,0,0,0,0,0,0,0,0,0,0,0,0,0,0,0,0,0,0,0,0,0],"sum_hessian":[4.5E2,1.4925E2,3.0075E2,1.08E2,4.125E1,6.8625E1,2.32125E2,1.35E1,9.45E1,3.75E0,3.75E1,3.3E1,3.5625E1,2.1225E2,1.9875E1,7.8375E1,1.6125E1,1.125E0,2.625E0,3E0,3.45E1,1.875E0,3.1125E1,2.4E1,1.1625E1,2.625E0,2.09625E2,4.125E0,1.575E1,6.9375E1,9E0,7.125E0,9E0,1.875E0,1.125E0,3.3375E1,1.125E0,3E1,1.125E0,1.875E1,5.25E0,9.75E0,1.875E0,1.5E0,1.125E0,1.875E0,2.0775E2,1.125E0,3E0,1.425E1,1.5E0,6.3E1,6.375E0,4.125E0,4.875E0,6.375E0,2.625E0,1.5E1,3.75E0,3.75E0,1.5E0,8.625E0,1.125E0,4.5E0,2.0325E2,1.125E0,1.3125E1],"tree_param":{"num_deleted":"0","num_feature":"140","num_nodes":"67","size_leaf_vector":"1"}},{"base_weights":[-0E0,-5.737919E-1,9.992418E-1,-5.940246E-1,3.5172415E-1,4.5956355E-1,1.7518249E0,-6.0746E-1,5E-1,9.2269325E-1,-3.1088082E-2,1.8390342E0,7.79661E-1,-6.211236E-1,4E-1,3.6E-1,-1.20000005E-1,-3.5789475E-1,1.2866242E0,5.590062E-1,-4.3776825E-1,3.529412E-2,1.8688525E0,-1.5384616E-1,1.2195122E0,-6.445959E-1,-3.2402235E-1,3.6E-1,-1.3043478E-1,3.176471E-1,-1.8139535E-1,1.516129E0,3.783784E-1,-2.3255815E-1,1.3253012E0,5.263158E-1,-6.009852E-1,1.7647061E-1,1.8830898E0,-1.0588236E-1,3.529412E-2,4.5000002E-1,3.529412E-2,-1.9451518E-1,-0E0,1.018868E-1,-1.7014927E-1,-1.0588236E-1,4.794979E-1,-1.4482759E-1,2.3773585E-1,-1.4805195E-1,3.176471E-1,4.9411768E-1,-2.6086958E-2,-1.20000005E-1,3.2307696E-1,-1.9175258E-1,3.529412E-2,1.7647061E-1,5.6936175E-1],"categories":[],"categories_nodes":[],"categories_segments":[],"categories_sizes":[],"default_left":[0,0,0,0,0,0,0,0,0,0,0,0,0,0,0,0,0,0,0,0,0,0,0,0,0,0,0,0,0,0,0,0,0,0,0,0,0,0,0,0,0,0,0,0,0,0,0,0,0,0,0,0,0,0,0,0,0,0,0,0,0],"id":3,"left_children":[1,3,5,7,-1,9,11,13,15,17,19,21,23,25,27,-1,-1,29,31,33,35,-1,37,39,41,43,45,-1,-1,-1,-1,47,49,51,53,55,57,-1,59,-1,-1,-1,-1,-1,-1,-1,-1,-1,-1,-1,-1,-1,-1,-1,-1,-1,-1,-1,-1,-1,-1],"loss_changes":[2.5915732E2,1.0840698E1,6.615936E1,4.485504E0,0E0,2.2155727E1,4.3737335E0,4.123436E0,3E0,2.382101E1,1.1823733E1,2.968933E0,3.2158232E0,1.7306824E0,3.4434783E0,0E0,0E0,4.7915325E0,7.6078644E0,1.2515467E1,4.899269E0,0E0,4.486084E-3,2.1719459E-1,1.4074602E0,6.26915E-1,3.8030486E0,0E0,0E0,0E0,0E0,5.326729E0,3.6808808E0,4.1451135E0,4.8576717E0,2.8534415E0,7.7160263E-1,0E0,2.9678345E-2,0E0,0E0,0E0,0E0,0E0,0E0,0E0,0E0,0E0,0E0,0E0,0E0,0E0,0E0,0E0,0E0,0E0,0E0,0E0,0E0,0E0,0E0],"parents":[2147483647,0,0,1,1,2,2,3,3,5,5,6,6,7,7,8,8,9,9,10,10,11,11,12,12,13,13,14,14,17,17,18,18,19,19,20,20,22,22,23,23,24,24,25,25,26,26,31,31,32,32,33,33,34,34,35,35,36,36,38,38],"right_children":[2,4,6,8,-1,10,12,14,16,18,20,22,24,26,28,-1,-1,30,32,34,36,-1,38,40,42,44,46,-1,-1,-1,-1,48,50,52,54,56,58,-1,60,-1,-1,-1,-1,-1,-1,-1,-1,-1,-1,-1,-1,-1,-1,-1,-1,-1,-1,-1,-1,-1,-1],"split_conditions":[7.0027227E0,6.1383696E0,5.7038455E0,6.4867697E0,3.5172415E-1,8.0289406E1,2.1666992E1,1.0683706E3,2.4776262E1,6.508356E0,1.1513121E1,6E-3,5.064635E0,7.0572567E0,1.1565035E1,3.6E-1,-1.20000005E-1,7.634335E0,1.8204042E1,5.0707707E0,4.3416114E0,3.529412E-2,6.318901E0,4.4E-2,1.2626396E2,2.46E-1,2.0157118E1,3.6E-1,-1.3043478E-1,3.176471E-1,-1.8139535E-1,3.3335447E0,7.8398123E0,7.790945E0,6.948542E1,-1.0711931E1,7.901112E1,1.7647061E-1,3.3248754E0,-1.0588236E-1,3.529412E-2,4.5000002E-1,3.529412E-2,-1.9451518E-1,-0E0,1.018868E-1,-1.7014927E-1,-1.0588236E-1,4.794979E-1,-1.4482759E-1,2.3773585E-1,-1.4805195E-1,3.176471E-1,4.9411768E-1,-2.6086958E-2,-1.20000005E-1,3.2307696E-1,-1.9175258E-1,3.529412E-2,1.7647061E-1,5.6936175E-1],"split_indices":[39,34,29,94,0,100,41,110,133,64,129,5,28,69,82,0,0,109,82,104,91,0,54,0,72,40,100,0,0,0,0,92,79,4,7,6,71,0,97,0,0,0,0,0,0,0,0,0,0,0,0,0,0,0,0,0,0,0,0,0,0],"split_type":[0,0,0,0,0,0,0,0,0,0,0,0,0,0,0,0,0,0,0,0,0,0,0,0,0,0,0,0,0,0,0,0,0,0,0,0,0,0,0,0,0,0,0,0,0,0,0,0,0,0,0,0,0,0,0,0,0,0,0,0,0],"sum_hessian":[4.5E2,2.86125E2,1.63875E2,2.835E2,2.625E0,9.6375E1,6.75E1,2.805E2,3E0,4.9125E1,4.725E1,6.1125E1,6.375E0,2.77125E2,3.375E0,1.5E0,1.5E0,1.0875E1,3.825E1,1.9125E1,2.8125E1,1.125E0,6E1,2.25E0,4.125E0,2.5575E2,2.1375E1,1.5E0,1.875E0,1.125E0,9.75E0,3E1,8.25E0,9.75E0,9.375E0,3.75E0,2.4375E1,1.125E0,5.8875E1,1.125E0,1.125E0,3E0,1.125E0,2.5425E2,1.5E0,5.625E0,1.575E1,1.125E0,2.8875E1,2.625E0,5.625E0,8.625E0,1.125E0,7.5E0,1.875E0,1.5E0,2.25E0,2.325E1,1.125E0,1.125E0,5.775E1],"tree_param":{"num_deleted":"0","num_feature":"140","num_nodes":"61","size_leaf_vector":"1"}},{"base_weights":[1.194387E-3,-5.8855325E-1,2.5474283E-1,1.050295E-1,-6.025751E-1,-2.965156E-1,5.648308E-1,3.4232654E-2,-6.095723E-1,5.4611236E-1,-4.6786582E-1,1.0025904E0,2.644847E-1,-2.0201486E-1,-1.849777E-1,-3.2038563E-1,1.072592E0,-8.9537956E-2,-5.469014E-1,-1.3562419E-1,1.0935363E0,-1.5748012E-1,6.2683856E-1,3.3016328E-2,-1.13441095E-1,1.3188052E-1,-1.5915194E-1,3.486284E-1,2.8670413E-2,-4.6792927E-1,4.1980818E-1,-5.9101146E-1,-5.923553E-3,1.7599367E-1,-1.5206155E-1,-3.8563095E-2,1.1285261E0,-5.304848E-1,6.404557E-2,8.347039E-1,-4.7551277E-1,-1.671219E-1,2.82587E-2,3.363801E-1,-8.626952E-2,3.2283656E-2,-1.810992E-1,2.5464636E-1,-1.5444386E-1,-1.0273931E-1,3.4687337E-1,1.424493E-1,-1.8596591E-1,-1.7127252E-1,8.517868E-2,-5.4136317E-2,2.8981838E-1,5.2473698E-2,-1.6855831E-1],"categories":[],"categories_nodes":[],"categories_segments":[],"categories_sizes":[],"default_left":[0,0,0,0,0,0,0,0,0,0,0,0,0,0,0,0,0,0,0,0,0,0,0,0,0,0,0,0,0,0,0,0,0,0,0,0,0,0,0,0,0,0,0,0,0,0,0,0,0,0,0,0,0,0,0,0,0,0,0],"id":4,"left_children":[1,3,5,-1,7,9,11,-1,13,15,17,19,21,23,-1,25,27,29,31,33,35,37,39,-1,-1,-1,-1,-1,-1,41,43,45,47,-1,-1,-1,49,51,53,55,57,-1,-1,-1,-1,-1,-1,-1,-1,-1,-1,-1,-1,-1,-1,-1,-1,-1,-1],"loss_changes":[6.5000755E1,1.9311752E0,5.2132713E1,0E0,7.1718216E-1,1.615176E1,2.5360508E1,0E0,2.4180222E-1,9.041632E0,2.702858E0,8.320938E0,1.7980782E1,2.4253424E-1,0E0,1.5069258E0,9.4618607E-1,3.4920125E0,1.8084087E0,2.1022704E0,3.27594E0,4.5646625E0,1.4860569E1,0E0,0E0,0E0,0E0,0E0,0E0,5.677898E-1,4.200445E0,6.854515E-1,3.366336E0,0E0,0E0,0E0,3.302452E0,2.1402378E0,5.08954E0,7.3044815E0,6.964829E-1,0E0,0E0,0E0,0E0,0E0,0E0,0E0,0E0,0E0,0E0,0E0,0E0,0E0,0E0,0E0,0E0,0E0,0E0],"parents":[2147483647,0,0,1,1,2,2,4,4,5,5,6,6,8,8,9,9,10,10,11,11,12,12,13,13,15,15,16,16,17,17,18,18,19,19,20,20,21,21,22,22,29,29,30,30,31,31,32,32,36,36,37,37,38,38,39,39,40,40],"right_children":[2,4,6,-1,8,10,12,-1,14,16,18,20,22,24,-1,26,28,30,32,34,36,38,40,-1,-1,-1,-1,-1,-1,42,44,46,48,-1,-1,-1,50,52,54,56,58,-1,-1,-1,-1,-1,-1,-1,-1,-1,-1,-1,-1,-1,-1,-1,-1,-1,-1],"split_conditions":[4.452424E0,4.745743E0,2.341288E1,1.050295E-1,1.6221949E0,5.7193823E0,4.618486E0,3.4232654E-2,2.530369E0,4.0306005E0,7.4E-2,3.3927681E0,1.1821432E1,-2.9624596E0,-1.849777E-1,5.165515E0,2.4800642E1,1.5990834E1,4.4550037E1,9.619415E0,7.5808496E0,1.6207312E1,6.146331E0,3.3016328E-2,-1.13441095E-1,1.3188052E-1,-1.5915194E-1,3.486284E-1,2.8670413E-2,1.68E-1,5.183035E0,1.3435503E1,5.626574E0,1.7599367E-1,-1.5206155E-1,-3.8563095E-2,1.1259468E1,1.8828932E0,6.248673E0,1.6388348E1,1.2812449E1,-1.671219E-1,2.82587E-2,3.363801E-1,-8.626952E-2,3.2283656E-2,-1.810992E-1,2.5464636E-1,-1.5444386E-1,-1.0273931E-1,3.4687337E-1,1.424493E-1,-1.8596591E-1,-1.7127252E-1,8.517868E-2,-5.4136317E-2,2.8981838E-1,5.2473698E-2,-1.6855831E-1],"split_indices":[68,54,95,0,89,64,48,0,114,34,20,33,129,11,0,64,52,95,100,111,27,81,29,0,0,0,0,0,0,55,43,133,43,0,0,0,90,94,69,103,74,0,0,0,0,0,0,0,0,0,0,0,0,0,0,0,0,0,0],"split_type":[0,0,0,0,0,0,0,0,0,0,0,0,0,0,0,0,0,0,0,0,0,0,0,0,0,0,0,0,0,0,0,0,0,0,0,0,0,0,0,0,0,0,0,0,0,0,0,0,0,0,0,0,0,0,0,0,0,0,0],"sum_hessian":[4.3269894E2,1.2969955E2,3.0299936E2,1.5561984E0,1.2814336E2,1.0909668E2,1.939027E2,1.0909951E0,1.2705237E2,1.806644E1,9.1030235E1,7.795045E1,1.1595225E2,2.655572E0,1.243968E2,6.976212E0,1.1090228E1,1.6099232E1,7.493101E1,5.7312226E0,7.221922E1,5.3830948E1,6.21213E1,1.0933675E0,1.5622045E0,1.2744622E0,5.70175E0,9.986012E0,1.1042157E0,9.283711E0,6.8155203E0,6.91964E1,5.7346005E0,1.7487651E0,3.9824576E0,1.935759E0,7.028346E1,1.9538076E1,3.4292873E1,5.247006E1,9.651241E0,8.020741E0,1.2629699E0,3.1282814E0,3.6872392E0,1.0973918E0,6.8099014E1,1.8907893E0,3.843811E0,1.0898725E0,6.919359E1,1.2435218E0,1.8294554E1,8.410264E0,2.588261E1,5.968719E0,4.650134E1,1.0108997E0,8.640342E0],"tree_param":{"num_deleted":"0","num_feature":"140","num_nodes":"59","size_leaf_vector":"1"}},{"base_weights":[-5.6354725E-3,7.4803245E-1,-5.242904E-1,1.048891E0,-4.0557095E-1,8.024994E-1,-5.482055E-1,1.6365212E-1,3.5328722E-1,2.6165876E-1,-5.486236E-1,2.1587847E-2,3.0385667E-1,-1.3542164E-2,-5.893397E-1,3.2936418E-1,-1.7132658E-1,-1.8133579E-1,1.6995573E-1,-5.07656E-1,3.0137652E-1,-6.048431E-1,1.3764548E-1,-1.7285262E-1,5.1773574E-2,-6.0897267E-1,5.056678E-2,2.780288E-1,-1.4001909E-1,-1.0899363E-1,-1.863917E-1],"categories":[],"categories_nodes":[],"categories_segments":[],"categories_sizes":[],"default_left":[0,0,0,0,0,0,0,0,0,0,0,0,0,0,0,0,0,0,0,0,0,0,0,0,0,0,0,0,0,0,0],"id":5,"left_children":[1,3,5,7,9,11,13,15,-1,-1,17,-1,-1,19,21,-1,-1,-1,-1,23,-1,25,27,-1,-1,29,-1,-1,-1,-1,-1],"loss_changes":[1.6937138E2,6.1729424E1,8.5837555E0,1.58042755E1,7.2888055E0,6.878233E-1,5.5497894E0,1.36573715E1,0E0,0E0,2.4666853E0,0E0,0E0,1.0106866E1,2.7277222E0,0E0,0E0,0E0,0E0,7.2902155E-1,0E0,8.369522E-1,3.1575887E0,0E0,0E0,4.6781158E-1,0E0,0E0,0E0,0E0,0E0],"parents":[2147483647,0,0,1,1,2,2,3,3,4,4,5,5,6,6,7,7,10,10,13,13,14,14,19,19,21,21,22,22,25,25],"right_children":[2,4,6,8,10,12,14,16,-1,-1,18,-1,-1,20,22,-1,-1,-1,-1,24,-1,26,28,-1,-1,30,-1,-1,-1,-1,-1],"split_conditions":[4.4168377E0,6.545059E0,4.91383E0,3.6397367E0,1.52094E0,4.4582287E1,1.3003436E1,3.6210263E0,3.5328722E-1,2.6165876E-1,2.8607613E1,2.1587847E-2,3.0385667E-1,6.911771E0,1.5059608E2,3.2936418E-1,-1.7132658E-1,-1.8133579E-1,1.6995573E-1,1.6401127E1,3.0137652E-1,8.32688E3,6.9458017E0,-1.7285262E-1,5.1773574E-2,4.6169086E0,5.056678E-2,2.780288E-1,-1.4001909E-1,-1.0899363E-1,-1.863917E-1],"split_indices":[68,39,69,13,139,112,136,68,0,0,117,0,0,48,107,0,0,0,0,111,0,95,3,0,0,68,0,0,0,0,0],"split_type":[0,0,0,0,0,0,0,0,0,0,0,0,0,0,0,0,0,0,0,0,0,0,0,0,0,0,0,0,0,0,0],"sum_hessian":[4.3128952E2,1.7563234E2,2.5565717E2,1.3937442E2,3.625792E1,3.950155E0,2.5170702E2,1.7983227E1,1.213912E2,3.1373792E0,3.312054E1,1.1831859E0,2.766969E0,1.807654E1,2.3363048E2,7.6992846E0,1.0283943E1,3.197756E1,1.1429785E0,1.2507734E1,5.5688047E0,2.2891669E2,4.713793E0,1.1502112E1,1.0056217E0,2.2791235E2,1.0043316E0,1.8130809E0,2.9007118E0,1.23510275E1,2.1556133E2],"tree_param":{"num_deleted":"0","num_feature":"140","num_nodes":"31","size_leaf_vector":"1"}},{"base_weights":[2.6430702E-3,5.292402E-1,-3.1711063E-1,7.6025623E-1,-3.6295968E-1,4.888239E-2,-5.179742E-1,-5.190329E-1,9.1485023E-1,6.7103785E-1,-5.716563E-1,-4.6892196E-1,4.0467826E-1,4.996402E-1,-5.3845966E-1,-1.72788E-1,2.8135309E-2,1.0288912E0,2.467791E-1,3.381003E-1,-1.1654397E-1,3.2888968E-2,-1.8065737E-1,2.5790533E-1,-5.575317E-1,6.5512574E-1,-6.462419E-2,3.071912E-1,-1.0406914E-1,-5.724556E-1,-1.6380188E-1,1.0745686E0,8.2643494E-2,-1.6213153E-1,6.886948E-1,7.213534E-2,-1.8163173E-1,1.023162E0,5.9664614E-2,-3.6838117E-1,2.915243E-1,-1.1829044E-1,-5.8926404E-1,5.039204E-1,-4.1630006E-1,3.3022726E-1,1.758693E-2,2.3810567E-1,-1.5084854E-1,3.1258962E-1,-7.610185E-2,3.3725876E-1,-1.0904643E-1,-1.2270341E-1,2.731549E-1,-1.7599382E-1,2.0745033E-1,2.2302473E-1,-1.5413828E-1,5.3831752E-2,-1.786847E-1,2.859567E-1,-1.0935239E-1,-1.7048422E-1,1.4447914E-1],"categories":[],"categories_nodes":[],"categories_segments":[],"categories_sizes":[],"default_left":[0,0,0,0,0,0,0,0,0,0,0,0,0,0,0,0,0,0,0,0,0,0,0,0,0,0,0,0,0,0,0,0,0,0,0,0,0,0,0,0,0,0,0,0,0,0,0,0,0,0,0,0,0,0,0,0,0,0,0,0,0,0,0,0,0],"id":6,"left_children":[1,3,5,7,9,11,13,15,17,19,21,23,25,27,29,-1,-1,31,33,-1,-1,-1,-1,-1,35,37,39,-1,-1,41,43,45,47,-1,49,-1,-1,51,53,55,-1,57,59,61,63,-1,-1,-1,-1,-1,-1,-1,-1,-1,-1,-1,-1,-1,-1,-1,-1,-1,-1,-1,-1],"loss_changes":[7.298796E1,3.4029655E1,1.9852798E1,2.6265068E1,7.7979355E0,1.796522E1,3.9009666E0,5.667558E-1,8.637718E0,3.4476233E0,6.7197895E-1,5.159992E0,6.8270874E0,2.111486E0,2.087635E0,0E0,0E0,4.206375E0,6.749877E0,0E0,0E0,0E0,0E0,0E0,1.5936785E0,8.207218E0,6.9677773E0,0E0,0E0,1.1258926E0,2.8481092E0,2.4554977E0,2.7550828E0,0E0,4.319574E0,0E0,0E0,3.6666374E0,6.542825E0,4.3296843E0,0E0,2.7133217E0,8.430443E-1,2.1992047E0,1.8979175E0,0E0,0E0,0E0,0E0,0E0,0E0,0E0,0E0,0E0,0E0,0E0,0E0,0E0,0E0,0E0,0E0,0E0,0E0,0E0,0E0],"parents":[2147483647,0,0,1,1,2,2,3,3,4,4,5,5,6,6,7,7,8,8,9,9,10,10,11,11,12,12,13,13,14,14,17,17,18,18,24,24,25,25,26,26,29,29,30,30,31,31,32,32,34,34,37,37,38,38,39,39,41,41,42,42,43,43,44,44],"right_children":[2,4,6,8,10,12,14,16,18,20,22,24,26,28,30,-1,-1,32,34,-1,-1,-1,-1,-1,36,38,40,-1,-1,42,44,46,48,-1,50,-1,-1,52,54,56,-1,58,60,62,64,-1,-1,-1,-1,-1,-1,-1,-1,-1,-1,-1,-1,-1,-1,-1,-1,-1,-1,-1,-1],"split_conditions":[1.9454239E1,5.8623986E0,3.8341146E0,3.8707821E0,9.287082E0,4.2158575E0,1E-2,3.1105206E0,6.695483E0,1.0373374E1,1.8E-2,3.4191666E0,5.683663E0,1.2E-2,1.5009233E3,-1.72788E-1,2.8135309E-2,7.0027227E0,4.656162E0,3.381003E-1,-1.1654397E-1,3.2888968E-2,-1.8065737E-1,2.5790533E-1,8.928894E0,5.320047E1,4.8435665E1,3.071912E-1,-1.0406914E-1,2.2147833E1,1.1661704E1,4.323992E1,4.9943004E0,-1.6213153E-1,7.01921E0,7.213534E-2,-1.8163173E-1,1.2325271E1,3.3224896E2,9.162777E0,2.915243E-1,4.125663E0,8.161984E0,7.519521E1,2.2920296E1,3.3022726E-1,1.758693E-2,2.3810567E-1,-1.5084854E-1,3.1258962E-1,-7.610185E-2,3.3725876E-1,-1.0904643E-1,-1.2270341E-1,2.731549E-1,-1.7599382E-1,2.0745033E-1,2.2302473E-1,-1.5413828E-1,5.3831752E-2,-1.786847E-1,2.859567E-1,-1.0935239E-1,-1.7048422E-1,1.4447914E-1],"split_indices":[95,48,33,68,88,68,65,139,69,82,55,13,4,0,130,0,0,39,8,0,0,0,0,0,12,100,118,0,0,95,102,100,9,0,129,0,0,134,75,98,0,92,32,7,94,0,0,0,0,0,0,0,0,0,0,0,0,0,0,0,0,0,0,0,0],"split_type":[0,0,0,0,0,0,0,0,0,0,0,0,0,0,0,0,0,0,0,0,0,0,0,0,0,0,0,0,0,0,0,0,0,0,0,0,0,0,0,0,0,0,0,0,0,0,0,0,0,0,0,0,0,0,0,0,0,0,0,0,0,0,0,0,0],"sum_hessian":[4.3147144E2,1.627636E2,2.6870782E2,1.2940486E2,3.335873E1,9.548375E1,1.7322408E2,1.3697617E1,1.15707245E2,5.2301784E0,2.812855E1,3.8758686E1,5.6725063E1,2.956772E0,1.702673E2,1.2588375E1,1.1092418E0,9.837446E1,1.733279E1,3.6120439E0,1.6181346E0,1.0955113E0,2.703304E1,1.8792644E0,3.687942E1,3.6728573E1,1.999649E1,1.6964326E0,1.2603395E0,1.5561874E2,1.4648566E1,9.371502E1,4.6594343E0,6.1515784E0,1.1181212E1,1.8610585E0,3.5018364E1,2.2255106E1,1.4473468E1,1.5962488E1,4.034003E0,5.84068E0,1.4977806E2,3.746183E0,1.0902383E1,9.127858E1,2.4364452E0,1.9434842E0,2.7159503E0,8.0556555E0,3.1255572E0,2.0920103E1,1.3350031E0,9.667562E0,4.8059063E0,1.360688E1,2.355608E0,1.5606775E0,4.2800026E0,1.0041102E0,1.4877396E2,2.4045973E0,1.3415856E0,9.638107E0,1.2642756E0],"tree_param":{"num_deleted":"0","num_feature":"140","num_nodes":"65","size_leaf_vector":"1"}},{"base_weights":[1.79106E-3,-5.514947E-1,6.514076E-1,-5.930129E-1,-1.4172333E-1,3.381152E-1,1.120515E0,-5.974764E-1,4.658421E-2,-1.7067367E-1,1.8477185E-1,-4.3948123E-1,4.7089624E-1,1.1541324E0,2.9880553E-1,4.3557104E-2,-6.019018E-1,3.42463E-1,-1.4759149E-1,3.2836178E-1,-1.7683312E-1,8.8548267E-1,2.0040264E-2,1.00140706E-1,1.1653925E0,-1.3165572E-1,2.5992522E-1,-6.063192E-1,3.68183E-2,-1.6385874E-1,4.878591E-1,-1.03985675E-1,2.5119525E-1,1.1232202E0,3.0172652E-1,6.699671E-1,-3.3697549E-1,1.3732405E-1,1.1779951E0,-1.832084E-1,-1.9078981E-2,-1.0721312E-1,2.724921E-1,3.5863116E-1,-4.235268E-2,-4.6684787E-2,2.715304E-1,-1.0040719E-1,3.3153415E-1,-1.23689376E-1,2.511073E-1,1.17643036E-1,3.5619557E-1],"categories":[],"categories_nodes":[],"categories_segments":[],"categories_sizes":[],"default_left":[0,0,0,0,0,0,0,0,0,0,0,0,0,0,0,0,0,0,0,0,0,0,0,0,0,0,0,0,0,0,0,0,0,0,0,0,0,0,0,0,0,0,0,0,0,0,0,0,0,0,0,0,0],"id":7,"left_children":[1,3,5,7,9,11,13,15,-1,-1,17,19,21,23,25,-1,27,-1,29,31,-1,33,35,-1,37,-1,-1,39,-1,-1,41,-1,-1,43,45,47,49,-1,51,-1,-1,-1,-1,-1,-1,-1,-1,-1,-1,-1,-1,-1,-1],"loss_changes":[1.559029E2,3.9012299E0,2.8942635E1,8.0213165E-1,3.2941773E0,1.2705698E1,1.850029E0,7.819519E-1,0E0,0E0,4.5296617E0,2.2861512E0,1.9399368E1,3.1284332E-1,2.2527876E0,0E0,7.474823E-1,0E0,3.0689588E0,1.5309399E0,0E0,7.1682434E0,1.200994E1,0E0,1.2566376E-1,0E0,0E0,4.578781E-1,0E0,0E0,2.0280075E0,0E0,0E0,3.6451302E0,4.837991E0,8.388149E0,3.302614E0,0E0,6.643677E-2,0E0,0E0,0E0,0E0,0E0,0E0,0E0,0E0,0E0,0E0,0E0,0E0,0E0,0E0],"parents":[2147483647,0,0,1,1,2,2,3,3,4,4,5,5,6,6,7,7,10,10,11,11,12,12,13,13,14,14,16,16,18,18,19,19,21,21,22,22,24,24,27,27,30,30,33,33,34,34,35,35,36,36,38,38],"right_children":[2,4,6,8,10,12,14,16,-1,-1,18,20,22,24,26,-1,28,-1,30,32,-1,34,36,-1,38,-1,-1,40,-1,-1,42,-1,-1,44,46,48,50,-1,52,-1,-1,-1,-1,-1,-1,-1,-1,-1,-1,-1,-1,-1,-1],"split_conditions":[6.834154E0,4.5251412E0,6.0547442E0,2.46E-1,6.5741754E0,6.529512E0,1.5888339E3,-3.8337906E1,4.658421E-2,-1.7067367E-1,7.6257176E0,2.8495657E0,5.235851E0,1.3131398E1,3.5291485E1,4.3557104E-2,2.1655895E1,3.42463E-1,2.191125E1,1.1959515E1,-1.7683312E-1,2.1105946E1,4.7882183E1,1.00140706E-1,8.038754E0,-1.3165572E-1,2.5992522E-1,1.0683706E3,3.68183E-2,-1.6385874E-1,3.6709049E0,-1.03985675E-1,2.5119525E-1,4.04269E1,7.5158563E0,3.9216685E0,1.21620655E1,1.3732405E-1,6.1028337E0,-1.832084E-1,-1.9078981E-2,-1.0721312E-1,2.724921E-1,3.5863116E-1,-4.235268E-2,-4.6684787E-2,2.715304E-1,-1.0040719E-1,3.3153415E-1,-1.23689376E-1,2.511073E-1,1.17643036E-1,3.5619557E-1],"split_indices":[39,24,29,40,44,64,120,46,0,0,98,91,13,126,116,0,134,0,108,1,0,81,90,0,27,0,0,110,0,0,99,0,0,117,39,23,64,0,29,0,0,0,0,0,0,0,0,0,0,0,0,0,0],"split_type":[0,0,0,0,0,0,0,0,0,0,0,0,0,0,0,0,0,0,0,0,0,0,0,0,0,0,0,0,0,0,0,0,0,0,0,0,0,0,0,0,0,0,0,0,0,0,0,0,0,0,0,0,0],"sum_hessian":[4.3175854E2,2.3324887E2,1.9850966E2,2.1138416E2,2.1864712E1,1.20053154E2,7.845651E1,2.1033112E2,1.053046E0,9.150128E0,1.2714582E1,1.7173191E1,1.0287996E2,7.498423E1,3.4722793E0,1.0574844E0,2.0927364E2,2.6503677E0,1.0064215E1,2.611594E0,1.4561597E1,5.3093563E1,4.97864E1,1.4302591E0,7.355398E1,1.6086072E0,1.8636721E0,2.0816791E2,1.105723E0,6.2710075E0,3.7932074E0,1.2597995E0,1.3517945E0,3.7071777E1,1.6021784E1,1.7341185E1,3.2445217E1,1.9400561E0,7.161392E1,2.0637881E2,1.7890913E0,1.309898E0,2.4833093E0,3.5120388E1,1.9513906E0,9.535905E0,6.485878E0,5.3107305E0,1.2030454E1,3.1098766E1,1.3464507E0,1.3445579E0,7.026936E1],"tree_param":{"num_deleted":"0","num_feature":"140","num_nodes":"53","size_leaf_vector":"1"}},{"base_weights":[2.1219933E-3,-5.529265E-1,2.0748417E-1,8.846739E-2,-5.685884E-1,-3.5462233E-1,3.9926386E-1,2.9562177E-2,-5.764315E-1,4.1320273E-1,-4.8381558E-1,7.108516E-1,1.5717986E-1,-1.6995546E-1,-1.752829E-1,7.0879143E-1,-1.3051012E-1,1.8760808E-1,-5.171614E-1,-1.6106762E-1,8.316727E-1,-1.9315647E-1,4.488993E-1,-1.04230545E-1,3.6927577E-2,-3.7379812E-2,2.867383E-1,-9.986712E-2,1.7779206E-1,-3.351559E-2,-5.418707E-1,-4.4271713E-1,1.7552823E-1,-7.394268E-2,8.675967E-1,5.640082E-1,-3.0047074E-1,6.0079026E-1,-4.4878036E-1,1.2547222E-1,-1.1428587E-1,-1.6955227E-2,-1.7049001E-1,-1.5986845E-1,4.937992E-2,-1.2159091E-1,1.141933E-1,2.6613846E-1,-9.7967386E-2,-1.0457322E-1,2.3250572E-1,2.591748E-1,-1.0474949E-1,-5.1204946E-2,2.1862753E-1,5.3006355E-2,-1.6029754E-1],"categories":[],"categories_nodes":[],"categories_segments":[],"categories_sizes":[],"default_left":[0,0,0,0,0,0,0,0,0,0,0,0,0,0,0,0,0,0,0,0,0,0,0,0,0,0,0,0,0,0,0,0,0,0,0,0,0,0,0,0,0,0,0,0,0,0,0,0,0,0,0,0,0,0,0,0,0],"id":8,"left_children":[1,3,5,-1,7,9,11,-1,13,15,17,19,21,23,-1,25,-1,27,29,31,33,35,37,-1,-1,-1,-1,-1,-1,39,41,43,-1,45,47,49,51,53,55,-1,-1,-1,-1,-1,-1,-1,-1,-1,-1,-1,-1,-1,-1,-1,-1,-1,-1],"loss_changes":[4.549034E1,1.5988426E0,3.1543821E1,0E0,6.123123E-1,7.6033115E0,1.6306942E1,0E0,2.3576736E-1,3.1386652E0,1.5376406E0,1.0129982E1,1.2736937E1,2.1959016E-1,0E0,1.9205933E0,0E0,9.938035E-1,7.175865E-1,2.862021E0,2.7807236E0,4.7959843E0,9.51967E0,0E0,0E0,0E0,0E0,0E0,0E0,7.9632956E-1,7.183914E-1,6.11343E-1,0E0,7.729851E-1,2.1647682E0,1.698178E0,3.166234E0,5.8948593E0,6.503384E-1,0E0,0E0,0E0,0E0,0E0,0E0,0E0,0E0,0E0,0E0,0E0,0E0,0E0,0E0,0E0,0E0,0E0,0E0],"parents":[2147483647,0,0,1,1,2,2,4,4,5,5,6,6,8,8,9,9,10,10,11,11,12,12,13,13,15,15,17,17,18,18,19,19,20,20,21,21,22,22,29,29,30,30,31,31,33,33,34,34,35,35,36,36,37,37,38,38],"right_children":[2,4,6,-1,8,10,12,-1,14,16,18,20,22,24,-1,26,-1,28,30,32,34,36,38,-1,-1,-1,-1,-1,-1,40,42,44,-1,46,48,50,52,54,56,-1,-1,-1,-1,-1,-1,-1,-1,-1,-1,-1,-1,-1,-1,-1,-1,-1,-1],"split_conditions":[4.452424E0,4.745743E0,1.7857063E1,8.846739E-2,1.6221949E0,4.5894537E0,6.7674284E0,2.9562177E-2,2.530369E0,3.5059037E0,8.080664E0,3.4342504E0,1.1821432E1,4.3097353E0,-1.752829E-1,4.804962E0,-1.3051012E-1,1.3837625E1,4.202328E0,5.81724E0,7.0805774E0,4.8666186E0,1.6740774E1,-1.04230545E-1,3.6927577E-2,-3.7379812E-2,2.867383E-1,-9.986712E-2,1.7779206E-1,4.061192E0,6.062144E0,1.006351E1,1.7552823E-1,2.5091679E1,1.42E-1,3.6E-2,1.2312453E0,3.698671E1,4.8202596E0,1.2547222E-1,-1.1428587E-1,-1.6955227E-2,-1.7049001E-1,-1.5986845E-1,4.937992E-2,-1.2159091E-1,1.141933E-1,2.6613846E-1,-9.7967386E-2,-1.0457322E-1,2.3250572E-1,2.591748E-1,-1.0474949E-1,-5.1204946E-2,2.1862753E-1,5.3006355E-2,-1.6029754E-1],"split_indices":[68,54,95,0,89,134,64,0,114,41,72,33,129,74,0,68,0,2,43,4,22,43,98,0,0,0,0,0,0,8,111,31,0,136,60,0,99,90,28,0,0,0,0,0,0,0,0,0,0,0,0,0,0,0,0,0,0],"split_type":[0,0,0,0,0,0,0,0,0,0,0,0,0,0,0,0,0,0,0,0,0,0,0,0,0,0,0,0,0,0,0,0,0,0,0,0,0,0,0,0,0,0,0,0,0,0,0,0,0,0,0,0,0,0,0,0,0],"sum_hessian":[3.9708072E2,1.0678151E2,2.9029922E2,1.6134369E0,1.05168076E2,7.363267E1,2.1666655E2,1.0876734E0,1.040804E2,1.0288346E1,6.3344322E1,9.388729E1,1.2277926E2,2.3998048E0,1.01680595E2,7.75153E0,2.5368161E0,2.7782216E0,6.0566097E1,1.13859825E1,8.2501305E1,5.5938534E1,6.684072E1,1.3790253E0,1.0207795E0,1.8854734E0,5.866057E0,1.2937559E0,1.4844657E0,3.058433E0,5.7507668E1,8.561133E0,2.8248496E0,3.1074166E0,7.939389E1,6.415784E0,4.952275E1,5.7450584E1,9.390139E0,1.2410139E0,1.8174193E0,3.1318681E0,5.4375797E1,7.560981E0,1.0001522E0,1.8600166E0,1.2473999E0,7.83692E1,1.0246916E0,1.0824472E0,5.3333364E0,1.3158641E0,4.8206886E1,8.126295E0,4.932429E1,1.0015768E0,8.388562E0],"tree_param":{"num_deleted":"0","num_feature":"140","num_nodes":"57","size_leaf_vector":"1"}},{"base_weights":[-9.55191E-3,5.941101E-1,-4.8749134E-1,7.7953154E-1,-5.3530335E-1,-5.5141723E-1,-2.1281427E-2,4.0986963E-2,8.893501E-1,4.182804E-2,-1.7086796E-1,1.1171621E-1,-5.637131E-1,7.825073E-1,-1.6911715E-1,2.531609E-1,-1.6521843E-1,2.713189E-1,7.318727E-2,-3.640846E-1,-5.8607775E-1,-9.9781916E-2,2.8744203E-1,-9.9982E-2,1.3088715E-1,-1.7094897E-1,3.0614042E-1,3.0838378E-2,-1.7726454E-1],"categories":[],"categories_nodes":[],"categories_segments":[],"categories_sizes":[],"default_left":[0,0,0,0,0,0,0,0,0,0,0,0,0,0,0,0,0,0,0,0,0,0,0,0,0,0,0,0,0],"id":9,"left_children":[1,3,5,7,9,11,13,15,17,-1,-1,-1,19,21,-1,-1,-1,-1,23,25,27,-1,-1,-1,-1,-1,-1,-1,-1],"loss_changes":[1.12277016E2,3.6430405E1,6.460987E0,1.1977272E1,6.536603E-1,2.378971E0,1.2313263E1,1.0072044E1,1.5167389E0,0E0,0E0,0E0,6.2973785E-1,2.5494757E0,0E0,0E0,0E0,0E0,6.503545E-1,6.753172E0,6.1730576E-1,0E0,0E0,0E0,0E0,0E0,0E0,0E0,0E0],"parents":[2147483647,0,0,1,1,2,2,3,3,4,4,5,5,6,6,7,7,8,8,12,12,13,13,18,18,19,19,20,20],"right_children":[2,4,6,8,10,12,14,16,18,-1,-1,-1,20,22,-1,-1,-1,-1,24,26,28,-1,-1,-1,-1,-1,-1,-1,-1],"split_conditions":[4.4168377E0,5.3437304E0,4.5610622E1,3.6397367E0,4.4E-2,1.0973357E1,5.7809067E0,3.6210263E0,7.158457E0,4.182804E-2,-1.7086796E-1,1.1171621E-1,4.7117257E0,4.042504E0,-1.6911715E-1,2.531609E-1,-1.6521843E-1,2.713189E-1,8.677561E0,4.097492E0,7.933005E0,-9.9781916E-2,2.8744203E-1,-9.9982E-2,1.3088715E-1,-1.7094897E-1,3.0614042E-1,3.0838378E-2,-1.7726454E-1],"split_indices":[68,29,117,13,25,138,69,68,39,0,0,0,68,13,0,0,0,0,114,13,137,0,0,0,0,0,0,0,0],"split_type":[0,0,0,0,0,0,0,0,0,0,0,0,0,0,0,0,0,0,0,0,0,0,0,0,0,0,0,0,0],"sum_hessian":[3.8715256E2,1.7096806E2,2.1618448E2,1.4712381E2,2.384426E1,1.8995537E2,2.6229122E1,1.9222588E1,1.27901215E2,1.0037574E0,2.2840502E1,2.110416E0,1.8784494E2,1.0390284E1,1.583884E1,7.97516E0,1.1247428E1,1.2547984E2,2.4213724E0,2.0665264E1,1.6717969E2,1.2921984E0,9.098085E0,1.1812379E0,1.2401344E0,1.8503998E1,2.161267E0,1.0165204E0,1.6616316E2],"tree_param":{"num_deleted":"0","num_feature":"140","num_nodes":"29","size_leaf_vector":"1"}},{"base_weights":[3.8267986E-3,3.239543E-1,-3.9442766E-1,-4.645573E-1,5.4949886E-1,-1.2063481E-2,-5.054871E-1,2.2947018E-1,-5.602399E-1,6.86177E-1,3.4403338E-3,3.2744917E-1,-5.1285875E-1,4.314908E-1,-5.2981454E-1,-1.7337644E-1,3.5761178E-2,7.950462E-1,3.172092E-3,-4.4565022E-1,6.7492414E-1,-3.390464E-1,7.452182E-1,-1.6797343E-1,3.4469645E-2,2.465183E-1,-9.417235E-2,-5.5525655E-1,3.3533264E-2,8.7811375E-1,1.7971069E-1,-3.8645053E-1,6.81071E-1,-5.536598E-1,2.54136E-1,-1.1106566E-1,8.2381797E-1,-1.6705337E-1,1.3789009E-1,8.6682E-1,-1.05072334E-1,1.4979663E-1,-5.6992143E-1,2.661835E-1,-3.3041832E-1,-2.2959355E-2,2.6720935E-1,-1.5826795E-1,2.475502E-1,1.3749191E-1,-1.6832861E-1,1.8859848E-2,2.7892506E-1,-1.7836672E-1,2.64724E-2,1.911696E-1,-9.5064215E-2,-2.7577851E-2,2.8136683E-1,2.81727E-1,1.2507943E-2,2.0209591E-1,-1.0519611E-1,-1.7738295E-1,-4.9327407E-2,4.288985E-2,-1.4154159E-1],"categories":[],"categories_nodes":[],"categories_segments":[],"categories_sizes":[],"default_left":[0,0,0,0,0,0,0,0,0,0,0,0,0,0,0,0,0,0,0,0,0,0,0,0,0,0,0,0,0,0,0,0,0,0,0,0,0,0,0,0,0,0,0,0,0,0,0,0,0,0,0,0,0,0,0,0,0,0,0,0,0,0,0,0,0,0,0],"id":10,"left_children":[1,3,5,7,9,11,13,-1,15,17,19,21,23,25,27,-1,-1,29,31,33,35,37,39,-1,-1,-1,-1,41,43,45,47,49,51,53,55,-1,57,-1,-1,59,-1,61,63,-1,65,-1,-1,-1,-1,-1,-1,-1,-1,-1,-1,-1,-1,-1,-1,-1,-1,-1,-1,-1,-1,-1,-1],"loss_changes":[5.044359E1,3.926339E1,7.4813385E0,6.2312098E0,1.2760963E1,7.089763E0,3.3425179E0,0E0,6.256304E-1,1.0167557E1,1.092769E1,7.1781406E0,5.6168985E-1,1.4238799E0,1.9334908E0,0E0,0E0,5.871849E0,5.494918E0,1.7823286E0,2.5646563E0,2.0425344E0,2.3818903E0,0E0,0E0,0E0,0E0,1.4076424E0,2.3799946E0,1.3136444E0,7.414415E0,2.2069917E0,1.1086147E0,5.546441E-1,9.871366E-1,0E0,1.4463062E0,0E0,0E0,8.154068E-1,0E0,1.1269563E0,9.8942184E-1,0E0,4.313776E-1,0E0,0E0,0E0,0E0,0E0,0E0,0E0,0E0,0E0,0E0,0E0,0E0,0E0,0E0,0E0,0E0,0E0,0E0,0E0,0E0,0E0,0E0],"parents":[2147483647,0,0,1,1,2,2,3,3,4,4,5,5,6,6,8,8,9,9,10,10,11,11,12,12,13,13,14,14,17,17,18,18,19,19,20,20,21,21,22,22,27,27,28,28,29,29,30,30,31,31,32,32,33,33,34,34,36,36,39,39,41,41,42,42,44,44],"right_children":[2,4,6,8,10,12,14,-1,16,18,20,22,24,26,28,-1,-1,30,32,34,36,38,40,-1,-1,-1,-1,42,44,46,48,50,52,54,56,-1,58,-1,-1,60,-1,62,64,-1,66,-1,-1,-1,-1,-1,-1,-1,-1,-1,-1,-1,-1,-1,-1,-1,-1,-1,-1,-1,-1,-1,-1],"split_conditions":[3.8836641E0,4.115401E0,2.2147833E1,3.4191666E0,5.9123235E0,6.1298046E0,1E-2,2.2947018E-1,3.28094E1,3.997044E1,4.9371924E0,4.9649525E0,4.7007974E2,1.2E-2,1.6822438E2,-1.7337644E-1,3.5761178E-2,2.3751223E1,3.3224896E2,2.035403E1,1.6597849E1,1.7303883E1,1.0578346E1,-1.6797343E-1,3.4469645E-2,2.465183E-1,-9.417235E-2,4E-3,4.3103023E0,-4.3036694E1,5.382902E0,9.375173E0,5.403004E0,1.4E-1,1.0566763E1,-1.1106566E-1,2.7989278E0,-1.6705337E-1,1.3789009E-1,3.1733482E1,-1.05072334E-1,8.165176E0,5.6920784E1,2.661835E-1,-3.5021004E1,-2.2959355E-2,2.6720935E-1,-1.5826795E-1,2.475502E-1,1.3749191E-1,-1.6832861E-1,1.8859848E-2,2.7892506E-1,-1.7836672E-1,2.64724E-2,1.911696E-1,-9.5064215E-2,-2.7577851E-2,2.8136683E-1,2.81727E-1,1.2507943E-2,2.0209591E-1,-1.0519611E-1,-1.7738295E-1,-4.9327407E-2,4.288985E-2,-1.4154159E-1],"split_indices":[33,68,95,13,4,38,65,0,42,95,8,19,70,0,136,0,0,118,75,116,138,78,109,0,0,0,0,25,33,66,69,22,69,60,76,0,84,0,0,132,0,109,118,0,51,0,0,0,0,0,0,0,0,0,0,0,0,0,0,0,0,0,0,0,0,0,0],"split_type":[0,0,0,0,0,0,0,0,0,0,0,0,0,0,0,0,0,0,0,0,0,0,0,0,0,0,0,0,0,0,0,0,0,0,0,0,0,0,0,0,0,0,0,0,0,0,0,0,0,0,0,0,0,0,0,0,0,0,0,0,0,0,0,0,0,0,0],"sum_hessian":[3.9365793E2,2.1833833E2,1.753196E2,4.8326717E1,1.7001161E2,3.971033E1,1.3560927E2,2.9844444E0,4.5342274E1,1.3577148E2,3.424013E1,2.387231E1,1.5838019E1,3.0082684E0,1.32601E2,4.433786E1,1.0044107E0,1.1696374E2,1.8807753E1,2.0719309E1,1.3520822E1,9.270648E0,1.4601664E1,1.4834218E1,1.0038012E0,1.9073286E0,1.1009396E0,1.2688496E2,5.7160444E0,1.02675896E2,1.4287841E1,1.2216337E1,6.5914154E0,1.8129847E1,2.5894632E0,1.5006592E0,1.2020163E1,7.5221653E0,1.748483E0,1.3330611E1,1.2710522E0,2.3976338E0,1.2448732E2,1.2786739E0,4.437371E0,1.2697369E0,1.0140616E2,6.9046288E0,7.3832126E0,1.8146515E0,1.0401686E1,2.2502358E0,4.3411794E0,1.7113306E1,1.0165412E0,1.4803401E0,1.109123E0,1.352963E0,1.0667199E1,1.2130065E1,1.2005461E0,1.0023305E0,1.3953032E0,1.1782409E2,6.663232E0,1.0179507E0,3.41942E0],"tree_param":{"num_deleted":"0","num_feature":"140","num_nodes":"67","size_leaf_vector":"1"}},{"base_weights":[3.4270252E-3,-5.119084E-1,5.0980335E-1,-5.571463E-1,-1.0813824E-1,2.7408338E-1,8.467319E-1,-5.62394E-1,5.2755903E-2,-1.6033912E-1,1.8448223E-1,4.9665284E-1,-4.5040186E-2,8.789493E-1,3.3246922E-1,-5.723099E-1,-1.148395E-1,8.620847E-1,-1.8597977E-1,-3.1137872E-1,6.6381353E-1,1.7466924E-1,-5.2485746E-1,5.8138862E-2,8.898969E-1,-2.5301868E-1,2.2746664E-1,3.9891105E-2,-5.774876E-1,1.8358527E-1,-1.3908264E-1,3.7100625E-1,-8.038385E-3,-4.231271E-1,1.9066726E-1,2.297105E-1,-4.7636E-1,7.4185E-1,-1.4169492E-1,-3.67514E-1,4.520491E-1,-1.7354794E-1,3.553542E-2,7.987979E-2,8.9887625E-1,9.9733565E-3,-1.24691814E-1,-1.7490102E-1,-7.475304E-3,3.7060544E-2,-1.5660667E-1,-9.715056E-2,1.8413919E-1,-1.6448198E-1,2.5105404E-2,2.3510471E-1,-5.755429E-2,-1.5322082E-1,1.7457291E-1,9.7506806E-2,-1.4772256E-1,-7.57207E-2,1.9626999E-1,8.060895E-2,2.7216035E-1],"categories":[],"categories_nodes":[],"categories_segments":[],"categories_sizes":[],"default_left":[0,0,0,0,0,0,0,0,0,0,0,0,0,0,0,0,0,0,0,0,0,0,0,0,0,0,0,0,0,0,0,0,0,0,0,0,0,0,0,0,0,0,0,0,0,0,0,0,0,0,0,0,0,0,0,0,0,0,0,0,0,0,0,0,0],"id":11,"left_children":[1,3,5,7,9,11,13,15,-1,-1,17,19,21,23,25,27,29,31,33,35,37,39,41,-1,43,45,-1,-1,47,-1,-1,-1,-1,49,-1,51,53,55,57,59,61,-1,-1,-1,63,-1,-1,-1,-1,-1,-1,-1,-1,-1,-1,-1,-1,-1,-1,-1,-1,-1,-1,-1,-1],"loss_changes":[1.03256035E2,3.521881E0,1.5618332E1,7.7632904E-1,2.718292E0,8.467671E0,1.0609436E0,7.113457E-1,0E0,0E0,3.4727924E0,9.679396E0,5.338571E0,3.994789E-1,1.7930138E0,7.0142746E-1,1.5628749E0,1.6453311E0,2.091304E0,1.2433366E0,3.7779121E0,5.413146E0,6.1651945E-1,0E0,1.7936707E-1,1.7461672E-1,0E0,0E0,5.0359344E-1,0E0,0E0,0E0,0E0,4.8936093E-1,0E0,9.7323203E-1,4.510231E-1,2.237215E0,1.8994968E0,1.2290897E0,3.5164003E0,0E0,0E0,0E0,1.4072037E-1,0E0,0E0,0E0,0E0,0E0,0E0,0E0,0E0,0E0,0E0,0E0,0E0,0E0,0E0,0E0,0E0,0E0,0E0,0E0,0E0],"parents":[2147483647,0,0,1,1,2,2,3,3,4,4,5,5,6,6,7,7,10,10,11,11,12,12,13,13,14,14,15,15,16,16,17,17,18,18,19,19,20,20,21,21,22,22,24,24,25,25,28,28,33,33,35,35,36,36,37,37,38,38,39,39,40,40,44,44],"right_children":[2,4,6,8,10,12,14,16,-1,-1,18,20,22,24,26,28,30,32,34,36,38,40,42,-1,44,46,-1,-1,48,-1,-1,-1,-1,50,-1,52,54,56,58,60,62,-1,-1,-1,64,-1,-1,-1,-1,-1,-1,-1,-1,-1,-1,-1,-1,-1,-1,-1,-1,-1,-1,-1,-1],"split_conditions":[6.834154E0,4.5251412E0,6.0547442E0,2.46E-1,6.5741754E0,8.0289406E1,1.2370627E3,8.728881E0,5.2755903E-2,-1.6033912E-1,8.112137E0,4.739556E0,7.3869324E0,5.8346314E0,9.079493E1,-3.8337906E1,4.2464337E0,6.216803E0,7.936777E0,7.4628987E0,1.4125693E1,7.5559354E0,1.62E-1,5.8138862E-2,3.3248754E0,2.8E-2,2.2746664E-1,3.9891105E-2,4.5989864E1,1.8358527E-1,-1.3908264E-1,3.7100625E-1,-8.038385E-3,6.1696525E0,1.9066726E-1,4.5425076E0,2.3386723E1,4.802707E1,7.6360235E0,3.6165118E0,-1.2050386E1,-1.7354794E-1,3.553542E-2,7.987979E-2,5.2758284E0,9.9733565E-3,-1.24691814E-1,-1.7490102E-1,-7.475304E-3,3.7060544E-2,-1.5660667E-1,-9.715056E-2,1.8413919E-1,-1.6448198E-1,2.5105404E-2,2.3510471E-1,-5.755429E-2,-1.5322082E-1,1.7457291E-1,9.7506806E-2,-1.4772256E-1,-7.57207E-2,1.9626999E-1,8.060895E-2,2.7216035E-1],"split_indices":[39,24,29,40,44,100,120,129,0,0,98,19,14,34,121,46,13,54,4,27,98,39,40,0,97,5,0,0,96,0,0,0,0,114,0,3,128,7,9,97,46,0,0,0,104,0,0,0,0,0,0,0,0,0,0,0,0,0,0,0,0,0,0,0,0],"split_type":[0,0,0,0,0,0,0,0,0,0,0,0,0,0,0,0,0,0,0,0,0,0,0,0,0,0,0,0,0,0,0,0,0,0,0,0,0,0,0,0,0,0,0,0,0,0,0,0,0,0,0,0,0,0,0,0,0,0,0,0,0,0,0,0,0],"sum_hessian":[3.9368716E2,1.951121E2,1.9857507E2,1.7511282E2,1.9999279E1,1.1790238E2,8.067269E1,1.7409915E2,1.0136652E0,7.8035846E0,1.2195695E1,6.913121E1,4.8771164E1,7.5249344E1,5.4233522E0,1.7005276E2,4.0463862E0,3.8417664E0,8.353929E0,1.17021055E1,5.7429108E1,3.3889194E1,1.4881971E1,1.4775792E0,7.377176E1,2.4541557E0,2.9691968E0,1.0594441E0,1.6899333E2,1.0674198E0,2.9789665E0,2.4274652E0,1.4143013E0,6.8589582E0,1.4949701E0,2.6426525E0,9.059453E0,5.24289E1,5.000207E0,1.1359768E1,2.2529427E1,1.382968E1,1.0522908E0,1.4822203E0,7.228954E1,1.1773037E0,1.2768519E0,1.6726855E2,1.7247673E0,1.0125785E0,5.8463798E0,1.1467817E0,1.495871E0,8.047165E0,1.0122882E0,5.0334442E1,2.0944602E0,3.5062063E0,1.4940006E0,1.4908211E0,9.868946E0,4.9687824E0,1.7560644E1,1.3763726E0,7.091317E1],"tree_param":{"num_deleted":"0","num_feature":"140","num_nodes":"65","size_leaf_vector":"1"}},{"base_weights":[4.9021714E-3,-5.2458495E-1,1.7790148E-1,7.51865E-2,-5.422178E-1,-3.4199074E-1,3.2532224E-1,2.777324E-2,-5.515365E-1,2.9446507E-1,-4.7796395E-1,6.677116E-1,1.7193489E-1,-1.6815373E-1,-1.3594787E-1,-1.3244979E-1,6.527011E-1,-5.065907E-2,-5.226625E-1,-1.8004856E-1,7.241049E-1,-1.8243411E-1,3.155664E-1,-8.897019E-2,2.8530575E-2,2.2620197E-1,-3.767039E-4,-1.3055132E-1,1.6801453E-1,-5.441494E-1,4.6671376E-2,-1.2669432E-1,9.294493E-2,1.5244575E-1,7.566712E-1,1.1732161E-1,-4.1526723E-1,4.146806E-1,-3.0092266E-1,1.0389093E-2,-1.6802806E-1,-1.1805513E-1,1.72661E-1,2.3366442E-1,2.1418955E-3,-1.0411076E-1,1.6702424E-1,1.4620134E-1,-1.62533E-1,-6.795481E-2,1.52253E-1,9.389646E-2,-1.296081E-1],"categories":[],"categories_nodes":[],"categories_segments":[],"categories_sizes":[],"default_left":[0,0,0,0,0,0,0,0,0,0,0,0,0,0,0,0,0,0,0,0,0,0,0,0,0,0,0,0,0,0,0,0,0,0,0,0,0,0,0,0,0,0,0,0,0,0,0,0,0,0,0,0,0],"id":12,"left_children":[1,3,5,-1,7,9,11,-1,13,15,17,19,21,-1,23,-1,25,27,29,31,33,35,37,-1,-1,-1,-1,-1,-1,39,-1,-1,-1,41,43,45,47,49,51,-1,-1,-1,-1,-1,-1,-1,-1,-1,-1,-1,-1,-1,-1],"loss_changes":[3.2499325E1,1.3302441E0,2.0605396E1,0E0,5.5830574E-1,5.295141E0,1.0852966E1,0E0,2.3957634E-1,3.215556E0,9.181433E-1,3.202755E0,7.467E0,0E0,1.436151E-1,0E0,5.224397E-1,1.6035552E0,7.355747E-1,7.0157933E-1,1.0101452E0,3.0232415E0,6.4766283E0,0E0,0E0,0E0,0E0,0E0,0E0,4.2097664E-1,0E0,0E0,0E0,1.2684246E0,9.4241714E-1,4.1541686E0,3.0282388E0,5.4704943E0,1.3407022E0,0E0,0E0,0E0,0E0,0E0,0E0,0E0,0E0,0E0,0E0,0E0,0E0,0E0,0E0],"parents":[2147483647,0,0,1,1,2,2,4,4,5,5,6,6,8,8,9,9,10,10,11,11,12,12,14,14,16,16,17,17,18,18,19,19,20,20,21,21,22,22,29,29,33,33,34,34,35,35,36,36,37,37,38,38],"right_children":[2,4,6,-1,8,10,12,-1,14,16,18,20,22,-1,24,-1,26,28,30,32,34,36,38,-1,-1,-1,-1,-1,-1,40,-1,-1,-1,42,44,46,48,50,52,-1,-1,-1,-1,-1,-1,-1,-1,-1,-1,-1,-1,-1,-1],"split_conditions":[4.452424E0,4.745743E0,1.6775856E1,7.51865E-2,1.825417E0,5.6478605E0,6.132592E0,2.777324E-2,1.6773882E1,1.9157728E1,1.6510298E1,3.368207E0,4.0085686E1,-1.6815373E-1,3.6796544E0,-1.3244979E-1,2.1977859E0,3.5570061E0,1.2572058E1,1.2145223E1,7.6139402E0,4.847196E0,8.838222E2,-8.897019E-2,2.8530575E-2,2.2620197E-1,-3.767039E-4,-1.3055132E-1,1.6801453E-1,2.6625319E0,4.6671376E-2,-1.2669432E-1,9.294493E-2,1.125106E1,2.4886602E1,6.4711394E0,-2.7820354E1,4.053972E1,2.6929787E1,1.0389093E-2,-1.6802806E-1,-1.1805513E-1,1.72661E-1,2.3366442E-1,2.1418955E-3,-1.0411076E-1,1.6702424E-1,1.4620134E-1,-1.62533E-1,-6.795481E-2,1.52253E-1,9.389646E-2,-1.296081E-1],"split_indices":[68,54,95,0,79,64,64,0,138,138,133,33,95,0,29,0,66,33,21,1,27,48,70,0,0,0,0,0,0,109,0,0,0,42,111,69,61,90,121,0,0,0,0,0,0,0,0,0,0,0,0,0,0],"split_type":[0,0,0,0,0,0,0,0,0,0,0,0,0,0,0,0,0,0,0,0,0,0,0,0,0,0,0,0,0,0,0,0,0,0,0,0,0,0,0,0,0,0,0,0,0,0,0,0,0,0,0,0,0],"sum_hessian":[3.5277383E2,8.637611E1,2.6639774E2,1.6271533E0,8.4748955E1,5.856021E1,2.0783752E2,1.0968431E0,8.3652115E1,1.010336E1,4.8456852E1,6.326502E1,1.445725E2,8.154224E1,2.1098793E0,3.231697E0,6.871663E0,4.790875E0,4.3665977E1,3.809161E0,5.945586E1,4.1619164E1,1.0295334E2,1.0773623E0,1.032517E0,5.8174777E0,1.0541854E0,3.1162567E0,1.6746181E0,4.251672E1,1.149258E0,2.640956E0,1.168205E0,3.5107257E0,5.5945133E1,1.8411634E1,2.3207527E1,8.897586E1,1.3977481E1,1.1084267E0,4.140829E1,1.5633086E0,1.9474171E0,5.429704E1,1.6480926E0,9.054093E0,9.357542E0,2.5022898E0,2.0705236E1,1.1070302E1,7.7905556E1,2.2155573E0,1.1761923E1],"tree_param":{"num_deleted":"0","num_feature":"140","num_nodes":"53","size_leaf_vector":"1"}},{"base_weights":[-1.4318846E-2,4.671494E-1,-4.955094E-1,6.329099E-1,-3.421186E-1,-5.3772885E-1,1.2014398E-1,-3.9897986E-2,7.3967916E-1,2.063018E-1,-5.0142306E-1,1.2359579E-1,-5.506739E-1,2.3837985E-1,-1.4855444E-1,2.0996389E-1,-1.6002528E-1,1.6893499E-1,7.490949E-1,8.677274E-2,-1.6489306E-1,1.5490863E-1,-1.00434214E-1,-2.5284094E-1,-1.706556E-1,8.454193E-2,-8.80008E-3,4.5514277E-1,2.305791E-1,-1.5176243E-1,1.7461695E-1,1.9893114E-1,-1.08042575E-1],"categories":[],"categories_nodes":[],"categories_segments":[],"categories_sizes":[],"default_left":[0,0,0,0,0,0,0,0,0,0,0,0,0,0,0,0,0,0,0,0,0,0,0,0,0,0,0,0,0,0,0,0,0],"id":13,"left_children":[1,3,5,7,9,11,13,15,17,-1,19,21,23,-1,-1,-1,-1,25,27,-1,-1,-1,-1,29,-1,-1,-1,31,-1,-1,-1,-1,-1],"loss_changes":[7.7678955E1,2.2700672E1,4.422989E0,1.0048164E1,5.125896E0,1.4129715E0,5.1985545E0,7.6934643E0,5.2056885E-1,0E0,1.1433196E0,8.629053E-1,6.9137573E-1,0E0,0E0,0E0,0E0,8.089707E-2,3.276291E-1,0E0,0E0,0E0,0E0,2.5494235E0,0E0,0E0,0E0,1.9011004E0,0E0,0E0,0E0,0E0,0E0],"parents":[2147483647,0,0,1,1,2,2,3,3,4,4,5,5,6,6,7,7,8,8,10,10,11,11,12,12,17,17,18,18,23,23,27,27],"right_children":[2,4,6,8,10,12,14,16,18,-1,20,22,24,-1,-1,-1,-1,26,28,-1,-1,-1,-1,30,-1,-1,-1,32,-1,-1,-1,-1,-1],"split_conditions":[4.6169086E0,3.7342234E0,7.397565E1,3.6397367E0,1.4E-2,8.816391E0,5.7809067E0,3.6210263E0,1.8689668E0,2.063018E-1,4.6388025E0,5.2E-2,4.721435E0,2.3837985E-1,-1.4855444E-1,2.0996389E-1,-1.6002528E-1,4.305372E0,3.7482424E0,8.677274E-2,-1.6489306E-1,1.5490863E-1,-1.00434214E-1,4.838234E0,-1.706556E-1,8.454193E-2,-8.80008E-3,3.8820064E0,2.305791E-1,-1.5176243E-1,1.7461695E-1,1.9893114E-1,-1.08042575E-1],"split_indices":[68,24,127,13,25,136,69,68,89,0,39,5,68,0,0,0,0,38,13,0,0,0,0,3,0,0,0,68,0,0,0,0,0],"split_type":[0,0,0,0,0,0,0,0,0,0,0,0,0,0,0,0,0,0,0,0,0,0,0,0,0,0,0,0,0,0,0,0,0],"sum_hessian":[3.3328937E2,1.6661119E2,1.6667816E2,1.3846721E2,2.814399E1,1.5609991E2,1.0578246E1,1.9049961E1,1.19417244E2,3.3261366E0,2.4817854E1,2.8327985E0,1.5326712E2,4.907647E0,5.670599E0,7.4557614E0,1.15942E1,2.2455027E0,1.1717174E2,1.1392581E0,2.3678595E1,1.4574553E0,1.3753431E0,9.674074E0,1.4359305E2,1.162418E0,1.0830847E0,8.804273E0,1.0836746E2,7.7264833E0,1.9475915E0,7.163646E0,1.6406268E0],"tree_param":{"num_deleted":"0","num_feature":"140","num_nodes":"33","size_leaf_vector":"1"}},{"base_weights":[4.259578E-3,2.8119612E-1,-3.6284605E-1,-4.3133911E-1,4.5989478E-1,-1.212426E-2,-4.713504E-1,1.9143416E-1,-5.3133035E-1,5.699402E-1,2.5961217E-3,2.6939204E-1,-4.7928807E-1,-5.3132844E-1,-2.0547526E-2,2.173869E-2,-1.6545223E-1,6.54937E-1,1.0993329E-2,-4.117617E-1,5.5425817E-1,-3.1869745E-1,6.1837876E-1,-1.5933497E-1,2.9340355E-2,1.8063714E-1,-5.493861E-1,5.509336E-1,-2.8599888E-1,-4.0836215E-2,7.030442E-1,-3.5566622E-1,5.729091E-1,-5.1957786E-1,2.2332576E-1,-9.976386E-2,6.6887903E-1,-1.573182E-1,1.1576731E-1,7.5001776E-1,4.438255E-2,1.8691117E-1,-9.4823204E-2,-1.7033277E-1,1.5299071E-1,-9.334575E-2,2.623893E-1,-1.5419714E-1,1.5883455E-1,1.8141448E-1,-1.2329351E-1,2.1499328E-1,-5.589358E-2,1.1481842E-1,-1.5923224E-1,2.1900669E-1,-1.5905818E-2,-1.6867942E-1,2.003699E-2,-8.939734E-3,1.1221295E-1,9.111136E-3,2.3842292E-1,2.4386075E-1,9.189242E-3,1.3726802E-1,-1.1185559E-1,1.7315182E-1,-9.5655605E-2],"categories":[],"categories_nodes":[],"categories_segments":[],"categories_sizes":[],"default_left":[0,0,0,0,0,0,0,0,0,0,0,0,0,0,0,0,0,0,0,0,0,0,0,0,0,0,0,0,0,0,0,0,0,0,0,0,0,0,0,0,0,0,0,0,0,0,0,0,0,0,0,0,0,0,0,0,0,0,0,0,0,0,0,0,0,0,0,0,0],"id":14,"left_children":[1,3,5,7,9,11,13,-1,15,17,19,21,23,25,27,-1,-1,29,31,33,35,37,39,-1,-1,41,43,45,47,49,51,53,55,57,59,-1,61,-1,-1,63,65,-1,-1,-1,67,-1,-1,-1,-1,-1,-1,-1,-1,-1,-1,-1,-1,-1,-1,-1,-1,-1,-1,-1,-1,-1,-1,-1,-1],"loss_changes":[3.536346E1,2.544299E1,5.686407E0,4.645264E0,7.9996567E0,4.9120107E0,3.0770931E0,0E0,4.952526E-1,6.0810356E0,7.507283E0,4.98586E0,4.7171855E-1,1.3946247E0,2.3498056E0,0E0,0E0,3.7513428E0,3.8983474E0,1.4004996E0,1.6541367E0,1.5574157E0,1.0988684E0,0E0,0E0,9.0997916E-1,1.359312E0,1.6465471E0,2.229056E0,2.1929696E0,1.392395E0,1.6859869E0,7.7270174E-1,4.4647074E-1,1.4168938E-1,0E0,1.0049467E0,0E0,0E0,5.233431E-1,8.3571154E-1,0E0,0E0,0E0,8.4476197E-1,0E0,0E0,0E0,0E0,0E0,0E0,0E0,0E0,0E0,0E0,0E0,0E0,0E0,0E0,0E0,0E0,0E0,0E0,0E0,0E0,0E0,0E0,0E0,0E0],"parents":[2147483647,0,0,1,1,2,2,3,3,4,4,5,5,6,6,8,8,9,9,10,10,11,11,12,12,13,13,14,14,17,17,18,18,19,19,20,20,21,21,22,22,25,25,26,26,27,27,28,28,29,29,30,30,31,31,32,32,33,33,34,34,36,36,39,39,40,40,44,44],"right_children":[2,4,6,8,10,12,14,-1,16,18,20,22,24,26,28,-1,-1,30,32,34,36,38,40,-1,-1,42,44,46,48,50,52,54,56,58,60,-1,62,-1,-1,64,66,-1,-1,-1,68,-1,-1,-1,-1,-1,-1,-1,-1,-1,-1,-1,-1,-1,-1,-1,-1,-1,-1,-1,-1,-1,-1,-1,-1],"split_conditions":[3.8836641E0,4.115401E0,2.2147833E1,3.4191666E0,5.9123235E0,1.0578346E1,8.092338E0,1.9143416E-1,1.9418936E0,3.997044E1,4.9371924E0,4.9649525E0,3.880027E1,4E-3,7.659005E0,2.173869E-2,-1.6545223E-1,1.0108087E1,3.3224896E2,2.035403E1,1.6597849E1,1.7303883E1,5.176133E0,-1.5933497E-1,2.9340355E-2,7.5467486E0,1.6822438E2,6.5771084E0,2.2920296E1,4.770452E0,6.6753624E1,9.375173E0,3.4455564E0,1.4E-1,4.6802726E0,-9.976386E-2,2.9286196E0,-1.573182E-1,1.1576731E-1,5.9839234E0,5.282227E0,1.8691117E-1,-9.4823204E-2,-1.7033277E-1,2.51437E1,-9.334575E-2,2.623893E-1,-1.5419714E-1,1.5883455E-1,1.8141448E-1,-1.2329351E-1,2.1499328E-1,-5.589358E-2,1.1481842E-1,-1.5923224E-1,2.1900669E-1,-1.5905818E-2,-1.6867942E-1,2.003699E-2,-8.939734E-3,1.1221295E-1,9.111136E-3,2.3842292E-1,2.4386075E-1,9.189242E-3,1.3726802E-1,-1.1185559E-1,1.7315182E-1,-9.5655605E-2],"split_indices":[33,68,95,13,4,109,48,0,89,95,8,19,62,25,39,0,0,136,75,116,138,78,92,0,0,119,136,3,94,4,121,22,89,60,38,0,84,0,0,99,38,0,0,0,107,0,0,0,0,0,0,0,0,0,0,0,0,0,0,0,0,0,0,0,0,0,0,0,0],"split_type":[0,0,0,0,0,0,0,0,0,0,0,0,0,0,0,0,0,0,0,0,0,0,0,0,0,0,0,0,0,0,0,0,0,0,0,0,0,0,0,0,0,0,0,0,0,0,0,0,0,0,0,0,0,0,0,0,0,0,0,0,0,0,0,0,0,0,0,0,0],"sum_hessian":[3.4583954E2,1.9726279E2,1.4857677E2,3.92691E1,1.5799368E2,3.536788E1,1.13208885E2,2.8974824E0,3.6371616E1,1.2714976E2,3.0843933E1,2.2333124E1,1.3034758E1,9.9757774E1,1.3451108E1,1.0923401E0,3.5279278E1,1.1021765E2,1.6932102E1,1.7758774E1,1.3085159E1,8.349644E0,1.398348E1,1.2033674E1,1.0010831E0,2.2448802E0,9.751289E1,3.9252062E0,9.525902E0,7.1376023E0,1.0308005E2,1.0468365E1,6.4637384E0,1.533696E1,2.421813E0,1.2800823E0,1.1805078E1,6.6608343E0,1.6888098E0,1.1125357E1,2.8581243E0,1.0528446E0,1.1920356E0,9.521168E1,2.3012168E0,1.0820894E0,2.8431168E0,7.733398E0,1.7925043E0,2.3701591E0,4.767443E0,1.01718765E2,1.3612869E0,1.7793862E0,8.688978E0,5.0338883E0,1.4298501E0,1.4334531E1,1.0024292E0,1.2032609E0,1.2185522E0,2.1482568E0,9.65682E0,1.0111949E1,1.0134072E0,1.387483E0,1.4706414E0,1.0942584E0,1.2069585E0],"tree_param":{"num_deleted":"0","num_feature":"140","num_nodes":"69","size_leaf_vector":"1"}},{"base_weights":[4.5126774E-3,-4.780883E-1,4.1750643E-1,-5.515012E-1,-1.92445E-1,2.0299175E-1,6.735154E-1,5.0900064E-2,-5.587781E-1,-4.518327E-1,1.5799618E-1,-3.8341516E-1,2.9201934E-1,4.3136775E-1,7.5223994E-1,-1.6958216E-1,2.8291065E-2,-1.6224957E-1,6.479602E-2,7.9500794E-1,-1.08960494E-1,2.4945937E-1,-1.6047505E-1,6.996093E-1,1.6760778E-2,-1.5963198E-1,5.141925E-1,2.2887947E-1,3.3688927E-1,1.9853172E-1,-1.136343E-1,2.9506746E-1,1.7931238E-2,-3.473905E-1,1.8432832E-1,4.3643215E-3,1.1150692E-1,-1.1821142E-1,7.605237E-1,4.238045E-1,-2.1602955E-1,-1.2673397E-1,5.8966875E-1,1.3418363E-1,1.1630727E-2,1.1232314E-1,-1.5350567E-1,-2.438686E-2,2.3984605E-1,-9.67674E-2,2.0358257E-1,1.8916E-2,-1.4727144E-1,1.9885673E-1,-1.08768165E-1],"categories":[],"categories_nodes":[],"categories_segments":[],"categories_sizes":[],"default_left":[0,0,0,0,0,0,0,0,0,0,0,0,0,0,0,0,0,0,0,0,0,0,0,0,0,0,0,0,0,0,0,0,0,0,0,0,0,0,0,0,0,0,0,0,0,0,0,0,0,0,0,0,0,0,0],"id":15,"left_children":[1,3,5,7,9,11,13,-1,15,17,19,21,23,25,27,-1,-1,-1,29,31,33,35,-1,37,39,-1,41,-1,43,-1,-1,-1,-1,45,-1,-1,-1,-1,47,49,51,-1,53,-1,-1,-1,-1,-1,-1,-1,-1,-1,-1,-1,-1],"loss_changes":[6.976201E1,3.2786217E0,1.0220966E1,7.658615E-1,3.2108998E0,5.5440173E0,1.306427E0,0E0,5.913391E-1,9.595318E-1,2.7108207E0,1.4898665E0,1.0186888E1,2.135705E0,2.3715973E-2,0E0,0E0,0E0,1.2695663E0,5.8967876E-1,2.2407103E0,9.263234E-2,0E0,2.7391663E0,5.330041E0,0E0,1.8040962E0,0E0,9.380251E-2,0E0,0E0,0E0,0E0,1.3156674E0,0E0,0E0,0E0,0E0,1.2138958E0,4.108296E0,2.7797675E0,0E0,1.688026E0,0E0,0E0,0E0,0E0,0E0,0E0,0E0,0E0,0E0,0E0,0E0,0E0],"parents":[2147483647,0,0,1,1,2,2,3,3,4,4,5,5,6,6,8,8,9,9,10,10,11,11,12,12,13,13,14,14,18,18,19,19,20,20,21,21,23,23,24,24,26,26,28,28,33,33,38,38,39,39,40,40,42,42],"right_children":[2,4,6,8,10,12,14,-1,16,18,20,22,24,26,28,-1,-1,-1,30,32,34,36,-1,38,40,-1,42,-1,44,-1,-1,-1,-1,46,-1,-1,-1,-1,48,50,52,-1,54,-1,-1,-1,-1,-1,-1,-1,-1,-1,-1,-1,-1],"split_conditions":[6.834154E0,3.2855582E0,5.7038455E0,1.2530813E1,6.6202903E0,6.529512E0,8E-2,5.0900064E-2,2.1655895E1,1.7355051E1,3.4386296E0,1.6478113E1,4.577646E0,1.5411306E1,1.0219682E1,-1.6958216E-1,2.8291065E-2,-1.6224957E-1,3.7733712E0,8.154338E0,9.789161E0,1.54E-1,-1.6047505E-1,2.6422327E0,1.24773056E2,-1.5963198E-1,4.78916E0,2.2887947E-1,1.9184456E1,1.9853172E-1,-1.136343E-1,2.9506746E-1,1.7931238E-2,5.7402763E0,1.8432832E-1,4.3643215E-3,1.1150692E-1,-1.1821142E-1,5.756698E0,6.8822875E0,6.9545074E0,-1.2673397E-1,2.2920296E1,1.3418363E-1,1.1630727E-2,1.1232314E-1,-1.5350567E-1,-2.438686E-2,2.3984605E-1,-9.67674E-2,2.0358257E-1,1.8916E-2,-1.4727144E-1,1.9885673E-1,-1.08768165E-1],"split_indices":[39,23,29,85,44,64,20,0,134,61,91,90,13,121,21,0,0,0,13,101,41,20,0,28,75,0,97,0,1,0,0,0,0,114,0,0,0,0,59,9,89,0,94,0,0,0,0,0,0,0,0,0,0,0,0],"split_type":[0,0,0,0,0,0,0,0,0,0,0,0,0,0,0,0,0,0,0,0,0,0,0,0,0,0,0,0,0,0,0,0,0,0,0,0,0,0,0,0,0,0,0,0,0,0,0,0,0,0,0,0,0,0,0],"sum_hessian":[3.4801407E2,1.6041022E2,1.8760385E2,1.26872185E2,3.353803E1,1.0304958E2,8.455427E1,1.0444827E0,1.258277E2,1.9106531E1,1.4431499E1,1.3146897E1,8.990269E1,2.2334719E1,6.221955E1,1.2472164E2,1.1060569E0,1.6258797E1,2.8477352E0,3.6777096E0,1.0753789E1,2.4144273E0,1.07324705E1,3.5618637E1,5.428405E1,1.3386097E0,2.0996109E1,5.98423E1,2.377249E0,1.004268E0,1.8434671E0,2.6582608E0,1.0194488E0,8.478901E0,2.2748876E0,1.2093071E0,1.2051201E0,1.5907019E0,3.4027935E1,1.9451588E1,3.4832462E1,1.2229209E0,1.9773188E1,1.3697282E0,1.0075208E0,1.3349864E0,7.1439147E0,1.4572486E0,3.2570686E1,4.8828936E0,1.4568694E1,1.7666325E1,1.716614E1,1.8644117E1,1.12907E0],"tree_param":{"num_deleted":"0","num_feature":"140","num_nodes":"55","size_leaf_vector":"1"}},{"base_weights":[6.1733983E-3,-5.007211E-1,1.5310238E-1,6.420943E-2,-5.206543E-1,-3.1687054E-1,2.7385482E-1,2.8167518E-2,-5.3168225E-1,2.5014645E-1,-4.4847444E-1,5.15761E-1,9.622253E-2,-2.9409222E-2,-1.6266681E-1,-1.2253059E-1,5.4588836E-1,-3.3895254E-2,-4.9642757E-1,-1.418441E-1,6.016624E-1,-1.1081893E-1,4.3676633E-1,1.9251496E-1,-6.9731893E-3,-1.2242444E-1,1.4953193E-1,-5.2193356E-1,4.6917453E-2,-3.8745397E-1,1.2844051E-1,-8.666087E-2,6.314227E-1,-4.362442E-1,4.049273E-2,6.1006916E-1,-4.2266825E-1,1.1786673E-2,-1.6191204E-1,-1.4349353E-1,3.243254E-2,-1.1170208E-1,9.543421E-2,1.9554584E-1,-5.5967204E-2,1.2485096E-1,-1.5767972E-1,5.4835178E-2,-1.18476234E-1,-1.4125338E-1,2.103877E-1,-1.5231484E-1,2.2550268E-2],"categories":[],"categories_nodes":[],"categories_segments":[],"categories_sizes":[],"default_left":[0,0,0,0,0,0,0,0,0,0,0,0,0,0,0,0,0,0,0,0,0,0,0,0,0,0,0,0,0,0,0,0,0,0,0,0,0,0,0,0,0,0,0,0,0,0,0,0,0,0,0,0,0],"id":16,"left_children":[1,3,5,-1,7,9,11,-1,13,15,17,19,21,-1,-1,-1,23,25,27,29,31,33,35,-1,-1,-1,-1,37,-1,39,-1,41,43,45,47,49,51,-1,-1,-1,-1,-1,-1,-1,-1,-1,-1,-1,-1,-1,-1,-1,-1],"loss_changes":[2.3162024E1,1.1071854E0,1.3767824E1,0E0,5.126991E-1,3.82405E0,8.214928E0,0E0,2.541542E-1,2.173051E0,7.9290485E-1,4.6724777E0,7.9541683E0,0E0,0E0,0E0,4.1509414E-1,1.2583262E0,6.882839E-1,1.5925658E0,1.5298767E0,3.4906106E0,6.60248E0,0E0,0E0,0E0,0E0,3.7326145E-1,0E0,3.960247E-1,0E0,5.652412E-1,1.2752838E0,1.9302559E0,3.1116958E0,3.8660336E0,3.6583376E-1,0E0,0E0,0E0,0E0,0E0,0E0,0E0,0E0,0E0,0E0,0E0,0E0,0E0,0E0,0E0,0E0],"parents":[2147483647,0,0,1,1,2,2,4,4,5,5,6,6,8,8,9,9,10,10,11,11,12,12,16,16,17,17,18,18,19,19,20,20,21,21,22,22,27,27,29,29,31,31,32,32,33,33,34,34,35,35,36,36],"right_children":[2,4,6,-1,8,10,12,-1,14,16,18,20,22,-1,-1,-1,24,26,28,30,32,34,36,-1,-1,-1,-1,38,-1,40,-1,42,44,46,48,50,52,-1,-1,-1,-1,-1,-1,-1,-1,-1,-1,-1,-1,-1,-1,-1,-1],"split_conditions":[4.452424E0,4.745743E0,1.6775856E1,6.420943E-2,1.825417E0,5.6478605E0,6.7674284E0,2.8167518E-2,2.530369E0,1.9157728E1,1.6510298E1,3.4342504E0,4.4003185E1,-2.9409222E-2,-1.6266681E-1,-1.2253059E-1,2.0217997E1,1.834108E1,1.2572058E1,5.81724E0,7.0805774E0,4.5609508E0,7.3631444E0,1.9251496E-1,-6.9731893E-3,-1.2242444E-1,1.4953193E-1,1.025842E1,4.6917453E-2,2.2849686E1,1.2844051E-1,7.543984E0,4.5989864E1,-2.524864E1,4.8458667E2,9.9495285E1,4.2267246E1,1.1786673E-2,-1.6191204E-1,-1.4349353E-1,3.243254E-2,-1.1170208E-1,9.543421E-2,1.9554584E-1,-5.5967204E-2,1.2485096E-1,-1.5767972E-1,5.4835178E-2,-1.18476234E-1,-1.4125338E-1,2.103877E-1,-1.5231484E-1,2.2550268E-2],"split_indices":[68,54,95,0,79,64,64,0,114,138,133,33,128,0,0,0,52,128,21,4,22,96,8,0,0,0,0,108,0,66,0,109,96,46,120,130,56,0,0,0,0,0,0,0,0,0,0,0,0,0,0,0,0],"split_type":[0,0,0,0,0,0,0,0,0,0,0,0,0,0,0,0,0,0,0,0,0,0,0,0,0,0,0,0,0,0,0,0,0,0,0,0,0,0,0,0,0,0,0,0,0,0,0,0,0,0,0,0,0],"sum_hessian":[3.0896426E2,6.8890175E1,2.400741E2,1.6049145E0,6.728526E1,4.8742477E1,1.9133162E2,1.0536723E0,6.623159E1,9.012266E0,3.973021E1,8.020372E1,1.111279E2,1.8160619E0,6.441553E1,2.6747859E0,6.3374805E0,4.2959957E0,3.5434216E1,9.191139E0,7.101258E1,6.9530075E1,4.1597824E1,5.315024E0,1.0224566E0,2.659797E0,1.6361986E0,3.4294792E1,1.1394231E0,6.6470766E0,2.5440626E0,2.8638072E0,6.814877E1,2.1470495E1,4.8059578E1,3.485879E1,6.739036E0,1.0155743E0,3.3279217E1,5.64662E0,1.000457E0,1.7258666E0,1.1379406E0,6.6688995E1,1.4597844E0,1.6900944E0,1.9780401E1,3.665959E1,1.1399985E1,2.3890622E0,3.2469727E1,5.7388005E0,1.0002357E0],"tree_param":{"num_deleted":"0","num_feature":"140","num_nodes":"53","size_leaf_vector":"1"}},{"base_weights":[-1.8092545E-2,4.201164E-1,-4.7482595E-1,5.6269276E-1,-3.1236994E-1,-5.186063E-1,9.9856436E-2,-4.322803E-2,6.5648144E-1,1.799115E-1,-4.7534385E-1,-1.4440261E-1,-5.4567415E-1,2.0421909E-1,-1.4193256E-1,1.8313554E-1,-1.527285E-1,1.4838657E-1,6.6578895E-1,7.5267695E-2,-1.5808742E-1,-1.424248E-1,1.3508092E-1,4.285959E-3,-1.6536796E-1,7.7155925E-2,-1.062649E-2,3.9831617E-1,6.8300205E-1,1.7516369E-1,-9.832277E-2,5.38533E-2,2.0597145E-1],"categories":[],"categories_nodes":[],"categories_segments":[],"categories_sizes":[],"default_left":[0,0,0,0,0,0,0,0,0,0,0,0,0,0,0,0,0,0,0,0,0,0,0,0,0,0,0,0,0,0,0,0,0],"id":17,"left_children":[1,3,5,7,9,11,13,15,17,-1,19,21,23,-1,-1,-1,-1,25,27,-1,-1,-1,-1,-1,-1,-1,-1,29,31,-1,-1,-1,-1],"loss_changes":[5.63042E1,1.517185E1,3.5170097E0,6.879242E0,3.8583133E0,1.2191277E0,3.8460317E0,5.517327E0,3.9518738E-1,0E0,9.1759586E-1,2.178954E0,3.7828445E-1,0E0,0E0,0E0,0E0,7.242149E-2,1.9889832E-1,0E0,0E0,0E0,0E0,0E0,0E0,0E0,0E0,1.3478736E0,4.695511E-2,0E0,0E0,0E0,0E0],"parents":[2147483647,0,0,1,1,2,2,3,3,4,4,5,5,6,6,7,7,8,8,10,10,11,11,12,12,17,17,18,18,27,27,28,28],"right_children":[2,4,6,8,10,12,14,16,18,-1,20,22,24,-1,-1,-1,-1,26,28,-1,-1,-1,-1,-1,-1,-1,-1,30,32,-1,-1,-1,-1],"split_conditions":[4.6169086E0,3.7342234E0,7.397565E1,3.6397367E0,1.4E-2,1.25699215E1,5.7809067E0,3.6210263E0,1.8689668E0,1.799115E-1,4.6388025E0,6.911771E0,4.9248E0,2.0421909E-1,-1.4193256E-1,1.8313554E-1,-1.527285E-1,4.305372E0,3.7482424E0,7.5267695E-2,-1.5808742E-1,-1.424248E-1,1.3508092E-1,4.285959E-3,-1.6536796E-1,7.7155925E-2,-1.062649E-2,3.8820064E0,1.2222476E0,1.7516369E-1,-9.832277E-2,5.38533E-2,2.0597145E-1],"split_indices":[68,24,127,13,25,136,69,68,89,0,39,48,69,0,0,0,0,38,13,0,0,0,0,0,0,0,0,68,104,0,0,0,0],"split_type":[0,0,0,0,0,0,0,0,0,0,0,0,0,0,0,0,0,0,0,0,0,0,0,0,0,0,0,0,0,0,0,0,0],"sum_hessian":[2.7932083E2,1.4259216E2,1.3672867E2,1.19553276E2,2.3038895E1,1.2714046E2,9.58821E0,1.609712E1,1.03456154E2,3.0863786E0,1.9952517E1,9.003604E0,1.1813685E2,4.667847E0,4.9203634E0,6.5692043E0,9.527917E0,2.1658452E0,1.01290306E2,1.0677574E0,1.888476E1,5.9178424E0,3.0857615E0,1.1444569E0,1.1699239E2,1.1097503E0,1.0560948E0,7.5839562E0,9.370635E1,6.1961875E0,1.3877689E0,1.0207042E0,9.2685646E1],"tree_param":{"num_deleted":"0","num_feature":"140","num_nodes":"33","size_leaf_vector":"1"}},{"base_weights":[4.5944853E-3,2.2837971E-1,-3.7401527E-1,-4.1469905E-1,3.7188604E-1,2.6465058E-2,-4.2797905E-1,1.6372576E-1,-5.1081026E-1,4.726967E-1,-4.3022344E-3,5.3909427E-1,-4.1295147E-1,-4.491711E-1,1.1771271E-1,1.5660217E-2,-1.5961629E-1,5.568045E-1,-3.9591193E-2,-4.2094502E-1,3.9374316E-1,4.3297734E-2,1.8015338E-1,2.0976711E-2,-1.4734942E-1,2.6195365E-1,-4.7383258E-1,6.170896E-1,1.09921895E-1,-3.6731654E-1,5.179221E-1,-1.5901262E-1,9.760059E-2,-1.139716E-1,5.4410213E-1,-1.0148736E-1,2.3106575E-1,4.8111986E-2,-4.870489E-1,5.690129E-3,1.917949E-1,-1.4583188E-1,1.6411541E-1,8.313288E-2,-1.5369242E-1,-2.1550983E-2,1.982656E-1,1.3011946E-1,-1.3368873E-1,-3.0924242E-2,1.8461135E-1,-8.68955E-2,1.0688838E-1,-2.346413E-2,-1.5198371E-1],"categories":[],"categories_nodes":[],"categories_segments":[],"categories_sizes":[],"default_left":[0,0,0,0,0,0,0,0,0,0,0,0,0,0,0,0,0,0,0,0,0,0,0,0,0,0,0,0,0,0,0,0,0,0,0,0,0,0,0,0,0,0,0,0,0,0,0,0,0,0,0,0,0,0,0],"id":18,"left_children":[1,3,5,7,9,11,13,-1,15,17,19,21,23,25,-1,-1,-1,27,29,31,33,-1,-1,-1,-1,35,37,39,41,43,45,-1,-1,47,49,-1,-1,51,53,-1,-1,-1,-1,-1,-1,-1,-1,-1,-1,-1,-1,-1,-1,-1,-1],"loss_changes":[2.5359262E1,1.751342E1,2.4143896E0,3.490302E0,5.854122E0,3.4090483E0,1.8808117E0,0E0,4.1221714E-1,5.2661266E0,5.7386894E0,8.2144976E-2,3.433919E-1,1.8085098E0,0E0,0E0,0E0,2.750412E0,3.4968977E0,1.5485227E0,1.413384E0,0E0,0E0,0E0,0E0,1.4391435E0,6.662216E-1,1.2103996E0,3.822676E0,1.2615943E0,6.4736116E-1,0E0,0E0,1.0781826E0,7.013607E-1,0E0,0E0,4.37478E-1,6.8798256E-1,0E0,0E0,0E0,0E0,0E0,0E0,0E0,0E0,0E0,0E0,0E0,0E0,0E0,0E0,0E0,0E0],"parents":[2147483647,0,0,1,1,2,2,3,3,4,4,5,5,6,6,8,8,9,9,10,10,11,11,12,12,13,13,17,17,18,18,19,19,20,20,25,25,26,26,27,27,28,28,29,29,30,30,33,33,34,34,37,37,38,38],"right_children":[2,4,6,8,10,12,14,-1,16,18,20,22,24,26,-1,-1,-1,28,30,32,34,-1,-1,-1,-1,36,38,40,42,44,46,-1,-1,48,50,-1,-1,52,54,-1,-1,-1,-1,-1,-1,-1,-1,-1,-1,-1,-1,-1,-1,-1,-1],"split_conditions":[4.8762956E0,4.115401E0,1.3321127E1,3.4191666E0,5.9123235E0,6.6944942E0,2.2920296E1,1.6372576E-1,1.9418936E0,3.997044E1,5.8754263E0,-5.88351E0,1.5679303E1,4E-3,1.1771271E-1,1.5660217E-2,-1.5961629E-1,2.3751223E1,3.3636105E2,6.9087315E0,1.9064127E1,4.3297734E-2,1.8015338E-1,2.0976711E-2,-1.4734942E-1,6.4E-2,-4.876574E1,5.1524334E0,5.382902E0,9.375173E0,4.87387E0,-1.5901262E-1,9.760059E-2,5.8450756E0,1.5108144E1,-1.0148736E-1,2.3106575E-1,5.5624687E1,1.012267E1,5.690129E-3,1.917949E-1,-1.4583188E-1,1.6411541E-1,8.313288E-2,-1.5369242E-1,-2.1550983E-2,1.982656E-1,1.3011946E-1,-1.3368873E-1,-3.0924242E-2,1.8461135E-1,-8.68955E-2,1.0688838E-1,-2.346413E-2,-1.5198371E-1],"split_indices":[34,68,95,13,4,39,94,0,89,95,9,46,52,25,0,0,0,118,75,53,138,0,0,0,0,55,61,64,69,22,49,0,0,59,123,0,0,2,47,0,0,0,0,0,0,0,0,0,0,0,0,0,0,0,0],"split_type":[0,0,0,0,0,0,0,0,0,0,0,0,0,0,0,0,0,0,0,0,0,0,0,0,0,0,0,0,0,0,0,0,0,0,0,0,0,0,0,0,0,0,0,0,0,0,0,0,0,0,0,0,0,0,0],"sum_hessian":[2.9729648E2,1.8710245E2,1.1019402E2,3.379061E1,1.5331183E2,1.3145701E1,9.704832E1,2.648224E0,3.114239E1,1.2070804E2,3.260379E1,5.962697E0,7.183004E0,9.50455E1,2.002822E0,1.0793822E0,3.0063007E1,1.0361032E2,1.709772E1,1.5901653E1,1.6702139E1,1.253774E0,4.708923E0,1.0160576E0,6.1669464E0,2.863153E0,9.218234E1,9.095894E1,1.265138E1,1.0982803E1,6.114915E0,1.4126314E1,1.775339E0,3.8714564E0,1.2830682E1,1.4661263E0,1.3970267E0,2.2113307E0,8.9971016E1,3.3254008E0,8.763354E1,5.3054E0,7.3459797E0,1.8498383E0,9.132965E0,1.290168E0,4.824747E0,1.3440714E0,2.5273848E0,1.2285004E0,1.1602181E1,1.0837197E0,1.127611E0,4.336899E0,8.563412E1],"tree_param":{"num_deleted":"0","num_feature":"140","num_nodes":"55","size_leaf_vector":"1"}},{"base_weights":[5.916919E-3,-4.5805186E-1,3.5031393E-1,-5.387278E-1,-1.6637242E-1,1.8631987E-1,6.254462E-1,4.934953E-2,-1.643059E-1,-4.1803724E-1,1.5931821E-1,2.896475E-1,-2.3396923E-1,6.471944E-1,-3.6871538E-3,-1.5550545E-1,9.4006196E-2,5.310576E-1,-2.985955E-1,-3.6758184E-1,3.9832947E-1,-3.8693693E-1,1.8841976E-1,-2.118592E-2,6.6138554E-1,1.8986374E-2,-1.9555882E-2,1.8013723E-1,-1.04428135E-1,8.106341E-1,-1.5826374E-1,-1.4412805E-1,9.852181E-2,1.9087444E-1,-1.537384E-1,5.493466E-1,8.4542066E-2,-5.650375E-1,3.210227E-1,6.74208E-1,-1.1241572E-2,2.8948328E-1,1.226005E-2,1.870533E-2,-8.9008585E-2,-9.398166E-3,1.0197816E-1,-1.3300395E-1,1.7783436E-1,7.854636E-2,-1.6264287E-1,-1.8301024E-1,8.5399775E-3,-9.996425E-2,1.9973333E-1,3.981161E-2,2.0557515E-1],"categories":[],"categories_nodes":[],"categories_segments":[],"categories_sizes":[],"default_left":[0,0,0,0,0,0,0,0,0,0,0,0,0,0,0,0,0,0,0,0,0,0,0,0,0,0,0,0,0,0,0,0,0,0,0,0,0,0,0,0,0,0,0,0,0,0,0,0,0,0,0,0,0,0,0,0,0],"id":19,"left_children":[1,3,5,7,9,11,13,-1,-1,15,17,19,21,23,25,-1,27,29,31,33,35,37,-1,-1,39,-1,-1,-1,-1,41,43,-1,-1,45,-1,47,49,51,53,55,-1,-1,-1,-1,-1,-1,-1,-1,-1,-1,-1,-1,-1,-1,-1,-1,-1],"loss_changes":[4.843726E1,2.9495144E0,7.7332478E0,7.2462845E-1,2.478778E0,4.863364E0,8.855591E-1,0E0,0E0,9.156349E-1,2.4654727E0,6.5095496E0,3.189427E0,6.8231773E-1,1.7104572E-2,0E0,1.0175848E0,1.6391592E0,9.230383E-1,1.1626493E0,3.5987034E0,2.6521723E0,0E0,0E0,5.7442856E-1,0E0,0E0,0E0,0E0,6.424916E-1,1.131377E-1,0E0,0E0,1.2456831E-1,0E0,2.4940405E0,3.049865E0,4.4516945E-1,1.2540798E0,2.6922035E-1,0E0,0E0,0E0,0E0,0E0,0E0,0E0,0E0,0E0,0E0,0E0,0E0,0E0,0E0,0E0,0E0,0E0],"parents":[2147483647,0,0,1,1,2,2,3,3,4,4,5,5,6,6,9,9,10,10,11,11,12,12,13,13,14,14,16,16,17,17,18,18,19,19,20,20,21,21,24,24,29,29,30,30,33,33,35,35,36,36,37,37,38,38,39,39],"right_children":[2,4,6,8,10,12,14,-1,-1,16,18,20,22,24,26,-1,28,30,32,34,36,38,-1,-1,40,-1,-1,-1,-1,42,44,-1,-1,46,-1,48,50,52,54,56,-1,-1,-1,-1,-1,-1,-1,-1,-1,-1,-1,-1,-1,-1,-1,-1,-1],"split_conditions":[6.789545E0,3.2855582E0,4.833034E0,1.2530813E1,6.6202903E0,6.1312585E0,4.8616142E1,4.934953E-2,-1.643059E-1,1.4406403E1,4.864336E0,6.529512E0,1.56E-1,2.2960231E0,6.5607862E0,-1.5550545E-1,8.315496E0,8.112137E0,7.936777E0,2.8495657E0,2.1105946E1,1.42E-1,1.8841976E-1,-2.118592E-2,6.2045615E3,1.8986374E-2,-1.9555882E-2,1.8013723E-1,-1.04428135E-1,4.53751E0,1.9489033E1,-1.4412805E-1,9.852181E-2,1.849466E0,-1.537384E-1,-4.0573933E1,1.3477872E1,5.661587E1,8.066251E0,3.3248754E0,-1.1241572E-2,2.8948328E-1,1.226005E-2,1.870533E-2,-8.9008585E-2,-9.398166E-3,1.0197816E-1,-1.3300395E-1,1.7783436E-1,7.854636E-2,-1.6264287E-1,-1.8301024E-1,8.5399775E-3,-9.996425E-2,1.9973333E-1,3.981161E-2,2.0557515E-1],"split_indices":[39,23,28,85,44,13,41,0,0,1,14,64,25,94,24,0,82,98,4,91,81,50,0,0,70,0,0,0,0,97,121,0,0,41,0,6,124,37,9,97,0,0,0,0,0,0,0,0,0,0,0,0,0,0,0,0,0],"split_type":[0,0,0,0,0,0,0,0,0,0,0,0,0,0,0,0,0,0,0,0,0,0,0,0,0,0,0,0,0,0,0,0,0,0,0,0,0,0,0,0,0,0,0,0,0,0,0,0,0,0,0,0,0,0,0,0,0],"sum_hessian":[3.0112753E2,1.2815208E2,1.7297543E2,9.972269E1,2.84294E1,1.0942768E2,6.3547752E1,1.0359948E0,9.868669E1,1.5877294E1,1.2552106E1,8.808333E1,2.1344357E1,6.1396656E1,2.1510944E0,1.326603E1,2.611263E0,6.839771E0,5.7123346E0,1.2160898E1,7.592243E1,1.8595695E1,2.7486615E0,1.1131909E0,6.0283466E1,1.0157807E0,1.1353136E0,1.0501087E0,1.5611544E0,4.740941E0,2.09883E0,4.609379E0,1.1029556E0,2.439617E0,9.721281E0,5.074809E1,2.517434E1,1.5019209E1,3.5764859E0,5.9231964E1,1.0515013E0,3.7380462E0,1.0028946E0,1.0211067E0,1.0777233E0,1.2965696E0,1.1430473E0,1.7413983E0,4.900669E1,2.007707E1,5.097269E0,1.3934882E1,1.0843266E0,1.2458085E0,2.3306775E0,1.4438891E0,5.778808E1],"tree_param":{"num_deleted":"0","num_feature":"140","num_nodes":"57","size_leaf_vector":"1"}},{"base_weights":[7.6684975E-3,-4.7969574E-1,1.3487926E-1,-8.67764E-2,-1.5860507E-1,-2.926392E-1,2.3638098E-1,-1.274833E-1,3.7943095E-1,2.6297164E-1,-4.168597E-1,4.583989E-1,8.240735E-2,5.9734E-4,1.653579E-1,-2.67966E-1,5.1126784E-1,1.21362135E-1,-4.5994127E-1,-1.2776345E-1,5.3412765E-1,-3.141514E-1,2.2639298E-1,-1.8451346E-2,-9.983236E-2,1.7812839E-1,3.2892957E-2,1.2579234E-1,-8.275737E-2,4.875889E-2,-4.9434683E-1,-1.340404E-1,2.4572085E-1,-5.8086224E-2,5.680248E-1,1.612576E-1,-4.1975644E-1,3.0219582E-1,-4.907561E-1,-1.5756707E-1,4.7350403E-2,1.4588133E-1,-8.869088E-2,1.1844725E-1,-1.2847333E-1,1.7648014E-1,-9.013852E-2,1.3591447E-2,-1.7003967E-1,-4.213652E-2,1.1876129E-1,1.832929E-2,-1.7783569E-1],"categories":[],"categories_nodes":[],"categories_segments":[],"categories_sizes":[],"default_left":[0,0,0,0,0,0,0,0,0,0,0,0,0,0,0,0,0,0,0,0,0,0,0,0,0,0,0,0,0,0,0,0,0,0,0,0,0,0,0,0,0,0,0,0,0,0,0,0,0,0,0,0,0],"id":20,"left_children":[1,3,5,7,-1,9,11,-1,13,15,17,19,21,-1,-1,23,25,27,29,31,33,35,37,-1,-1,-1,-1,-1,-1,-1,39,-1,41,43,45,-1,47,49,51,-1,-1,-1,-1,-1,-1,-1,-1,-1,-1,-1,-1,-1,-1],"loss_changes":[1.6659035E1,1.0247526E0,9.313675E0,1.3219645E0,0E0,2.9615734E0,5.8664827E0,0E0,2.3381454E-1,1.2132062E0,8.478589E-1,3.1981392E0,5.964014E0,0E0,0E0,2.3118004E-2,1.3057911E-1,5.0891674E-1,7.6214695E-1,1.1672021E0,1.290369E0,2.7358713E0,4.2958736E0,0E0,0E0,0E0,0E0,0E0,0E0,0E0,6.953778E-1,0E0,7.601651E-1,8.896821E-1,1.2199173E0,0E0,1.7621021E0,2.9424586E0,4.6834052E-1,0E0,0E0,0E0,0E0,0E0,0E0,0E0,0E0,0E0,0E0,0E0,0E0,0E0,0E0],"parents":[2147483647,0,0,1,1,2,2,3,3,5,5,6,6,8,8,9,9,10,10,11,11,12,12,15,15,16,16,17,17,18,18,19,19,20,20,21,21,22,22,30,30,32,32,33,33,34,34,36,36,37,37,38,38],"right_children":[2,4,6,8,-1,10,12,-1,14,16,18,20,22,-1,-1,24,26,28,30,32,34,36,38,-1,-1,-1,-1,-1,-1,-1,40,-1,42,44,46,-1,48,50,52,-1,-1,-1,-1,-1,-1,-1,-1,-1,-1,-1,-1,-1,-1],"split_conditions":[4.452424E0,4.6E-2,1.6775856E1,1.1224278E1,-1.5860507E-1,4.5894537E0,6.7674284E0,-1.274833E-1,4.0054736E0,3.3980968E0,4.202328E0,3.4342504E0,4.560462E0,5.9734E-4,1.653579E-1,2.8554392E0,3.9220319E0,4.0124226E0,9.33749E0,5.1357927E0,6.711318E1,4.5370564E0,1.1140324E2,-1.8451346E-2,-9.983236E-2,1.7812839E-1,3.2892957E-2,1.2579234E-1,-8.275737E-2,4.875889E-2,8.8972025E0,-1.340404E-1,3.0590544E0,5.820858E0,1.64E-1,1.612576E-1,3.006048E0,3.946233E1,4.2260925E1,-1.5756707E-1,4.7350403E-2,1.4588133E-1,-8.869088E-2,1.1844725E-1,-1.2847333E-1,1.7648014E-1,-9.013852E-2,1.3591447E-2,-1.7003967E-1,-4.213652E-2,1.1876129E-1,1.832929E-2,-1.7783569E-1],"split_indices":[68,40,95,27,0,134,64,0,68,29,43,33,13,0,0,96,79,8,137,68,135,43,136,0,0,0,0,0,0,0,91,0,23,64,25,0,23,95,126,0,0,0,0,0,0,0,0,0,0,0,0,0,0],"split_type":[0,0,0,0,0,0,0,0,0,0,0,0,0,0,0,0,0,0,0,0,0,0,0,0,0,0,0,0,0,0,0,0,0,0,0,0,0,0,0,0,0,0,0,0,0,0,0,0,0,0,0,0,0],"sum_hessian":[2.6665927E2,5.4622208E1,2.1203705E2,6.3623886E0,4.825982E1,4.0321693E1,1.7171536E2,3.738871E0,2.6235175E0,7.1635857E0,3.3158108E1,6.951011E1,1.0220525E2,1.1368753E0,1.4866424E0,2.2573726E0,4.906213E0,2.3227496E0,3.0835358E1,7.8742228E0,6.1635883E1,2.6909765E1,7.529549E1,1.0049394E0,1.2524333E0,3.6733177E0,1.2328953E0,1.2954537E0,1.027296E0,1.4200293E0,2.9415327E1,4.1407795E0,3.7334435E0,3.2982843E0,5.83376E1,2.5174263E0,2.4392338E1,6.8620865E1,6.674627E0,2.8271515E1,1.1438133E0,2.6553175E0,1.0781258E0,1.4533672E0,1.8449169E0,5.7324165E1,1.0134357E0,6.025853E0,1.8366486E1,1.1898152E1,5.672271E1,1.104082E0,5.570545E0],"tree_param":{"num_deleted":"0","num_feature":"140","num_nodes":"53","size_leaf_vector":"1"}},{"base_weights":[-2.204907E-2,3.8654998E-1,-4.5613843E-1,5.0988865E-1,-3.1880802E-1,-5.0832987E-1,5.0692223E-2,-3.4563057E-2,5.90508E-1,-4.093691E-1,1.5088463E-1,-1.3463967E-1,-1.6148585E-1,1.820144E-1,-1.4065325E-1,1.6483617E-1,-1.4517646E-1,6.016291E-1,-3.798457E-2,7.9657465E-2,-4.880327E-1,-1.3572118E-1,3.942664E-1,6.167399E-1,1.2690486E-1,-1.527405E-1,-2.715653E-2,3.4140386E-2,1.4107692E-1,7.391158E-2,1.8685193E-1,-9.674742E-2,1.4664276E-1],"categories":[],"categories_nodes":[],"categories_segments":[],"categories_sizes":[],"default_left":[0,0,0,0,0,0,0,0,0,0,0,0,0,0,0,0,0,0,0,0,0,0,0,0,0,0,0,0,0,0,0,0,0],"id":21,"left_children":[1,3,5,7,9,11,13,15,17,19,-1,21,-1,-1,-1,-1,-1,23,-1,-1,25,-1,27,29,31,-1,-1,-1,-1,-1,-1,-1,-1],"loss_changes":[4.113851E1,1.055934E1,2.999998E0,4.5021076E0,1.5753489E0,1.0696983E0,3.5795643E0,3.9698005E0,7.858944E-1,1.0388258E0,0E0,1.6751256E0,0E0,0E0,0E0,0E0,0E0,5.516033E-1,0E0,0E0,8.553505E-2,0E0,2.9107332E-2,3.8211823E-2,8.029493E-1,0E0,0E0,0E0,0E0,0E0,0E0,0E0,0E0],"parents":[2147483647,0,0,1,1,2,2,3,3,4,4,5,5,6,6,7,7,8,8,9,9,11,11,17,17,20,20,22,22,23,23,24,24],"right_children":[2,4,6,8,10,12,14,16,18,20,-1,22,-1,-1,-1,-1,-1,24,-1,-1,26,-1,28,30,32,-1,-1,-1,-1,-1,-1,-1,-1],"split_conditions":[4.6169086E0,7.9539614E0,5.8580498E1,3.6397367E0,7.148164E0,1.3003436E1,5.7809067E0,3.6210263E0,6.875352E0,1.52094E0,1.5088463E-1,6.911771E0,-1.6148585E-1,1.820144E-1,-1.4065325E-1,1.6483617E-1,-1.4517646E-1,5.332498E0,-3.798457E-2,7.9657465E-2,4.9624476E0,-1.3572118E-1,2.7798007E0,8.281542E0,1.489254E1,-1.527405E-1,-2.715653E-2,3.4140386E-2,1.4107692E-1,7.391158E-2,1.8685193E-1,-9.674742E-2,1.4664276E-1],"split_indices":[68,109,117,13,48,136,69,68,104,139,0,48,0,0,0,0,0,69,0,0,139,0,23,95,7,0,0,0,0,0,0,0,0],"split_type":[0,0,0,0,0,0,0,0,0,0,0,0,0,0,0,0,0,0,0,0,0,0,0,0,0,0,0,0,0,0,0,0,0],"sum_hessian":[2.2994397E2,1.18506165E2,1.11437805E2,1.0110424E2,1.740193E1,1.0103107E2,1.0406741E1,1.311373E1,8.799051E1,1.612655E1,1.2753779E0,7.9056997E0,9.312537E1,4.9458036E0,5.460938E0,5.6055818E0,7.5081487E0,8.680538E1,1.1851227E0,1.435472E0,1.4691079E1,5.028964E0,2.8767354E0,8.383761E1,2.9677737E0,1.368385E1,1.0072291E0,1.1457105E0,1.731025E0,2.0290365E0,8.180857E1,1.3724422E0,1.5953315E0],"tree_param":{"num_deleted":"0","num_feature":"140","num_nodes":"33","size_leaf_vector":"1"}},{"base_weights":[6.1563007E-3,2.0979656E-1,-3.457798E-1,-4.920496E-1,3.152399E-1,-1.8340653E-1,-4.9033222E-1,-6.0259104E-3,-1.543704E-1,4.02963E-1,-1.6823413E-2,-4.5683053E-1,1.4769003E-1,-1.5996827E-1,3.130272E-1,4.7570792E-1,-4.9037334E-2,-3.9762327E-1,3.305435E-1,7.814445E-2,-1.585483E-1,4.3936786E-1,-2.8712958E-1,1.8880535E-2,1.2142931E-1,5.528176E-1,6.7116815E-4,-3.550387E-1,4.641722E-1,-1.5281004E-1,7.285264E-2,-1.0049503E-1,4.194113E-1,6.0130084E-1,-2.0246315E-1,8.56668E-2,-1.4282066E-1,1.7152184E-1,-1.5252399E-2,-1.4285123E-1,1.4402662E-1,4.3887556E-2,-1.4760397E-1,-1.3557517E-2,1.820856E-1,-1.9910054E-2,1.5019375E-1,7.6985774E-3,2.2943255E-1,1.5997725E-2,-9.957762E-2],"categories":[],"categories_nodes":[],"categories_segments":[],"categories_sizes":[],"default_left":[0,0,0,0,0,0,0,0,0,0,0,0,0,0,0,0,0,0,0,0,0,0,0,0,0,0,0,0,0,0,0,0,0,0,0,0,0,0,0,0,0,0,0,0,0,0,0,0,0,0,0],"id":22,"left_children":[1,3,5,7,9,11,13,-1,-1,15,17,19,21,-1,23,25,27,29,31,-1,-1,33,35,-1,-1,37,39,41,43,-1,-1,-1,45,47,49,-1,-1,-1,-1,-1,-1,-1,-1,-1,-1,-1,-1,-1,-1,-1,-1],"loss_changes":[1.8239077E1,1.2084164E1,2.099677E0,2.1757317E-1,4.106718E0,4.18959E0,1.8470211E0,0E0,0E0,3.6854458E0,4.148977E0,1.432199E0,2.8339634E0,0E0,4.568085E-2,3.5171795E0,2.7318957E0,1.1931167E0,1.1121942E0,0E0,0E0,1.4909356E0,1.1288805E0,0E0,0E0,9.727497E-1,3.5233119E0,8.140998E-1,5.030135E-1,0E0,0E0,0E0,6.227107E-1,9.939995E-1,1.3036399E-1,0E0,0E0,0E0,0E0,0E0,0E0,0E0,0E0,0E0,0E0,0E0,0E0,0E0,0E0,0E0,0E0],"parents":[2147483647,0,0,1,1,2,2,3,3,4,4,5,5,6,6,9,9,10,10,11,11,12,12,14,14,15,15,16,16,17,17,18,18,21,21,22,22,25,25,26,26,27,27,28,28,32,32,33,33,34,34],"right_children":[2,4,6,8,10,12,14,-1,-1,16,18,20,22,-1,24,26,28,30,32,-1,-1,34,36,-1,-1,38,40,42,44,-1,-1,-1,46,48,50,-1,-1,-1,-1,-1,-1,-1,-1,-1,-1,-1,-1,-1,-1,-1,-1],"split_conditions":[4.8762956E0,9.984834E0,7.706525E0,7.840737E0,5.9123235E0,5.962019E0,4.339752E1,-6.0259104E-3,-1.543704E-1,3.997044E1,5.8754263E0,1.0796221E1,5.8346314E0,-1.5996827E-1,-4.6074166E0,2.3751223E1,3.3636105E2,6.9087315E0,5.7809067E0,7.814445E-2,-1.585483E-1,1.859952E1,2.175638E1,1.8880535E-2,1.2142931E-1,5.8493586E0,5.382902E0,9.375173E0,7.755711E2,-1.5281004E-1,7.285264E-2,-1.0049503E-1,1.0096259E1,1.7618761E1,5.131753E0,8.56668E-2,-1.4282066E-1,1.7152184E-1,-1.5252399E-2,-1.4285123E-1,1.4402662E-1,4.3887556E-2,-1.4760397E-1,-1.3557517E-2,1.820856E-1,-1.9910054E-2,1.5019375E-1,7.6985774E-3,2.2943255E-1,1.5997725E-2,-9.957762E-2],"split_indices":[34,138,39,83,4,9,93,0,0,95,9,95,34,0,21,118,75,53,69,0,0,116,95,0,0,68,69,22,130,0,0,0,88,78,19,0,0,0,0,0,0,0,0,0,0,0,0,0,0,0,0],"split_type":[0,0,0,0,0,0,0,0,0,0,0,0,0,0,0,0,0,0,0,0,0,0,0,0,0,0,0,0,0,0,0,0,0,0,0,0,0,0,0,0,0,0,0,0,0,0,0,0,0,0,0],"sum_hessian":[2.5248056E2,1.6019249E2,9.228806E1,2.0444494E1,1.39748E2,4.453332E1,4.7754738E1,1.0171899E0,1.9427303E1,1.1037585E2,2.9372149E1,2.4182959E1,2.0350365E1,4.565333E1,2.1014054E0,9.502937E1,1.5346476E1,1.3942762E1,1.5429386E1,1.9572507E0,2.2225708E1,1.2173738E1,8.176626E0,1.0164409E0,1.0849644E0,8.161723E1,1.341214E1,9.807156E0,5.53932E0,1.2045797E1,1.8969648E0,1.4913414E0,1.3938045E1,9.771541E0,2.4021974E0,1.9015514E0,6.2750754E0,7.918794E1,2.4292896E0,6.7275276E0,6.6846123E0,2.0899308E0,7.717225E0,1.3624158E0,4.176904E0,2.023091E0,1.1914954E1,2.4171286E0,7.354412E0,1.0048779E0,1.3973193E0],"tree_param":{"num_deleted":"0","num_feature":"140","num_nodes":"51","size_leaf_vector":"1"}},{"base_weights":[5.7163453E-3,-4.326398E-1,3.0107218E-1,-5.231133E-1,-1.3418904E-1,-3.2303938E-1,3.5872737E-1,4.78619E-2,-1.6019732E-1,-3.8792643E-1,1.633183E-1,-4.965327E-1,1.5915139E-1,5.388572E-1,1.7605741E-1,1.1584898E-1,-1.5012634E-1,4.8600972E-1,-2.7814263E-1,-2.1580122E-2,-1.6061805E-1,-8.5564435E-2,1.1611818E-1,5.8245707E-1,-4.1893754E-2,5.777797E-1,6.637756E-2,-9.339762E-2,1.6147916E-1,7.1945846E-1,-4.0821556E-2,-1.363313E-1,8.46515E-2,-4.2445384E-2,5.9971285E-1,-3.940096E-1,1.361094E-1,-8.9666404E-2,2.0116894E-1,-1.368005E-1,4.4942194E-1,2.522059E-1,6.339209E-2,6.5909244E-2,1.9135895E-1,-2.8962553E-2,-1.403948E-1,-1.7042232E-1,-3.8751317E-3,1.6382775E-1,-1.1131568E-1],"categories":[],"categories_nodes":[],"categories_segments":[],"categories_sizes":[],"default_left":[0,0,0,0,0,0,0,0,0,0,0,0,0,0,0,0,0,0,0,0,0,0,0,0,0,0,0,0,0,0,0,0,0,0,0,0,0,0,0,0,0,0,0,0,0,0,0,0,0,0,0],"id":23,"left_children":[1,3,5,7,9,11,13,-1,-1,15,17,19,21,23,25,27,-1,29,31,-1,-1,-1,-1,33,35,37,39,-1,-1,41,-1,-1,-1,-1,43,45,-1,-1,-1,47,49,-1,-1,-1,-1,-1,-1,-1,-1,-1,-1],"loss_changes":[3.3629684E1,2.7532978E0,5.6995583E0,6.7848206E-1,2.0011363E0,1.2208431E0,4.5948296E0,0E0,0E0,8.598995E-1,1.918655E0,1.3111138E-1,5.5284035E-1,1.8291664E0,3.1450028E0,7.8019005E-1,0E0,1.2011193E0,7.132908E-1,0E0,0E0,0E0,0E0,9.139023E-1,1.2101407E0,1.4502473E0,4.566348E0,0E0,0E0,1.7243052E-1,0E0,0E0,0E0,0E0,8.0238914E-1,4.262978E-2,0E0,0E0,0E0,2.0543551E0,1.812355E0,0E0,0E0,0E0,0E0,0E0,0E0,0E0,0E0,0E0,0E0],"parents":[2147483647,0,0,1,1,2,2,3,3,4,4,5,5,6,6,9,9,10,10,11,11,12,12,13,13,14,14,15,15,17,17,18,18,23,23,24,24,25,25,26,26,29,29,34,34,35,35,39,39,40,40],"right_children":[2,4,6,8,10,12,14,-1,-1,16,18,20,22,24,26,28,-1,30,32,-1,-1,-1,-1,34,36,38,40,-1,-1,42,-1,-1,-1,-1,44,46,-1,-1,-1,48,50,-1,-1,-1,-1,-1,-1,-1,-1,-1,-1],"split_conditions":[6.789545E0,3.2855582E0,3.7427533E0,1.2530813E1,6.6202903E0,1.18E-1,4.053972E1,4.78619E-2,-1.6019732E-1,1.0638315E1,4.864336E0,3.2012482E0,7.57407E1,5.7194046E1,4.521667E0,1.5204025E1,-1.5012634E-1,8.112137E0,7.936777E0,-2.1580122E-2,-1.6061805E-1,-8.5564435E-2,1.1611818E-1,5.193785E0,1.3461646E2,4.6028686E0,6.1028337E0,-9.339762E-2,1.6147916E-1,2.8881779E1,-4.0821556E-2,-1.363313E-1,8.46515E-2,-4.2445384E-2,7.8676558E0,1.015621E1,1.361094E-1,-8.9666404E-2,2.0116894E-1,2.4509548E1,1.18E-1,2.522059E-1,6.339209E-2,6.5909244E-2,1.9135895E-1,-2.8962553E-2,-1.403948E-1,-1.7042232E-1,-3.8751317E-3,1.6382775E-1,-1.1131568E-1],"split_indices":[39,23,24,85,44,30,90,0,0,81,14,96,120,136,13,2,0,98,4,0,0,0,0,9,80,48,29,0,0,131,0,0,0,0,106,27,0,0,0,62,50,0,0,0,0,0,0,0,0,0,0],"split_type":[0,0,0,0,0,0,0,0,0,0,0,0,0,0,0,0,0,0,0,0,0,0,0,0,0,0,0,0,0,0,0,0,0,0,0,0,0,0,0,0,0,0,0,0,0,0,0,0,0,0,0],"sum_hessian":[2.577407E2,1.03566444E2,1.5417427E2,7.889664E1,2.4669802E1,1.264884E1,1.4152542E2,1.023104E0,7.7873535E1,1.31502905E1,1.1519511E1,9.280097E0,3.368743E0,7.027637E1,7.124906E1,2.3950267E0,1.0755263E1,6.596676E0,4.9228354E0,1.017189E0,8.262908E0,1.0568019E0,2.3119411E0,6.536607E1,4.9102902E0,1.4365382E1,5.688368E1,1.3215615E0,1.0734652E0,4.682819E0,1.9138569E0,3.888373E0,1.0344627E0,1.3541757E0,6.40119E1,2.990514E0,1.9197763E0,1.1622707E0,1.3203111E1,3.7588493E1,1.9295187E1,3.252485E0,1.4303341E0,6.4565873E0,5.755531E1,1.0546293E0,1.9358847E0,7.587758E0,3.0000734E1,1.756057E1,1.7346162E0],"tree_param":{"num_deleted":"0","num_feature":"140","num_nodes":"51","size_leaf_vector":"1"}},{"base_weights":[8.754364E-3,-4.6215326E-1,1.1908489E-1,-6.756739E-2,-1.5486829E-1,-2.6686308E-1,2.0424332E-1,-1.19212955E-1,3.341609E-1,1.6966051E-1,-4.2486614E-1,4.1592193E-1,6.8043396E-2,2.1273303E-3,1.4158653E-1,-1.2112873E-1,4.2745832E-1,4.6372052E-2,-4.7207707E-1,-2.7737431E-2,5.0293636E-1,-9.1800734E-2,3.3626828E-1,-1.9156253E-2,5.263559E-1,-1.5325114E-1,5.2039653E-2,-3.8273045E-1,3.9452702E-1,5.384687E-1,-1.7384452E-1,-3.9349103E-1,3.508422E-2,4.6736905E-1,-1.441104E-1,1.746712E-1,4.8601307E-2,-1.4212763E-1,1.358965E-2,1.4694802E-1,4.775455E-3,1.702741E-1,1.9951701E-2,2.5878528E-2,-9.847745E-2,1.13481365E-1,-1.4620152E-1,5.9894904E-2,-8.851757E-2,-1.3077168E-1,1.6401935E-1],"categories":[],"categories_nodes":[],"categories_segments":[],"categories_sizes":[],"default_left":[0,0,0,0,0,0,0,0,0,0,0,0,0,0,0,0,0,0,0,0,0,0,0,0,0,0,0,0,0,0,0,0,0,0,0,0,0,0,0,0,0,0,0,0,0,0,0,0,0,0,0],"id":24,"left_children":[1,3,5,7,-1,9,11,-1,13,15,17,19,21,-1,-1,-1,23,-1,25,27,29,31,33,-1,35,-1,-1,37,39,41,43,45,47,49,-1,-1,-1,-1,-1,-1,-1,-1,-1,-1,-1,-1,-1,-1,-1,-1,-1],"loss_changes":[1.2016717E1,9.019642E-1,6.2111816E0,9.8637164E-1,0E0,2.4374416E0,4.41242E0,0E0,1.520375E-1,1.6255577E0,7.696047E-1,2.3344374E0,4.100453E0,0E0,0E0,0E0,3.8667262E-1,0E0,6.839628E-1,1.7704905E0,1.3033257E0,2.3206027E0,4.0421124E0,0E0,3.1031609E-2,0E0,0E0,2.699262E-1,1.8800735E-1,6.223011E-1,1.5946402E-1,1.4824655E0,2.4134817E0,2.477231E0,0E0,0E0,0E0,0E0,0E0,0E0,0E0,0E0,0E0,0E0,0E0,0E0,0E0,0E0,0E0,0E0,0E0],"parents":[2147483647,0,0,1,1,2,2,3,3,5,5,6,6,8,8,9,9,10,10,11,11,12,12,16,16,18,18,19,19,20,20,21,21,22,22,24,24,27,27,28,28,29,29,30,30,31,31,32,32,33,33],"right_children":[2,4,6,8,-1,10,12,-1,14,16,18,20,22,-1,-1,-1,24,-1,26,28,30,32,34,-1,36,-1,-1,38,40,42,44,46,48,50,-1,-1,-1,-1,-1,-1,-1,-1,-1,-1,-1,-1,-1,-1,-1,-1,-1],"split_conditions":[4.452424E0,4.6E-2,1.6775856E1,1.1224278E1,-1.5486829E-1,1.6676521E1,6.7674284E0,-1.19212955E-1,4.0054736E0,2.7667668E0,4.286978E0,3.4839456E0,4.4003185E1,2.1273303E-3,1.4158653E-1,-1.2112873E-1,6.0646095E0,4.6372052E-2,8.8972025E0,5.445709E0,1.34E-1,4.5609508E0,1.6849987E1,-1.9156253E-2,5.4763403E0,-1.5325114E-1,5.2039653E-2,2.6076777E1,3.1706207E0,2.4886602E1,2.8787093E0,-2.524864E1,5.854611E0,9.9495285E1,-1.441104E-1,1.746712E-1,4.8601307E-2,-1.4212763E-1,1.358965E-2,1.4694802E-1,4.775455E-3,1.702741E-1,1.9951701E-2,2.5878528E-2,-9.847745E-2,1.13481365E-1,-1.4620152E-1,5.9894904E-2,-8.851757E-2,-1.3077168E-1,1.6401935E-1],"split_indices":[68,40,95,27,0,133,64,0,68,104,49,33,128,0,0,0,69,0,91,4,60,96,79,0,3,0,0,132,23,111,23,46,8,130,0,0,0,0,0,0,0,0,0,0,0,0,0,0,0,0,0],"split_type":[0,0,0,0,0,0,0,0,0,0,0,0,0,0,0,0,0,0,0,0,0,0,0,0,0,0,0,0,0,0,0,0,0,0,0,0,0,0,0,0,0,0,0,0,0,0,0,0,0,0,0],"sum_hessian":[2.2922946E2,4.2906998E1,1.8632246E2,5.4424515E0,3.7464546E1,3.329444E1,1.5302802E2,2.9947045E0,2.4477468E0,8.828815E0,2.4465626E1,5.91088E1,9.391922E1,1.0372295E0,1.4105172E0,2.562598E0,6.2662177E0,1.6718765E0,2.279375E1,9.803754E0,4.9305046E1,5.9261227E1,3.465799E1,1.1093632E0,5.1568546E0,2.1699524E1,1.0942267E0,5.3769965E0,4.4267573E0,4.7039734E1,2.2653131E0,1.6922937E1,4.233829E1,3.0232265E1,4.4257236E0,3.9526224E0,1.204232E0,4.34592E0,1.0310769E0,3.3018854E0,1.1248722E0,4.411598E1,2.9237525E0,1.008268E0,1.2570453E0,1.5061623E0,1.5416775E1,2.8518171E1,1.382012E1,2.0788474E0,2.815342E1],"tree_param":{"num_deleted":"0","num_feature":"140","num_nodes":"51","size_leaf_vector":"1"}},{"base_weights":[-2.701587E-2,3.4681162E-1,-4.5709255E-1,4.3927428E-1,-3.99969E-1,-1.5656798E-3,-5.033118E-1,-1.3304815E-1,5.4140973E-1,-1.4515403E-1,7.34073E-2,4.17077E-1,-1.2827383E-1,4.9870938E-2,-5.2144223E-1,1.5024105E-1,-1.4493978E-1,5.7322896E-1,2.5615647E-1,7.0706336E-3,1.5444745E-1,-9.410287E-2,1.3211083E-1,-1.5855426E-1,-1.9391897E-3,1.7580749E-1,1.0867398E-2,-1.1918578E-1,1.7676997E-1],"categories":[],"categories_nodes":[],"categories_segments":[],"categories_sizes":[],"default_left":[0,0,0,0,0,0,0,0,0,0,0,0,0,0,0,0,0,0,0,0,0,0,0,0,0,0,0,0,0],"id":25,"left_children":[1,3,5,7,9,11,13,15,17,-1,-1,19,-1,21,23,-1,-1,25,27,-1,-1,-1,-1,-1,-1,-1,-1,-1,-1],"loss_changes":[3.0411669E1,7.166072E0,1.8505821E0,5.3656807E0,7.498064E-1,1.8018862E0,8.2666016E-1,3.463208E0,5.52454E-1,0E0,0E0,1.8394297E-1,0E0,6.2735766E-1,2.7840996E-1,0E0,0E0,4.4949532E-1,2.3103235E0,0E0,0E0,0E0,0E0,0E0,0E0,0E0,0E0,0E0,0E0],"parents":[2147483647,0,0,1,1,2,2,3,3,4,4,5,5,6,6,7,7,8,8,11,11,13,13,14,14,17,17,18,18],"right_children":[2,4,6,8,10,12,14,16,18,-1,-1,20,-1,22,24,-1,-1,26,28,-1,-1,-1,-1,-1,-1,-1,-1,-1,-1],"split_conditions":[5.332498E0,5.3437304E0,1.3003436E1,3.6397367E0,3.6390457E1,2.2837539E0,4.6169086E0,3.6210263E0,4.4168377E0,-1.4515403E-1,7.34073E-2,5.580201E0,-1.2827383E-1,5.314132E0,1.03259375E4,1.5024105E-1,-1.4493978E-1,7.158457E0,4.0937595E0,7.0706336E-3,1.5444745E-1,-9.410287E-2,1.3211083E-1,-1.5855426E-1,-1.9391897E-3,1.7580749E-1,1.0867398E-2,-1.1918578E-1,1.7676997E-1],"split_indices":[69,29,136,13,12,104,68,68,68,0,0,58,0,4,75,0,0,39,13,0,0,0,0,0,0,0,0,0,0],"split_type":[0,0,0,0,0,0,0,0,0,0,0,0,0,0,0,0,0,0,0,0,0,0,0,0,0,0,0,0,0],"sum_hessian":[1.871713E2,1.0023741E2,8.6933876E1,8.956028E1,1.0677134E1,8.10331E0,7.883057E1,1.3516587E1,7.604369E1,9.6685915E0,1.0085416E0,4.0975924E0,4.0057173E0,2.4460998E0,7.638447E1,4.6560216E0,8.860565E0,6.7504234E1,8.539458E0,1.0622715E0,3.035321E0,1.3686447E0,1.0774552E0,7.53238E1,1.0606706E0,6.5843994E1,1.660242E0,2.8180757E0,5.7213826E0],"tree_param":{"num_deleted":"0","num_feature":"140","num_nodes":"29","size_leaf_vector":"1"}},{"base_weights":[7.004111E-3,1.9368732E-1,-3.213742E-1,-4.7207975E-1,2.8559607E-1,-1.6187386E-1,-4.697658E-1,-9.793234E-3,-1.492754E-1,3.6552674E-1,-1.2107135E-2,-4.8631394E-1,9.78823E-2,-1.5639794E-1,9.975916E-2,4.403518E-1,2.9418683E-3,-3.5835332E-1,3.033738E-1,-1.9713305E-2,-1.5272877E-1,2.9224005E-1,-2.7237254E-1,-1.202018E-1,4.9110204E-1,-2.7351463E-1,4.3834323E-1,-4.6143028E-1,5.1158395E-2,-1.06553E-1,4.2944446E-1,-6.944297E-2,6.747197E-1,8.8494025E-2,-1.3798283E-1,1.14538535E-1,-1.2268105E-1,1.5523334E-1,-3.2849286E-2,1.1073471E-1,-1.19712375E-1,-3.502399E-2,1.7032875E-1,-5.612178E-3,-1.5089524E-1,-7.058678E-3,1.5432495E-1,-1.0652576E-1,9.328754E-2,3.804461E-2,2.2714762E-1],"categories":[],"categories_nodes":[],"categories_segments":[],"categories_sizes":[],"default_left":[0,0,0,0,0,0,0,0,0,0,0,0,0,0,0,0,0,0,0,0,0,0,0,0,0,0,0,0,0,0,0,0,0,0,0,0,0,0,0,0,0,0,0,0,0,0,0,0,0,0,0],"id":26,"left_children":[1,3,5,7,9,11,13,-1,-1,15,17,19,21,-1,-1,23,25,27,29,-1,-1,31,33,35,37,39,41,43,-1,-1,45,47,49,-1,-1,-1,-1,-1,-1,-1,-1,-1,-1,-1,-1,-1,-1,-1,-1,-1,-1],"loss_changes":[1.3163425E1,8.5103E0,1.7662172E0,1.7407155E-1,2.8812284E0,3.3376718E0,1.8196106E0,0E0,0E0,2.5853014E0,3.009653E0,1.3448429E-1,1.6997131E0,0E0,0E0,2.307106E0,2.2041934E0,7.939104E-1,1.3511806E0,0E0,0E0,2.1559377E0,1.0154848E0,1.2234788E0,1.2062225E0,1.0513177E0,5.7698977E-1,1.975472E-1,0E0,0E0,4.9593687E-1,1.0603942E0,2.4289513E-1,0E0,0E0,0E0,0E0,0E0,0E0,0E0,0E0,0E0,0E0,0E0,0E0,0E0,0E0,0E0,0E0,0E0,0E0],"parents":[2147483647,0,0,1,1,2,2,3,3,4,4,5,5,6,6,9,9,10,10,11,11,12,12,15,15,16,16,17,17,18,18,21,21,22,22,23,23,24,24,25,25,26,26,27,27,30,30,31,31,32,32],"right_children":[2,4,6,8,10,12,14,-1,-1,16,18,20,22,-1,-1,24,26,28,30,-1,-1,32,34,36,38,40,42,44,-1,-1,46,48,50,-1,-1,-1,-1,-1,-1,-1,-1,-1,-1,-1,-1,-1,-1,-1,-1,-1,-1],"split_conditions":[4.8762956E0,9.984834E0,7.706525E0,3.7446544E0,5.9123235E0,3.9541345E0,2.2920296E1,-9.793234E-3,-1.492754E-1,4.5323273E1,4.9371924E0,2.1255585E1,5.8346314E0,-1.5639794E-1,9.975916E-2,1.0052939E1,3.2924828E1,2.0953468E1,5.7809067E0,-1.9713305E-2,-1.5272877E-1,1.9968487E1,2.175638E1,4.770452E0,2.6839706E1,2.5486088E0,1.1771888E1,3.533346E1,5.1158395E-2,-1.06553E-1,4.0609508E0,3.7095234E0,1.6910933E1,8.8494025E-2,-1.3798283E-1,1.14538535E-1,-1.2268105E-1,1.5523334E-1,-3.2849286E-2,1.1073471E-1,-1.19712375E-1,-3.502399E-2,1.7032875E-1,-5.612178E-3,-1.5089524E-1,-7.058678E-3,1.5432495E-1,-1.0652576E-1,9.328754E-2,3.804461E-2,2.2714762E-1],"split_indices":[34,138,39,48,4,24,94,0,0,100,8,105,34,0,0,136,7,116,69,0,0,78,95,4,138,28,118,125,0,0,97,23,137,0,0,0,0,0,0,0,0,0,0,0,0,0,0,0,0,0,0],"split_type":[0,0,0,0,0,0,0,0,0,0,0,0,0,0,0,0,0,0,0,0,0,0,0,0,0,0,0,0,0,0,0,0,0,0,0,0,0,0,0,0,0,0,0,0,0,0,0,0,0,0,0],"sum_hessian":[2.1271288E2,1.3587695E2,7.683593E1,1.5980593E1,1.19896355E2,3.803955E1,3.879638E1,1.0017045E0,1.49788885E1,9.433928E1,2.555708E1,1.652604E1,2.1513514E1,3.6782696E1,2.013681E0,7.802343E1,1.6315845E1,1.2119646E1,1.3437432E1,1.0487232E0,1.5477316E1,1.4246046E1,7.2674665E0,6.3638654E0,7.165957E1,1.0206852E1,6.1089926E0,1.0249578E1,1.8700683E0,1.8670921E0,1.157034E1,7.742742E0,6.503304E0,1.6634156E0,5.604051E0,2.206071E0,4.1577945E0,6.8781265E1,2.8783045E0,1.3508208E0,8.856031E0,1.1735331E0,4.9354596E0,1.0039096E0,9.245668E0,1.9418292E0,9.62851E0,4.4601626E0,3.2825794E0,1.1824985E0,5.3208055E0],"tree_param":{"num_deleted":"0","num_feature":"140","num_nodes":"51","size_leaf_vector":"1"}},{"base_weights":[7.1391435E-3,-4.5934567E-1,2.3762167E-1,-5.0839424E-1,-2.2686814E-1,-3.5631043E-1,3.061497E-1,3.4112E-2,-1.5668365E-1,1.2328634E-1,-1.4305791E-1,-4.8415175E-1,4.6437025E-2,4.725734E-1,1.3956743E-1,4.2937157E-1,-2.8352296E-1,-1.5517285E-1,-1.792144E-2,-9.657072E-2,3.1258997E-1,5.1372E-1,-1.4777537E-1,2.7416885E-1,-9.65415E-2,-1.44460155E-2,2.0309916E-1,-2.3191271E-2,-1.0033234E-1,2.960646E-2,1.115886E-1,5.4785764E-1,-8.060152E-3,-1.3634634E-1,9.981368E-2,-1.3717666E-1,3.3465075E-1,-3.6716694E-1,5.1192415E-1,-1.0616318E-3,1.7300248E-1,-1.5674137E-1,1.0966805E-1,-6.7475975E-2,1.22814715E-1,-1.3800935E-1,1.2239655E-1,1.8149854E-1,-1.689791E-2],"categories":[],"categories_nodes":[],"categories_segments":[],"categories_sizes":[],"default_left":[0,0,0,0,0,0,0,0,0,0,0,0,0,0,0,0,0,0,0,0,0,0,0,0,0,0,0,0,0,0,0,0,0,0,0,0,0,0,0,0,0,0,0,0,0,0,0,0,0],"id":27,"left_children":[1,3,5,7,9,11,13,-1,-1,15,-1,17,19,21,23,25,27,-1,-1,-1,29,31,33,35,37,-1,-1,-1,-1,-1,-1,39,41,-1,-1,-1,43,45,47,-1,-1,-1,-1,-1,-1,-1,-1,-1,-1],"loss_changes":[2.3772116E1,7.184496E-1,6.131385E0,5.739889E-1,1.3320377E0,8.3435655E-1,3.6266747E0,0E0,0E0,9.751238E-1,0E0,1.3842702E-1,5.62536E-1,1.7659588E0,2.187089E0,5.4208314E-1,1.13686025E-2,0E0,0E0,0E0,4.4723153E-3,1.1144028E0,8.72607E-1,2.0800707E0,4.374515E0,0E0,0E0,0E0,0E0,0E0,0E0,9.3164635E-1,1.1158652E0,0E0,0E0,0E0,1.798717E0,1.4963574E0,4.701097E-1,0E0,0E0,0E0,0E0,0E0,0E0,0E0,0E0,0E0,0E0],"parents":[2147483647,0,0,1,1,2,2,3,3,4,4,5,5,6,6,9,9,11,11,12,12,13,13,14,14,15,15,16,16,20,20,21,21,22,22,23,23,24,24,31,31,32,32,36,36,37,37,38,38],"right_children":[2,4,6,8,10,12,14,-1,-1,16,-1,18,20,22,24,26,28,-1,-1,-1,30,32,34,36,38,-1,-1,-1,-1,-1,-1,40,42,-1,-1,-1,44,46,48,-1,-1,-1,-1,-1,-1,-1,-1,-1,-1],"split_conditions":[6.4389772E0,3.3335688E0,3.7427533E0,1.2530813E1,1.04E-1,1.18E-1,4.053972E1,3.4112E-2,-1.5668365E-1,-2.784795E0,-1.4305791E-1,1.34E-1,3.947406E0,7.043016E1,1.49369E1,-3.8400486E0,7.9362803E0,-1.5517285E-1,-1.792144E-2,-9.657072E-2,5.97275E0,3.581723E1,1.1698652E2,6.7674284E0,9.448493E0,-1.44460155E-2,2.0309916E-1,-2.3191271E-2,-1.0033234E-1,2.960646E-2,1.115886E-1,4.5040793E0,8.219942E0,-1.3634634E-1,9.981368E-2,-1.3717666E-1,4.232125E0,4.357556E1,2.2920296E1,-1.0616318E-3,1.7300248E-1,-1.5674137E-1,1.0966805E-1,-6.7475975E-2,1.22814715E-1,-1.3800935E-1,1.2239655E-1,1.8149854E-1,-1.689791E-2],"split_indices":[39,23,24,85,40,30,90,0,0,21,0,25,119,136,129,66,102,0,0,0,4,62,136,64,9,0,0,0,0,0,0,74,101,0,0,0,104,111,94,0,0,0,0,0,0,0,0,0,0],"split_type":[0,0,0,0,0,0,0,0,0,0,0,0,0,0,0,0,0,0,0,0,0,0,0,0,0,0,0,0,0,0,0,0,0,0,0,0,0,0,0,0,0,0,0,0,0,0,0,0,0],"sum_hessian":[2.1908662E2,7.212214E1,1.469645E2,5.8576668E1,1.3545473E1,1.4768288E1,1.321962E2,1.12187E0,5.7454796E1,5.853507E0,7.6919656E0,1.1056559E1,3.711729E0,6.5210686E1,6.698551E1,3.3086224E0,2.5448847E0,1.0053939E1,1.0026199E0,1.4691085E0,2.2426205E0,6.131562E1,3.8950658E0,4.256104E1,2.4424473E1,1.4049108E0,1.9037116E0,1.0025917E0,1.542293E0,1.0656312E0,1.1769893E0,5.750346E1,3.8121612E0,2.410481E0,1.4845849E0,2.7495656E0,3.9811474E1,1.7179962E1,7.2445107E0,2.8995757E0,5.4603886E1,1.4362669E0,2.3758943E0,4.4536934E0,3.535778E1,1.5705019E1,1.474943E0,6.1693935E0,1.0751171E0],"tree_param":{"num_deleted":"0","num_feature":"140","num_nodes":"49","size_leaf_vector":"1"}},{"base_weights":[1.0202689E-2,-4.4552293E-1,1.06170125E-1,-4.628358E-2,-1.5171105E-1,1.6013028E-1,-4.1725674E-1,-1.1054548E-1,9.0888344E-2,-1.8772155E-1,2.2369568E-1,1.8328426E-2,-4.8017815E-1,-3.892423E-1,1.5213934E-1,4.5560905E-1,8.57707E-2,-2.5840912E-2,-1.512993E-1,6.419059E-2,-1.5095487E-1,2.942097E-1,-1.0595276E-1,-1.988839E-1,5.0486684E-1,-1.7801924E-1,2.6297817E-1,1.00752726E-1,-6.6130556E-2,-9.5820025E-2,1.3332719E-1,4.8469473E-2,-1.1387078E-1,6.289525E-2,1.6489503E-1,6.291753E-2,